{"learner":{"attributes":{"best_iteration":"134","best_score":"0.6141772229119601","scikit_learn":"{\"_estimator_type\": \"classifier\"}"},"feature_names":["FEATURE_VolumeSkew10","FEATURE_VolumeKurt10","FEATURE_VolumeZscore10","FEATURE_VolumeSkew50","FEATURE_VolumeKurt50","FEATURE_VolumeZscore50","FEATURE_VolumeSkew100","FEATURE_VolumeKurt100","FEATURE_VolumeZscore100","FEATURE_NumberOfTradesSkew10","FEATURE_NumberOfTradesKurt10","FEATURE_NumberOfTradesZscore10","FEATURE_NumberOfTradesSkew50","FEATURE_NumberOfTradesKurt50","FEATURE_NumberOfTradesZscore50","FEATURE_NumberOfTradesSkew100","FEATURE_NumberOfTradesKurt100","FEATURE_NumberOfTradesZscore100","FEATURE_TakerBuyBaseVolumeSkew10","FEATURE_TakerBuyBaseVolumeKurt10","FEATURE_TakerBuyBaseVolumeZscore10","FEATURE_TakerBuyBaseVolumeSkew50","FEATURE_TakerBuyBaseVolumeKurt50","FEATURE_TakerBuyBaseVolumeZscore50","FEATURE_TakerBuyBaseVolumeSkew100","FEATURE_TakerBuyBaseVolumeKurt100","FEATURE_TakerBuyBaseVolumeZscore100","FEATURE_CloseSkew10","FEATURE_CloseKurt10","FEATURE_CloseZscore10","FEATURE_CloseSkew50","FEATURE_CloseKurt50","FEATURE_CloseZscore50","FEATURE_CloseSkew100","FEATURE_CloseKurt100","FEATURE_CloseZscore100","FEATURE_RelativeDiffPct100"],"feature_types":["float","float","float","float","float","float","float","float","float","float","float","float","float","float","float","float","float","float","float","float","float","float","float","float","float","float","float","float","float","float","float","float","float","float","float","float","float"],"gradient_booster":{"model":{"cats":{"enc":[],"feature_segments":[],"sorted_idx":[]},"gbtree_model_param":{"num_parallel_tree":"1","num_trees":"225"},"iteration_indptr":[0,1,2,3,4,5,6,7,8,9,10,11,12,13,14,15,16,17,18,19,20,21,22,23,24,25,26,27,28,29,30,31,32,33,34,35,36,37,38,39,40,41,42,43,44,45,46,47,48,49,50,51,52,53,54,55,56,57,58,59,60,61,62,63,64,65,66,67,68,69,70,71,72,73,74,75,76,77,78,79,80,81,82,83,84,85,86,87,88,89,90,91,92,93,94,95,96,97,98,99,100,101,102,103,104,105,106,107,108,109,110,111,112,113,114,115,116,117,118,119,120,121,122,123,124,125,126,127,128,129,130,131,132,133,134,135,136,137,138,139,140,141,142,143,144,145,146,147,148,149,150,151,152,153,154,155,156,157,158,159,160,161,162,163,164,165,166,167,168,169,170,171,172,173,174,175,176,177,178,179,180,181,182,183,184,185,186,187,188,189,190,191,192,193,194,195,196,197,198,199,200,201,202,203,204,205,206,207,208,209,210,211,212,213,214,215,216,217,218,219,220,221,222,223,224,225],"tree_info":[0,0,0,0,0,0,0,0,0,0,0,0,0,0,0,0,0,0,0,0,0,0,0,0,0,0,0,0,0,0,0,0,0,0,0,0,0,0,0,0,0,0,0,0,0,0,0,0,0,0,0,0,0,0,0,0,0,0,0,0,0,0,0,0,0,0,0,0,0,0,0,0,0,0,0,0,0,0,0,0,0,0,0,0,0,0,0,0,0,0,0,0,0,0,0,0,0,0,0,0,0,0,0,0,0,0,0,0,0,0,0,0,0,0,0,0,0,0,0,0,0,0,0,0,0,0,0,0,0,0,0,0,0,0,0,0,0,0,0,0,0,0,0,0,0,0,0,0,0,0,0,0,0,0,0,0,0,0,0,0,0,0,0,0,0,0,0,0,0,0,0,0,0,0,0,0,0,0,0,0,0,0,0,0,0,0,0,0,0,0,0,0,0,0,0,0,0,0,0,0,0,0,0,0,0,0,0,0,0,0,0,0,0,0,0,0,0,0,0,0,0,0,0,0,0],"trees":[{"base_weights":[-1.3461074E-2,-1.3827153E-1,3.738195E-1,1.8031572E-1,-2.0322768E-1,7.925038E-1,2.6038498E-1,2.387698E-1,-1.4776005E-1,-1.2657475E-1,-3.8074514E-1,6.082475E-1,9.706294E-1,3.9284147E-2,3.7316185E-1,7.20003E-3,2.869522E-3,5.360985E-3,-4.033665E-3,-2.916106E-3,1.253993E-3,-7.6458324E-3,1.9996937E-3,2.1605114E-4,1.145225E-2,1.9267846E-2,1.3479212E-2,9.986744E-3,-5.4412714E-5,5.119697E-3,1.0386923E-2],"categories":[],"categories_nodes":[],"categories_segments":[],"categories_sizes":[],"default_left":[0,0,0,0,0,0,0,0,0,0,0,0,0,0,0,0,0,0,0,0,0,0,0,0,0,0,0,0,0,0,0],"id":0,"left_children":[1,3,5,7,9,11,13,15,17,19,21,23,25,27,29,-1,-1,-1,-1,-1,-1,-1,-1,-1,-1,-1,-1,-1,-1,-1,-1],"loss_changes":[4.810987E3,1.5584384E3,1.147386E3,2.4523975E2,8.495327E2,1.5816064E2,4.757063E2,1.3681818E2,6.667318E1,3.042151E2,4.0928198E2,4.1986877E1,4.2684082E1,1.4211475E2,2.2510461E2,0E0,0E0,0E0,0E0,0E0,0E0,0E0,0E0,0E0,0E0,0E0,0E0,0E0,0E0,0E0,0E0],"parents":[2147483647,0,0,1,1,2,2,3,3,4,4,5,5,6,6,7,7,8,8,9,9,10,10,11,11,12,12,13,13,14,14],"right_children":[2,4,6,8,10,12,14,16,18,20,22,24,26,28,30,-1,-1,-1,-1,-1,-1,-1,-1,-1,-1,-1,-1,-1,-1,-1,-1],"split_conditions":[4.4015554E-1,-1.1806108E0,-2.0161066E0,2.0577599E1,1.4134145E1,1.4376682E0,4.966068E-1,-1.8018605E0,-2.2500732E0,1.3736013E0,1.841221E0,-1.2453378E-1,-2.5916767E0,-6.8323565E-1,2.1231613E0,7.20003E-3,2.869522E-3,5.360985E-3,-4.033665E-3,-2.916106E-3,1.253993E-3,-7.6458324E-3,1.9996937E-3,2.1605114E-4,1.145225E-2,1.9267846E-2,1.3479212E-2,9.986744E-3,-5.4412714E-5,5.119697E-3,1.0386923E-2],"split_indices":[17,35,35,25,25,26,26,35,35,35,35,26,35,11,17,0,0,0,0,0,0,0,0,0,0,0,0,0,0,0,0],"split_type":[0,0,0,0,0,0,0,0,0,0,0,0,0,0,0,0,0,0,0,0,0,0,0,0,0,0,0,0,0,0,0],"sum_hessian":[9.9507086E4,7.526474E4,2.424235E4,1.2738267E4,6.2526473E4,5.1459053E3,1.9096443E4,1.0819232E4,1.9190342E3,4.3693527E4,1.8832943E4,2.566114E3,2.5797913E3,6.461701E3,1.2634743E4,3.542287E3,7.2769453E3,2.7142233E2,1.6476118E3,3.7019883E4,6.673647E3,1.7290414E4,1.5425284E3,1.1842008E2,2.4476938E3,1.7348983E3,8.4489294E2,4.7896707E2,5.982734E3,8.833584E3,3.8011592E3],"tree_param":{"num_deleted":"0","num_feature":"37","num_nodes":"31","size_leaf_vector":"1"}},{"base_weights":[-9.190764E-3,-1.3146396E-1,3.6209017E-1,-6.348489E-2,-3.2260263E-1,1.29847E-1,5.2622193E-1,-1.4637537E-1,7.649413E-2,-3.951108E-1,-1.3719507E-1,2.1586648E-1,-7.196188E-2,7.779395E-1,3.8316265E-1,-1.3953001E-3,-3.5561186E-3,3.323798E-3,2.5139315E-4,-5.822048E-3,-1.045642E-2,-3.5019543E-3,1.3519495E-3,6.3067176E-3,2.2147654E-3,-5.013897E-3,4.4650296E-4,8.53811E-3,1.5117282E-2,5.7890704E-3,9.438574E-3],"categories":[],"categories_nodes":[],"categories_segments":[],"categories_sizes":[],"default_left":[0,0,0,0,0,0,0,0,0,0,0,0,0,0,0,0,0,0,0,0,0,0,0,0,0,0,0,0,0,0,0],"id":1,"left_children":[1,3,5,7,9,11,13,15,17,19,21,23,25,27,29,-1,-1,-1,-1,-1,-1,-1,-1,-1,-1,-1,-1,-1,-1,-1,-1],"loss_changes":[4.5204404E3,9.7249805E2,9.382783E2,6.417363E2,2.624735E2,1.7817636E2,5.1393823E2,1.2178595E2,1.3874503E2,1.8367163E2,6.7998505E1,8.8379974E1,6.177178E1,9.00918E1,7.653308E1,0E0,0E0,0E0,0E0,0E0,0E0,0E0,0E0,0E0,0E0,0E0,0E0,0E0,0E0,0E0,0E0],"parents":[2147483647,0,0,1,1,2,2,3,3,4,4,5,5,6,6,7,7,8,8,9,9,10,10,11,11,12,12,13,13,14,14],"right_children":[2,4,6,8,10,12,14,16,18,20,22,24,26,28,30,-1,-1,-1,-1,-1,-1,-1,-1,-1,-1,-1,-1,-1,-1,-1,-1],"split_conditions":[5.757576E-3,3.3575552E0,5.374235E-1,-4.0404042E-4,1.3131313E-3,1.5885775E1,-1.0064042E0,5.282313E0,-5.834255E-1,4.921988E0,2.528072E-1,-8.906345E-1,-8.6567685E-2,7.575758E-3,9.39394E-3,-1.3953001E-3,-3.5561186E-3,3.323798E-3,2.5139315E-4,-5.822048E-3,-1.045642E-2,-3.5019543E-3,1.3519495E-3,6.3067176E-3,2.2147654E-3,-5.013897E-3,4.4650296E-4,8.53811E-3,1.5117282E-2,5.7890704E-3,9.438574E-3],"split_indices":[36,6,26,36,36,25,29,25,29,6,26,29,26,36,36,0,0,0,0,0,0,0,0,0,0,0,0,0,0,0,0],"split_type":[0,0,0,0,0,0,0,0,0,0,0,0,0,0,0,0,0,0,0,0,0,0,0,0,0,0,0,0,0,0,0],"sum_hessian":[9.955109E4,7.489861E4,2.4652479E4,5.5269625E4,1.9628986E4,1.022306E4,1.4429419E4,3.4719832E4,2.0549791E4,1.4092655E4,5.536331E3,7.1723076E3,3.0507524E3,5.201013E3,9.228406E3,1.4832937E4,1.9886898E4,7.508397E3,1.3041395E4,1.0205556E4,3.8870989E3,4.3652827E3,1.1710479E3,2.9050134E3,4.267294E3,9.6911774E2,2.0816345E3,9.070519E2,4.2939614E3,6.4686353E3,2.7597708E3],"tree_param":{"num_deleted":"0","num_feature":"37","num_nodes":"31","size_leaf_vector":"1"}},{"base_weights":[-1.4687097E-2,-1.3865156E-1,3.2685828E-1,-6.1010964E-2,-3.17534E-1,6.6103995E-1,1.9933718E-1,-2.7179811E-2,-5.0113443E-2,1.9159933E-3,-3.6217713E-1,5.7249296E-1,1.00799E0,1.0542977E-1,4.595537E-1,3.3707528E-3,-1.8404354E-3,1.8995956E-3,-2.9221638E-3,-8.3077755E-3,-4.7271163E-3,8.229249E-3,1.2071375E-2,5.27596E-3,1.8831966E-2,-2.1423519E-2,2.1768725E-3,6.7397663E-3,1.1306449E-2],"categories":[],"categories_nodes":[],"categories_segments":[],"categories_sizes":[],"default_left":[0,0,0,0,0,0,0,0,0,0,0,0,0,0,0,0,0,0,0,0,0,0,0,0,0,0,0,0,0],"id":2,"left_children":[1,3,5,7,9,11,13,-1,15,17,19,21,23,25,27,-1,-1,-1,-1,-1,-1,-1,-1,-1,-1,-1,-1,-1,-1],"loss_changes":[4.2111523E3,1.01275525E3,1.1254048E3,8.0052295E2,3.154348E2,2.1340576E2,4.6747443E2,0E0,6.257724E2,4.6433685E1,1.8878516E2,6.000464E1,3.3353516E1,2.844229E2,6.7887085E1,0E0,0E0,0E0,0E0,0E0,0E0,0E0,0E0,0E0,0E0,0E0,0E0,0E0,0E0],"parents":[2147483647,0,0,1,1,2,2,3,3,4,4,5,5,6,6,8,8,9,9,10,10,11,11,12,12,13,13,14,14],"right_children":[2,4,6,8,10,12,14,-1,16,18,20,22,24,26,28,-1,-1,-1,-1,-1,-1,-1,-1,-1,-1,-1,-1,-1,-1],"split_conditions":[2.7139956E-1,3.2544217E0,-1.6441143E0,-2.2113557E0,-1.3567262E0,3.056939E0,1.9878792E0,-2.7179811E-2,-1.1049105E0,4.465335E0,-3.7441552E-1,1.0182074E0,1.6492735E0,-1.836996E0,1.3674369E0,3.3707528E-3,-1.8404354E-3,1.8995956E-3,-2.9221638E-3,-8.3077755E-3,-4.7271163E-3,8.229249E-3,1.2071375E-2,5.27596E-3,1.8831966E-2,-2.1423519E-2,2.1768725E-3,6.7397663E-3,1.1306449E-2],"split_indices":[8,24,32,34,32,8,32,0,32,24,8,8,6,34,34,0,0,0,0,0,0,0,0,0,0,0,0,0,0],"split_type":[0,0,0,0,0,0,0,0,0,0,0,0,0,0,0,0,0,0,0,0,0,0,0,0,0,0,0,0,0],"sum_hessian":[9.9437195E4,7.2967E4,2.6470195E4,5.0902305E4,2.2064697E4,7.290416E3,1.917978E4,3.6353937E2,5.0538766E4,2.703094E3,1.9361604E4,5.843213E3,1.4472029E3,1.4113363E4,5.066415E3,9.088477E3,4.145029E4,1.6663966E3,1.0366975E3,9.655386E3,9.706218E3,2.7325964E3,3.1106165E3,8.205605E1,1.3651469E3,1.5234468E2,1.3961019E4,3.404564E3,1.661851E3],"tree_param":{"num_deleted":"0","num_feature":"37","num_nodes":"29","size_leaf_vector":"1"}},{"base_weights":[-1.332449E-2,-1.5047184E-1,2.9506162E-1,-1.3129993E-1,-1.2910724E0,7.6767284E-1,2.0740211E-1,2.0626903E-1,-1.8282624E-1,-2.6133558E-2,-9.962473E-1,5.957911E-1,9.429009E-1,9.2082806E-2,3.747649E-1,5.5997698E-3,2.7807974E-4,-1.8322266E-3,-6.486834E-3,-1.3129199E-2,-2.3138635E-2,6.8165255E-3,1.2238219E-2,1.3009864E-2,1.7805105E-2,4.556778E-3,5.490191E-4,-1.919044E-2,7.0273904E-3],"categories":[],"categories_nodes":[],"categories_segments":[],"categories_sizes":[],"default_left":[0,0,0,0,0,0,0,0,0,0,0,0,0,0,0,0,0,0,0,0,0,0,0,0,0,0,0,0,0],"id":3,"left_children":[1,3,5,7,9,11,13,15,17,-1,19,21,23,25,27,-1,-1,-1,-1,-1,-1,-1,-1,-1,-1,-1,-1,-1,-1],"loss_changes":[4.21145E3,1.5026257E3,1.2659548E3,1.1799519E3,2.850586E1,1.3345117E2,4.9823132E2,1.7912314E2,8.453551E2,0E0,1.7811188E1,3.9501892E1,1.0547852E1,1.5167993E2,2.429928E2,0E0,0E0,0E0,0E0,0E0,0E0,0E0,0E0,0E0,0E0,0E0,0E0,0E0,0E0],"parents":[2147483647,0,0,1,1,2,2,3,3,4,4,5,5,6,6,7,7,8,8,10,10,11,11,12,12,13,13,14,14],"right_children":[2,4,6,8,10,12,14,16,18,-1,20,22,24,26,28,-1,-1,-1,-1,-1,-1,-1,-1,-1,-1,-1,-1,-1,-1],"split_conditions":[4.5454544E-3,6.0315747E0,-2.1949096E0,-1.2940965E0,6.760091E0,1.4376682E0,7.2379446E-1,6.3813996E0,1.3303073E1,-2.6133558E-2,1.1516475E1,2.528072E-1,8.383838E-3,-1.0549158E0,-1.836996E0,5.5997698E-3,2.7807974E-4,-1.8322266E-3,-6.486834E-3,-1.3129199E-2,-2.3138635E-2,6.8165255E-3,1.2238219E-2,1.3009864E-2,1.7805105E-2,4.556778E-3,5.490191E-4,-1.919044E-2,7.0273904E-3],"split_indices":[36,31,35,35,16,26,26,22,25,0,31,26,36,32,34,0,0,0,0,0,0,0,0,0,0,0,0,0,0],"split_type":[0,0,0,0,0,0,0,0,0,0,0,0,0,0,0,0,0,0,0,0,0,0,0,0,0,0,0,0,0],"sum_hessian":[9.954918E4,6.891391E4,3.063527E4,6.779245E4,1.1214551E3,4.772286E3,2.5862982E4,8.967659E3,5.8824793E4,6.842972E2,4.371579E2,2.4467861E3,2.3254998E3,1.533133E4,1.0531652E4,5.7767935E3,3.190866E3,4.041248E4,1.8412314E4,2.5755252E2,1.796054E2,7.112805E2,1.7355056E3,4.5285007E2,1.8726497E3,4.2207173E3,1.1110613E4,1.0127921E2,1.0430373E4],"tree_param":{"num_deleted":"0","num_feature":"37","num_nodes":"29","size_leaf_vector":"1"}},{"base_weights":[-7.903756E-3,-1.1556764E0,1.10457666E-1,-1.334017E0,-9.846762E-1,1.2490864E-2,4.436691E-1,-1.5343526E-2,-1.3508012E0,-1.0123119E0,-5.907548E-1,3.2619134E-1,-4.2427E-2,7.895371E-1,3.368139E-1,-2.4463618E-2,-1.3720196E-2,-1.0332964E-2,-1.8445726E-2,-1.4535231E-2,-2.431738E-3,7.3981103E-3,1.8589705E-3,5.3844537E-4,-3.9008758E-3,9.383299E-3,1.5520436E-2,4.836588E-3,9.79975E-3],"categories":[],"categories_nodes":[],"categories_segments":[],"categories_sizes":[],"default_left":[0,0,0,0,0,0,0,0,0,0,0,0,0,0,0,0,0,0,0,0,0,0,0,0,0,0,0,0,0],"id":4,"left_children":[1,3,5,7,9,11,13,-1,15,17,19,21,23,25,27,-1,-1,-1,-1,-1,-1,-1,-1,-1,-1,-1,-1,-1,-1],"loss_changes":[1.3546284E4,2.6109082E2,2.9496104E3,1.5929199E1,4.1101074E1,1.2042501E3,7.5311597E2,0E0,2.4296875E0,1.3222168E1,3.2069405E1,1.9549365E2,7.5012585E2,8.5414795E1,2.1882117E2,0E0,0E0,0E0,0E0,0E0,0E0,0E0,0E0,0E0,0E0,0E0,0E0,0E0,0E0],"parents":[2147483647,0,0,1,1,2,2,3,3,4,4,5,5,6,6,8,8,9,9,10,10,11,11,12,12,13,13,14,14],"right_children":[2,4,6,8,10,12,14,-1,16,18,20,22,24,26,28,-1,-1,-1,-1,-1,-1,-1,-1,-1,-1,-1,-1,-1,-1],"split_conditions":[-2.2921352E0,-9.315704E0,5.661781E-1,-1.2882248E0,-2.396488E0,-1.314204E0,-2.0161066E0,-1.5343526E-2,2.3114564E0,9.952801E-1,2.1175396E-2,3.1881971E0,3.325205E0,5.8500063E-1,2.1847968E0,-2.4463618E-2,-1.3720196E-2,-1.0332964E-2,-1.8445726E-2,-1.4535231E-2,-2.431738E-3,7.3981103E-3,1.8589705E-3,5.3844537E-4,-3.9008758E-3,9.383299E-3,1.5520436E-2,4.836588E-3,9.79975E-3],"split_indices":[28,28,17,31,28,35,35,0,14,24,14,24,24,5,35,0,0,0,0,0,0,0,0,0,0,0,0,0,0],"split_type":[0,0,0,0,0,0,0,0,0,0,0,0,0,0,0,0,0,0,0,0,0,0,0,0,0,0,0,0,0],"sum_hessian":[9.967291E4,9.306572E3,9.0366336E4,4.5012773E3,4.8052944E3,6.984996E4,2.0516377E4,1.8076158E2,4.320516E3,4.464715E3,3.4057922E2,1.0399486E4,5.9450473E4,4.816501E3,1.5699876E4,4.238638E3,8.1877655E1,1.4618411E2,4.318531E3,2.2071138E2,1.1986786E2,7.5191953E3,2.8802908E3,4.2015297E4,1.7435174E4,1.0576705E3,3.7588306E3,1.1852851E4,3.8470261E3],"tree_param":{"num_deleted":"0","num_feature":"37","num_nodes":"29","size_leaf_vector":"1"}},{"base_weights":[-1.8857209E-2,-1.5866746E-1,2.682572E-1,-8.6476535E-2,-3.219552E-1,6.079421E-1,1.5979761E-1,2.9763272E-1,-1.1738931E-1,-7.1676776E-2,-3.6527053E-1,3.7172106E-1,7.8447336E-1,2.466104E-2,3.0377427E-1,8.690373E-3,3.131331E-3,-3.453035E-3,-9.2807476E-4,8.914069E-3,-2.0216287E-3,-7.35317E-3,-8.494721E-4,-3.1002837E-3,7.347414E-3,1.8358983E-2,1.3002974E-2,1.1187806E-3,-3.6568143E-3,3.213617E-3,7.676319E-3],"categories":[],"categories_nodes":[],"categories_segments":[],"categories_sizes":[],"default_left":[0,0,0,0,0,0,0,0,0,0,0,0,0,0,0,0,0,0,0,0,0,0,0,0,0,0,0,0,0,0,0],"id":5,"left_children":[1,3,5,7,9,11,13,15,17,19,21,23,25,27,29,-1,-1,-1,-1,-1,-1,-1,-1,-1,-1,-1,-1,-1,-1,-1,-1],"loss_changes":[3.9872683E3,7.864756E2,1.1957566E3,5.5063586E2,2.2085425E2,3.21802E2,4.7955438E2,7.68306E1,2.097981E2,7.037573E1,2.3889014E2,6.87626E1,5.187622E1,1.088995E2,1.8144116E2,0E0,0E0,0E0,0E0,0E0,0E0,0E0,0E0,0E0,0E0,0E0,0E0,0E0,0E0,0E0,0E0],"parents":[2147483647,0,0,1,1,2,2,3,3,4,4,5,5,6,6,7,7,8,8,9,9,10,10,11,11,12,12,13,13,14,14],"right_children":[2,4,6,8,10,12,14,16,18,20,22,24,26,28,30,-1,-1,-1,-1,-1,-1,-1,-1,-1,-1,-1,-1,-1,-1,-1,-1],"split_conditions":[4.141414E-3,3.172378E0,-1.6689763E0,-1.5948455E0,-1.1923451E0,8.0749094E-1,4.590214E-1,-5.342967E-1,-4.040404E-3,-1.1430727E0,1.5155146E0,-5.063561E-1,-3.1781476E0,4.465335E0,8.383838E-3,8.690373E-3,3.131331E-3,-3.453035E-3,-9.2807476E-4,8.914069E-3,-2.0216287E-3,-7.35317E-3,-8.494721E-4,-3.1002837E-3,7.347414E-3,1.8358983E-2,1.3002974E-2,1.1187806E-3,-3.6568143E-3,3.213617E-3,7.676319E-3],"split_indices":[36,24,32,32,32,26,26,30,36,30,32,26,32,24,36,0,0,0,0,0,0,0,0,0,0,0,0,0,0,0,0],"split_type":[0,0,0,0,0,0,0,0,0,0,0,0,0,0,0,0,0,0,0,0,0,0,0,0,0,0,0,0,0,0,0],"sum_hessian":[9.9303414E4,6.6791336E4,3.251208E4,4.6337332E4,2.0454006E4,7.8484844E3,2.4663596E4,3.4381663E3,4.2899164E4,3.0286653E3,1.7425342E4,3.3802998E3,4.4681846E3,1.2736809E4,1.1926787E4,1.3544767E3,2.0836897E3,2.010788E4,2.2791283E4,1.8888309E2,2.8397822E3,1.5332137E4,2.0932046E3,2.0629338E2,3.1740066E3,8.7897156E2,3.589213E3,1.0951876E4,1.784932E3,5.9262847E3,6.000503E3],"tree_param":{"num_deleted":"0","num_feature":"37","num_nodes":"31","size_leaf_vector":"1"}},{"base_weights":[-9.406449E-3,-1.1989437E-1,3.3196366E-1,-4.3474182E-2,-3.0307916E-1,6.344941E-1,2.1459152E-1,-2.5825107E-2,-3.4284838E-2,1.6017219E-2,-3.6700764E-1,3.3694965E-1,7.482529E-1,-2.3136852E-2,3.1551796E-1,3.7620228E-3,-1.4865039E-3,-2.712459E-3,2.8848539E-3,-7.908426E-3,-4.490812E-3,-4.9604587E-3,6.8697943E-3,1.1609585E-2,1.6490294E-2,2.8415835E-3,-2.9988503E-3,-1.9698318E-2,5.970038E-3],"categories":[],"categories_nodes":[],"categories_segments":[],"categories_sizes":[],"default_left":[0,0,0,0,0,0,0,0,0,0,0,0,0,0,0,0,0,0,0,0,0,0,0,0,0,0,0,0,0],"id":6,"left_children":[1,3,5,7,9,11,13,-1,15,17,19,21,23,25,27,-1,-1,-1,-1,-1,-1,-1,-1,-1,-1,-1,-1,-1,-1],"loss_changes":[3.7506206E3,1.0510858E3,8.6003906E2,6.751608E2,4.516239E2,2.2425269E2,4.2147974E2,0E0,6.194153E2,8.936817E1,1.5396533E2,5.397235E1,7.3618164E1,1.3642653E2,2.84854E2,0E0,0E0,0E0,0E0,0E0,0E0,0E0,0E0,0E0,0E0,0E0,0E0,0E0,0E0],"parents":[2147483647,0,0,1,1,2,2,3,3,4,4,5,5,6,6,8,8,9,9,10,10,11,11,12,12,13,13,14,14],"right_children":[2,4,6,8,10,12,14,-1,16,18,20,22,24,26,28,-1,-1,-1,-1,-1,-1,-1,-1,-1,-1,-1,-1,-1,-1],"split_conditions":[4.4015554E-1,1.4174476E1,-1.6952254E0,-2.2113557E0,-1.1923451E0,6.7281854E-1,4.2345196E-1,-2.5825107E-2,-1.1750194E0,-2.5557473E-1,-2.7355587E-1,-3.168731E-1,2.3344188E0,2.3232347E-1,-1.836996E0,3.7620228E-3,-1.4865039E-3,-2.712459E-3,2.8848539E-3,-7.908426E-3,-4.490812E-3,-4.9604587E-3,6.8697943E-3,1.1609585E-2,1.6490294E-2,2.8415835E-3,-2.9988503E-3,-1.9698318E-2,5.970038E-3],"split_indices":[17,7,32,34,32,26,26,0,32,26,17,26,26,11,34,0,0,0,0,0,0,0,0,0,0,0,0,0,0],"split_type":[0,0,0,0,0,0,0,0,0,0,0,0,0,0,0,0,0,0,0,0,0,0,0,0,0,0,0,0,0],"sum_hessian":[9.9418E4,7.511907E4,2.429893E4,5.302507E4,2.2094004E4,6.7700474E3,1.752888E4,3.315968E2,5.2693473E4,3.6855427E3,1.840846E4,1.8925535E3,4.877494E3,5.2230015E3,1.230588E4,8.714846E3,4.3978625E4,1.7045563E3,1.9809866E3,1.1360553E4,7.047909E3,1.2118105E2,1.7713724E3,3.0702502E3,1.8072439E3,2.3040964E3,2.9189048E3,1.26981E2,1.2178899E4],"tree_param":{"num_deleted":"0","num_feature":"37","num_nodes":"29","size_leaf_vector":"1"}},{"base_weights":[-8.355735E-3,-1.2422651E-1,3.1264374E-1,-2.0655383E-1,-1.877657E-2,5.1988292E-2,4.2892775E-1,-1.8477856E-1,-4.212515E-1,-1.3529749E-1,4.0560976E-2,3.7704074E-1,-1.0417909E-2,3.4699202E-1,6.535462E-1,-4.9043056E-3,-2.672114E-3,-9.58603E-3,-5.11038E-3,-3.2015203E-4,-3.9891014E-3,1.5192102E-3,-1.8058717E-3,-8.3371723E-4,7.313255E-3,-2.6714609E-3,2.419277E-3,9.803105E-3,5.2125817E-3,8.7166275E-4,1.25307E-2],"categories":[],"categories_nodes":[],"categories_segments":[],"categories_sizes":[],"default_left":[0,0,0,0,0,0,0,0,0,0,0,0,0,0,0,0,0,0,0,0,0,0,0,0,0,0,0,0,0,0,0],"id":7,"left_children":[1,3,5,7,9,11,13,15,17,19,21,23,25,27,29,-1,-1,-1,-1,-1,-1,-1,-1,-1,-1,-1,-1,-1,-1,-1,-1],"loss_changes":[3.7022666E3,6.34614E2,7.99103E2,1.8991565E2,2.2212386E2,1.6623923E2,3.3095825E2,1.17633545E2,5.40401E1,1.0954733E2,1.3146304E2,1.7161148E1,1.3743042E2,1.4849377E2,1.2356079E2,0E0,0E0,0E0,0E0,0E0,0E0,0E0,0E0,0E0,0E0,0E0,0E0,0E0,0E0,0E0,0E0],"parents":[2147483647,0,0,1,1,2,2,3,3,4,4,5,5,6,6,7,7,8,8,9,9,10,10,11,11,12,12,13,13,14,14],"right_children":[2,4,6,8,10,12,14,16,18,20,22,24,26,28,30,-1,-1,-1,-1,-1,-1,-1,-1,-1,-1,-1,-1,-1,-1,-1,-1],"split_conditions":[2.8598964E-1,-1.1111111E-3,5.5555557E-3,3.7064424E0,5.7213634E-1,-2.7268755E-1,2.3467097E0,-7.777778E-3,9.3288E-1,-5.8787614E-1,1.1133077E1,-1.3469526E-1,5.2949303E-1,-6.634201E-1,1.6983631E0,-4.9043056E-3,-2.672114E-3,-9.58603E-3,-5.11038E-3,-3.2015203E-4,-3.9891014E-3,1.5192102E-3,-1.8058717E-3,-8.3371723E-4,7.313255E-3,-2.6714609E-3,2.419277E-3,9.803105E-3,5.2125817E-3,8.7166275E-4,1.25307E-2],"split_indices":[8,36,36,3,9,2,8,36,9,1,4,17,17,30,17,0,0,0,0,0,0,0,0,0,0,0,0,0,0,0,0],"split_type":[0,0,0,0,0,0,0,0,0,0,0,0,0,0,0,0,0,0,0,0,0,0,0,0,0,0,0,0,0,0,0],"sum_hessian":[9.951506E4,7.3130945E4,2.6384117E4,4.1052023E4,3.2078918E4,8.1500483E3,1.8234068E4,3.7303492E4,3.748535E3,1.0826006E4,2.1252912E4,1.304382E3,6.8456665E3,1.3393334E4,4.8407344E3,1.0887057E4,2.6416434E4,2.0406467E3,1.7078882E3,4.599676E3,6.22633E3,1.6221851E4,5.0310615E3,8.041979E1,1.2239622E3,3.5105537E3,3.3351128E3,2.9801487E3,1.0413185E4,3.2282184E2,4.5179126E3],"tree_param":{"num_deleted":"0","num_feature":"37","num_nodes":"31","size_leaf_vector":"1"}},{"base_weights":[-1.3607643E-2,-1.2388448E-1,3.169605E-1,-5.117646E-2,-2.879478E-1,6.332844E-1,2.2734994E-1,-1.2708462E0,-3.8548816E-2,-2.6508441E-2,-3.313285E-1,4.004313E-1,7.014073E-1,1.5871294E-1,4.4854215E-1,-2.5947714E-2,-1.3100053E-2,4.487883E-3,-1.4427282E-3,1.9951605E-3,-2.8341073E-3,-6.9415052E-3,-1.1069255E-3,9.317981E-3,1.811918E-3,1.1459537E-2,1.5978247E-2,-2.1096382E-2,3.0131014E-3,-1.9169906E-3,8.529953E-3],"categories":[],"categories_nodes":[],"categories_segments":[],"categories_sizes":[],"default_left":[0,0,0,0,0,0,0,0,0,0,0,0,0,0,0,0,0,0,0,0,0,0,0,0,0,0,0,0,0,0,0],"id":8,"left_children":[1,3,5,7,9,11,13,15,17,19,21,23,25,27,29,-1,-1,-1,-1,-1,-1,-1,-1,-1,-1,-1,-1,-1,-1,-1,-1],"loss_changes":[3.6262388E3,8.8914087E2,7.018579E2,7.93802E2,2.5903162E2,8.107202E1,2.9280157E2,2.9977295E1,6.132672E2,5.9322807E1,2.866963E2,4.328952E1,4.0090088E1,1.7295804E2,6.580267E1,0E0,0E0,0E0,0E0,0E0,0E0,0E0,0E0,0E0,0E0,0E0,0E0,0E0,0E0,0E0,0E0],"parents":[2147483647,0,0,1,1,2,2,3,3,4,4,5,5,6,6,7,7,8,8,9,9,10,10,11,11,12,12,13,13,14,14],"right_children":[2,4,6,8,10,12,14,16,18,20,22,24,26,28,30,-1,-1,-1,-1,-1,-1,-1,-1,-1,-1,-1,-1,-1,-1,-1,-1],"split_conditions":[5.757576E-3,1.3303073E1,-1.9044323E0,-1.836996E0,-1.2633928E0,5.1563334E-1,9.090909E-3,-2.2113557E0,-1.3567262E0,2.0893097E1,1.3651491E0,1.06326475E1,9.79798E-3,-2.2113557E0,-5.2000914E-2,-2.5947714E-2,-1.3100053E-2,4.487883E-3,-1.4427282E-3,1.9951605E-3,-2.8341073E-3,-6.9415052E-3,-1.1069255E-3,9.317981E-3,1.811918E-3,1.1459537E-2,1.5978247E-2,-2.1096382E-2,3.0131014E-3,-1.9169906E-3,8.529953E-3],"split_indices":[36,25,32,34,32,23,36,34,32,25,32,22,36,34,23,0,0,0,0,0,0,0,0,0,0,0,0,0,0,0,0],"split_type":[0,0,0,0,0,0,0,0,0,0,0,0,0,0,0,0,0,0,0,0,0,0,0,0,0,0,0,0,0,0,0],"sum_hessian":[9.945114E4,7.4584E4,2.4867146E4,5.170063E4,2.2883367E4,5.465671E3,1.9401475E4,5.1325574E2,5.1187375E4,3.265023E3,1.9618344E4,1.2654357E3,4.2002354E3,1.483168E4,4.569796E3,3.6952866E2,1.4372707E2,6.449345E3,4.4738027E4,1.5890485E3,1.6759745E3,1.6321275E4,3.2970688E3,8.9824225E2,3.6719342E2,3.1717515E3,1.0284841E3,8.198539E1,1.4749694E4,1.9487079E2,4.3749253E3],"tree_param":{"num_deleted":"0","num_feature":"37","num_nodes":"31","size_leaf_vector":"1"}},{"base_weights":[-1.2276152E-2,-1.146182E0,1.0333723E-1,-1.2958915E0,-9.795398E-1,4.8849297E-1,3.1326275E-2,-2.5386363E-2,-2.1239588E-2,-1.0188116E0,-5.03632E-1,3.8453484E-1,7.478584E-1,-4.1939214E-2,2.5487643E-1,-1.9048436E-2,-1.5161736E-2,-1.25244185E-2,2.6009125E-3,7.8131175E-3,2.3536084E-3,1.5059431E-2,8.940749E-3,7.2549755E-4,-4.5248866E-3,2.2618796E-3,6.671371E-3],"categories":[],"categories_nodes":[],"categories_segments":[],"categories_sizes":[],"default_left":[0,0,0,0,0,0,0,0,0,0,0,0,0,0,0,0,0,0,0,0,0,0,0,0,0,0,0],"id":9,"left_children":[1,3,5,7,9,11,13,-1,-1,15,17,19,21,23,25,-1,-1,-1,-1,-1,-1,-1,-1,-1,-1,-1,-1],"loss_changes":[1.3021956E4,2.0684082E2,2.4988132E3,3.4708496E1,7.254834E1,3.7666895E2,1.2444814E3,0E0,0E0,1.2045898E1,4.831649E1,1.2608728E2,8.1865234E1,9.859952E2,2.7908972E2,0E0,0E0,0E0,0E0,0E0,0E0,0E0,0E0,0E0,0E0,0E0,0E0],"parents":[2147483647,0,0,1,1,2,2,3,3,4,4,5,5,6,6,9,9,10,10,11,11,12,12,13,13,14,14],"right_children":[2,4,6,8,10,12,14,-1,-1,16,18,20,22,24,26,-1,-1,-1,-1,-1,-1,-1,-1,-1,-1,-1,-1],"split_conditions":[-2.2921352E0,-8.101151E0,-1.5091535E0,-3.5571716E1,-2.396488E0,1.1309218E0,5.050505E-3,-2.5386363E-2,-2.1239588E-2,1.1725714E-1,1.1526923E0,1.9714008E1,-2.1462317E0,3.2503161E0,4.966068E-1,-1.9048436E-2,-1.5161736E-2,-1.25244185E-2,2.6009125E-3,7.8131175E-3,2.3536084E-3,1.5059431E-2,8.940749E-3,7.2549755E-4,-4.5248866E-3,2.2618796E-3,6.671371E-3],"split_indices":[28,28,35,28,28,26,36,0,0,26,35,25,35,6,26,0,0,0,0,0,0,0,0,0,0,0,0],"split_type":[0,0,0,0,0,0,0,0,0,0,0,0,0,0,0,0,0,0,0,0,0,0,0,0,0,0,0],"sum_hessian":[9.929196E4,9.175946E3,9.0116016E4,4.7752573E3,4.400689E3,1.4177746E4,7.593827E4,2.3118867E3,2.4633704E3,4.0465085E3,3.5418057E2,1.0151767E4,4.0259788E3,5.7197918E4,1.8740354E4,3.239295E3,8.072138E2,2.7411636E2,8.006421E1,8.48021E3,1.6715565E3,2.9442893E3,1.0816896E3,4.1073895E4,1.6124024E4,8.876192E3,9.864162E3],"tree_param":{"num_deleted":"0","num_feature":"37","num_nodes":"27","size_leaf_vector":"1"}},{"base_weights":[-1.5210364E-2,-1.1407964E0,9.833395E-2,-1.2971828E0,-9.92515E-1,-1.19075915E-2,3.2714653E-1,-2.538546E-2,-2.192198E-2,-1.0412161E0,-6.724957E-1,6.2216714E-2,-2.2146928E-1,5.3835094E-1,2.3921634E-1,-1.092497E-2,-1.8913697E-2,-1.5667131E-2,-4.0452806E-3,2.5283254E-3,-2.7184183E-4,-2.7990344E-3,-6.466822E-3,5.746023E-3,1.2115611E-2,3.5732768E-3,8.3993515E-3],"categories":[],"categories_nodes":[],"categories_segments":[],"categories_sizes":[],"default_left":[0,0,0,0,0,0,0,0,0,0,0,0,0,0,0,0,0,0,0,0,0,0,0,0,0,0,0],"id":10,"left_children":[1,3,5,7,9,11,13,-1,-1,15,17,19,21,23,25,-1,-1,-1,-1,-1,-1,-1,-1,-1,-1,-1,-1],"loss_changes":[1.2716566E4,1.8868066E2,2.2801504E3,9.615723E0,6.093799E1,9.479737E2,5.426946E2,0E0,0E0,4.901367E0,5.5117065E1,2.7286835E2,1.433504E2,2.4984912E2,1.8997278E2,0E0,0E0,0E0,0E0,0E0,0E0,0E0,0E0,0E0,0E0,0E0,0E0],"parents":[2147483647,0,0,1,1,2,2,3,3,4,4,5,5,6,6,9,9,10,10,11,11,12,12,13,13,14,14],"right_children":[2,4,6,8,10,12,14,-1,-1,16,18,20,22,24,26,-1,-1,-1,-1,-1,-1,-1,-1,-1,-1,-1,-1],"split_conditions":[-2.2921352E0,-9.315704E0,4.5454544E-3,-6.4212036E1,-2.5334334E0,1.4960962E1,-1.2404647E0,-2.538546E-2,-2.192198E-2,-1.4828634E0,-2.105872E-2,6.0131593E0,2.8670069E1,7.575758E-3,9.39394E-3,-1.092497E-2,-1.8913697E-2,-1.5667131E-2,-4.0452806E-3,2.5283254E-3,-2.7184183E-4,-2.7990344E-3,-6.466822E-3,5.746023E-3,1.2115611E-2,3.5732768E-3,8.3993515E-3],"split_indices":[28,28,36,28,28,7,29,0,0,2,5,7,7,36,36,0,0,0,0,0,0,0,0,0,0,0,0],"split_type":[0,0,0,0,0,0,0,0,0,0,0,0,0,0,0,0,0,0,0,0,0,0,0,0,0,0,0],"sum_hessian":[9.946022E4,9.10254E3,9.035768E4,4.3687036E3,4.7338364E3,6.0983562E4,2.9374117E4,1.6887998E3,2.6799036E3,4.0751775E3,6.586588E2,4.505167E4,1.593189E4,8.606881E3,2.0767236E4,1.1185727E2,3.9633203E3,4.4463156E2,2.1402724E2,2.2395191E4,2.265648E4,1.0803039E4,5.12885E3,3.3006514E3,5.306229E3,1.7644111E4,3.1231248E3],"tree_param":{"num_deleted":"0","num_feature":"37","num_nodes":"27","size_leaf_vector":"1"}},{"base_weights":[-1.44861955E-2,-1.10109694E-1,3.2884127E-1,-9.32894E-2,-1.0372123E0,5.403942E-1,2.2824734E-1,-2.355395E-2,-2.6641756E-1,-0E0,-1.211655E0,8.41949E-1,4.6096322E-1,1.3540618E-1,4.561002E-1,1.6732299E-3,-1.6675337E-3,-6.3144187E-3,-1.7527014E-3,5.8818073E-3,-4.3970225E-3,-2.5428126E-2,-3.2301713E-3,7.1736174E-3,1.5867675E-2,8.7150335E-3,-1.6050812E-2,2.8250345E-3,-1.3951942E-2,7.0342124E-3,1.2659825E-2],"categories":[],"categories_nodes":[],"categories_segments":[],"categories_sizes":[],"default_left":[0,0,0,0,0,0,0,0,0,0,0,0,0,0,0,0,0,0,0,0,0,0,0,0,0,0,0,0,0,0,0],"id":11,"left_children":[1,3,5,7,9,11,13,15,17,19,21,23,25,27,29,-1,-1,-1,-1,-1,-1,-1,-1,-1,-1,-1,-1,-1,-1,-1,-1],"loss_changes":[3.2670269E3,1.2107634E3,4.5831177E2,9.22766E2,2.4930408E2,1.5917664E2,3.0962354E2,4.3913165E2,3.1194177E2,1.8285183E1,2.3948853E2,1.793158E1,1.802002E2,2.0655943E2,6.287567E1,0E0,0E0,0E0,0E0,0E0,0E0,0E0,0E0,0E0,0E0,0E0,0E0,0E0,0E0,0E0,0E0],"parents":[2147483647,0,0,1,1,2,2,3,3,4,4,5,5,6,6,7,7,8,8,9,9,10,10,11,11,12,12,13,13,14,14],"right_children":[2,4,6,8,10,12,14,16,18,20,22,24,26,28,30,-1,-1,-1,-1,-1,-1,-1,-1,-1,-1,-1,-1,-1,-1,-1,-1],"split_conditions":[4.8649034E-1,5.292944E0,-1.2404647E0,1.4475654E1,-1.5817931E0,-1.0022776E0,7.0033956E-1,-7.3974556E-1,-1.7223817E-1,2.552309E0,1.4035395E0,8.7884974E-1,5.292944E0,6.0315747E0,2.8431342E0,1.6732299E-3,-1.6675337E-3,-6.3144187E-3,-1.7527014E-3,5.8818073E-3,-4.3970225E-3,-2.5428126E-2,-3.2301713E-3,7.1736174E-3,1.5867675E-2,8.7150335E-3,-1.6050812E-2,2.8250345E-3,-1.3951942E-2,7.0342124E-3,1.2659825E-2],"split_indices":[8,31,29,7,30,30,34,31,8,21,30,8,31,31,8,0,0,0,0,0,0,0,0,0,0,0,0,0,0,0,0],"split_type":[0,0,0,0,0,0,0,0,0,0,0,0,0,0,0,0,0,0,0,0,0,0,0,0,0,0,0,0,0,0,0],"sum_hessian":[9.949139E4,7.782902E4,2.1662367E4,7.6459945E4,1.3690754E3,6.9550767E3,1.470729E4,5.452369E4,2.1936256E4,2.0003094E2,1.1690444E3,1.4160913E3,5.5389854E3,1.0471186E4,4.236104E3,2.0285836E4,3.4237855E4,1.4615523E4,7.320733E3,8.177891E1,1.1825204E2,9.726424E2,1.9640208E2,1.3277931E2,1.283312E3,5.456125E3,8.286066E1,1.0242929E4,2.2825696E2,3.3863018E3,8.498023E2],"tree_param":{"num_deleted":"0","num_feature":"37","num_nodes":"31","size_leaf_vector":"1"}},{"base_weights":[-1.407291E-2,-1.4517394E-1,2.4072945E-1,-8.8058375E-2,-3.238426E-1,1.3544098E-1,4.9808925E-1,-2.5080042E-2,-7.870572E-2,-3.859389E-1,-1.3392903E-1,3.6007357E-1,5.167755E-2,-1.5685769E-2,5.124404E-1,2.089096E-3,-2.09068E-3,-2.3969028E-3,-7.5051337E-3,5.6371436E-4,-5.5087027E-3,1.0132605E-2,5.3063934E-3,-2.067004E-2,1.0587126E-3,1.232237E-2,7.397177E-3],"categories":[],"categories_nodes":[],"categories_segments":[],"categories_sizes":[],"default_left":[0,0,0,0,0,0,0,0,0,0,0,0,0,0,0,0,0,0,0,0,0,0,0,0,0,0,0],"id":12,"left_children":[1,3,5,7,9,11,13,-1,15,17,19,21,23,-1,25,-1,-1,-1,-1,-1,-1,-1,-1,-1,-1,-1,-1],"loss_changes":[3.3162556E3,6.679204E2,9.118572E2,6.028948E2,1.8557141E2,4.498886E2,1.9840527E2,0E0,3.602059E2,9.1974976E1,1.1257723E2,8.228534E1,1.490839E2,0E0,1.6342383E2,0E0,0E0,0E0,0E0,0E0,0E0,0E0,0E0,0E0,0E0,0E0,0E0],"parents":[2147483647,0,0,1,1,2,2,3,3,4,4,5,5,6,6,8,8,9,9,10,10,11,11,12,12,14,14],"right_children":[2,4,6,8,10,12,14,-1,16,18,20,22,24,-1,26,-1,-1,-1,-1,-1,-1,-1,-1,-1,-1,-1,-1],"split_conditions":[3.939394E-3,1.5885775E1,1.4082001E0,-2.2113557E0,-1.3469526E-1,-1.3011144E0,-1.733489E0,-2.5080042E-2,-1.1407206E0,-1.2633928E0,7.307358E-2,4.267423E0,-2.2113557E0,-1.5685769E-2,-1.7784752E0,2.089096E-3,-2.09068E-3,-2.3969028E-3,-7.5051337E-3,5.6371436E-4,-5.5087027E-3,1.0132605E-2,5.3063934E-3,-2.067004E-2,1.0587126E-3,1.232237E-2,7.397177E-3],"split_indices":[36,25,17,34,17,32,34,0,32,32,11,25,34,0,32,0,0,0,0,0,0,0,0,0,0,0,0],"split_type":[0,0,0,0,0,0,0,0,0,0,0,0,0,0,0,0,0,0,0,0,0,0,0,0,0,0,0],"sum_hessian":[9.9248266E4,6.55393E4,3.3708973E4,4.9686613E4,1.5852683E4,2.3942555E4,9.766415E3,3.3655252E2,4.9350062E4,1.1928896E4,3.923787E3,6.4847324E3,1.7457822E4,9.090631E1,9.675509E3,7.9460195E3,4.1404043E4,1.3175675E3,1.0611328E4,2.0036222E3,1.9201649E3,1.5452588E3,4.939474E3,8.7832924E1,1.736999E4,3.5511897E3,6.1243193E3],"tree_param":{"num_deleted":"0","num_feature":"37","num_nodes":"27","size_leaf_vector":"1"}},{"base_weights":[-7.913576E-3,-1.0079202E-1,3.2477787E-1,1.4086658E-1,-1.504426E-1,5.708461E-1,2.1624751E-1,3.804572E-1,8.318608E-2,-1.0012326E-1,-3.062505E-1,5.053706E-1,7.521119E-1,1.4066127E-1,4.6595883E-1,3.9354027E-3,8.615341E-3,2.053433E-3,-4.8233992E-3,-2.8263151E-3,-5.490558E-4,-6.3243606E-3,-1.5960401E-3,1.086604E-2,6.978838E-3,1.2605559E-3,1.428537E-2,1.6885211E-3,6.7435293E-3,7.0275725E-3,1.0904086E-2],"categories":[],"categories_nodes":[],"categories_segments":[],"categories_sizes":[],"default_left":[0,0,0,0,0,0,0,0,0,0,0,0,0,0,0,0,0,0,0,0,0,0,0,0,0,0,0,0,0,0,0],"id":13,"left_children":[1,3,5,7,9,11,13,15,17,19,21,23,25,27,29,-1,-1,-1,-1,-1,-1,-1,-1,-1,-1,-1,-1,-1,-1,-1,-1],"loss_changes":[3.0712017E3,9.327506E2,5.762378E2,1.8190872E2,5.0445276E2,7.10459E1,2.827444E2,3.807419E1,1.1632052E2,1.9281561E2,1.5319885E2,5.189392E1,4.661847E1,1.2596669E2,3.1850891E1,0E0,0E0,0E0,0E0,0E0,0E0,0E0,0E0,0E0,0E0,0E0,0E0,0E0,0E0,0E0,0E0],"parents":[2147483647,0,0,1,1,2,2,3,3,4,4,5,5,6,6,7,7,8,8,9,9,10,10,11,11,12,12,13,13,14,14],"right_children":[2,4,6,8,10,12,14,16,18,20,22,24,26,28,30,-1,-1,-1,-1,-1,-1,-1,-1,-1,-1,-1,-1,-1,-1,-1,-1],"split_conditions":[5.661781E-1,-1.1750194E0,-1.6441143E0,-2.0120556E0,1.41254425E1,2.8245513E0,2.2546558E0,-1.4547334E-3,3.7810926E0,-4.1976422E-1,1.3478158E0,-5.8970666E-1,1.7590563E0,2.1231613E0,3.2829378E0,3.9354027E-3,8.615341E-3,2.053433E-3,-4.8233992E-3,-2.8263151E-3,-5.490558E-4,-6.3243606E-3,-1.5960401E-3,1.086604E-2,6.978838E-3,1.2605559E-3,1.428537E-2,1.6885211E-3,6.7435293E-3,7.0275725E-3,1.0904086E-2],"split_indices":[17,32,32,32,16,17,32,5,21,17,32,30,5,17,15,0,0,0,0,0,0,0,0,0,0,0,0,0,0,0,0],"split_type":[0,0,0,0,0,0,0,0,0,0,0,0,0,0,0,0,0,0,0,0,0,0,0,0,0,0,0,0,0,0,0],"sum_hessian":[9.937206E4,7.769631E4,2.1675744E4,1.3232671E4,6.4463645E4,6.610408E3,1.5065336E4,2.546246E3,1.0686425E4,4.875282E4,1.5710825E4,4.904086E3,1.7063223E3,1.1587361E4,3.4779746E3,9.854914E2,1.5607546E3,9.83552E3,8.5090607E2,2.6806176E4,2.1946643E4,1.2999931E4,2.710894E3,2.6311494E3,2.2729365E3,1.0229302E2,1.6040292E3,9.676966E3,1.9103955E3,2.301972E3,1.1760027E3],"tree_param":{"num_deleted":"0","num_feature":"37","num_nodes":"31","size_leaf_vector":"1"}},{"base_weights":[-9.374176E-3,-1.3952246E-1,2.3315637E-1,-7.011535E-2,-3.0928797E-1,1.6389865E-1,5.1534224E-1,-1.13225974E-1,8.6442836E-2,-2.4365485E-1,-4.7617063E-1,2.9677346E-1,9.892265E-2,7.421211E-1,4.0497094E-1,-1.485311E-3,-4.8173843E-3,2.0700623E-3,-4.390819E-3,-5.398367E-3,-2.0485572E-3,-1.0847956E-2,-6.5328027E-3,9.616384E-3,4.21466E-3,1.2000618E-3,5.717382E-3,1.5324497E-2,1.1208913E-2,5.034075E-3,9.126344E-3],"categories":[],"categories_nodes":[],"categories_segments":[],"categories_sizes":[],"default_left":[0,0,0,0,0,0,0,0,0,0,0,0,0,0,0,0,0,0,0,0,0,0,0,0,0,0,0,0,0,0,0],"id":14,"left_children":[1,3,5,7,9,11,13,15,17,19,21,23,25,27,29,-1,-1,-1,-1,-1,-1,-1,-1,-1,-1,-1,-1,-1,-1,-1,-1],"loss_changes":[3.1366875E3,7.6117285E2,6.7589465E2,3.1020062E2,2.0263647E2,2.3974939E2,1.6465369E2,1.6998059E2,9.381458E1,9.747888E1,7.07959E1,1.3295618E2,1.3143777E2,1.8695557E1,5.589038E1,0E0,0E0,0E0,0E0,0E0,0E0,0E0,0E0,0E0,0E0,0E0,0E0,0E0,0E0,0E0,0E0],"parents":[2147483647,0,0,1,1,2,2,3,3,4,4,5,5,6,6,7,7,8,8,9,9,10,10,11,11,12,12,13,13,14,14],"right_children":[2,4,6,8,10,12,14,16,18,20,22,24,26,28,30,-1,-1,-1,-1,-1,-1,-1,-1,-1,-1,-1,-1,-1,-1,-1,-1],"split_conditions":[3.7373737E-3,1.3739233E1,9.090909E-3,6.060606E-4,2.9274284E1,-9.4822E-1,-1.623869E0,8.970029E0,1.6183835E0,1.3177185E0,7.439011E-1,-7.6071393E-1,9.325685E-1,-4.8408747E-1,1.8597015E0,-1.485311E-3,-4.8173843E-3,2.0700623E-3,-4.390819E-3,-5.398367E-3,-2.0485572E-3,-1.0847956E-2,-6.5328027E-3,9.616384E-3,4.21466E-3,1.2000618E-3,5.717382E-3,1.5324497E-2,1.1208913E-2,5.034075E-3,9.126344E-3],"split_indices":[36,7,36,36,7,29,29,4,29,9,9,30,30,30,14,0,0,0,0,0,0,0,0,0,0,0,0,0,0,0,0],"split_type":[0,0,0,0,0,0,0,0,0,0,0,0,0,0,0,0,0,0,0,0,0,0,0,0,0,0,0,0,0,0,0],"sum_hessian":[9.934652E4,6.466053E4,3.468599E4,4.5917574E4,1.8742959E4,2.7873854E4,6.8121357E3,3.601425E4,9.903325E3,1.3485248E4,5.25771E3,9.128871E3,1.8744982E4,2.1975015E3,4.6146343E3,3.006716E4,5.947089E3,9.128498E3,7.7482684E2,9.387163E3,4.098085E3,2.4466055E3,2.8111042E3,1.8764923E3,7.252379E3,1.6358995E4,2.3859873E3,1.0930132E3,1.1044883E3,2.1031206E3,2.511514E3],"tree_param":{"num_deleted":"0","num_feature":"37","num_nodes":"31","size_leaf_vector":"1"}},{"base_weights":[-1.0127199E-2,-1.1076592E-1,2.8722858E-1,2.0532955E-1,-1.630812E-1,5.9857804E-1,2.0155889E-1,3.5417202E-1,1.0035271E-1,-2.0484354E-1,1.503811E-1,3.051323E-1,6.6153556E-1,1.1754967E-1,3.8077906E-1,8.361494E-3,3.9148466E-3,2.5867915E-3,-5.0621913E-3,-2.6437398E-3,-7.1666837E-3,9.728485E-4,4.4923974E-3,7.855535E-3,1.7212279E-3,1.3079445E-2,7.1658036E-3,1.6381962E-3,7.247074E-3,-9.303534E-3,7.1127135E-3],"categories":[],"categories_nodes":[],"categories_segments":[],"categories_sizes":[],"default_left":[0,0,0,0,0,0,0,0,0,0,0,0,0,0,0,0,0,0,0,0,0,0,0,0,0,0,0,0,0,0,0],"id":15,"left_children":[1,3,5,7,9,11,13,15,17,19,21,23,25,27,29,-1,-1,-1,-1,-1,-1,-1,-1,-1,-1,-1,-1,-1,-1,-1,-1],"loss_changes":[2.9722463E3,1.227719E3,6.668479E2,1.6349487E2,8.342976E2,9.542627E1,2.9550104E2,6.3043884E1,1.0311722E2,6.2820654E2,7.093715E1,2.5732117E1,7.003906E1,1.0049609E2,8.391608E1,0E0,0E0,0E0,0E0,0E0,0E0,0E0,0E0,0E0,0E0,0E0,0E0,0E0,0E0,0E0,0E0],"parents":[2147483647,0,0,1,1,2,2,3,3,4,4,5,5,6,6,7,7,8,8,9,9,10,10,11,11,12,12,13,13,14,14],"right_children":[2,4,6,8,10,12,14,16,18,20,22,24,26,28,30,-1,-1,-1,-1,-1,-1,-1,-1,-1,-1,-1,-1,-1,-1,-1,-1],"split_conditions":[5.757576E-3,-1.2940965E0,-1.9759433E0,-1.8018605E0,1.6021112E0,5.4700536E-1,1.4082001E0,6.3087726E0,3.457856E0,3.5135548E0,1.9747254E0,2.513264E0,-9.9149543E-1,2.4058847E0,-1.6986796E0,8.361494E-3,3.9148466E-3,2.5867915E-3,-5.0621913E-3,-2.6437398E-3,-7.1666837E-3,9.728485E-4,4.4923974E-3,7.855535E-3,1.7212279E-3,1.3079445E-2,7.1658036E-3,1.6381962E-3,7.247074E-3,-9.303534E-3,7.1127135E-3],"split_indices":[36,35,35,35,35,17,17,4,21,6,35,21,29,35,34,0,0,0,0,0,0,0,0,0,0,0,0,0,0,0,0],"split_type":[0,0,0,0,0,0,0,0,0,0,0,0,0,0,0,0,0,0,0,0,0,0,0,0,0,0,0,0,0,0,0],"sum_hessian":[9.92994E4,7.42009E4,2.50985E4,1.0526417E4,6.367448E4,5.3926553E3,1.9705846E4,4.3329727E3,6.193445E3,5.6197336E4,7.477146E3,9.7229565E2,4.42036E3,1.3439368E4,6.2664775E3,2.3713765E3,1.9615961E3,5.57344E3,6.200044E2,4.3258883E4,1.2938454E4,3.8127334E3,3.6644126E3,5.833438E2,3.8895184E2,3.5187378E3,9.0162177E2,1.2317679E4,1.1216887E3,8.883923E1,6.177638E3],"tree_param":{"num_deleted":"0","num_feature":"37","num_nodes":"31","size_leaf_vector":"1"}},{"base_weights":[-2.4130843E-3,-1.1123353E0,1.0866453E-1,-1.2547055E0,-9.128448E-1,-2.1548174E-2,2.6659444E-1,-2.5110977E-2,-2.128277E-2,-9.5070964E-1,-5.0206554E-1,5.4499526E-2,-2.0570293E-1,2.093074E-1,5.0622016E-1,-7.5675277E-3,-1.7310139E-2,-1.4638602E-2,-1.8813525E-3,-1.5447382E-3,1.8091011E-3,-2.722399E-3,-7.0831063E-3,4.937737E-3,9.780106E-4,2.7325577E-3,1.0029912E-2],"categories":[],"categories_nodes":[],"categories_segments":[],"categories_sizes":[],"default_left":[0,0,0,0,0,0,0,0,0,0,0,0,0,0,0,0,0,0,0,0,0,0,0,0,0,0,0],"id":16,"left_children":[1,3,5,7,9,11,13,-1,-1,15,17,19,21,23,25,-1,-1,-1,-1,-1,-1,-1,-1,-1,-1,-1,-1],"loss_changes":[1.2251389E4,2.3632715E2,1.8578436E3,2.4492188E1,5.014502E1,6.938006E2,5.5772485E2,0E0,0E0,1.210498E1,4.162465E1,2.2640479E2,1.4638123E2,3.315244E2,1.3974243E2,0E0,0E0,0E0,0E0,0E0,0E0,0E0,0E0,0E0,0E0,0E0,0E0],"parents":[2147483647,0,0,1,1,2,2,3,3,4,4,5,5,6,6,9,9,10,10,11,11,12,12,13,13,14,14],"right_children":[2,4,6,8,10,12,14,-1,-1,16,18,20,22,24,26,-1,-1,-1,-1,-1,-1,-1,-1,-1,-1,-1,-1],"split_conditions":[-2.2921352E0,-6.3034344E0,1.8181818E-3,-6.4212036E1,-2.396488E0,3.2204974E0,8.989899E-3,-2.5110977E-2,-2.128277E-2,6.927938E-1,1.1671214E0,-1.283048E0,3.1377552E1,1.4029094E1,5.8500063E-1,-7.5675277E-3,-1.7310139E-2,-1.4638602E-2,-1.8813525E-3,-1.5447382E-3,1.8091011E-3,-2.722399E-3,-7.0831063E-3,4.937737E-3,9.780106E-4,2.7325577E-3,1.0029912E-2],"split_indices":[28,28,36,28,28,24,36,0,0,7,0,28,7,7,5,0,0,0,0,0,0,0,0,0,0,0,0],"split_type":[0,0,0,0,0,0,0,0,0,0,0,0,0,0,0,0,0,0,0,0,0,0,0,0,0,0,0],"sum_hessian":[9.9330586E4,9.025296E3,9.030529E4,5.2159644E3,3.8093315E3,4.9497895E4,4.0807395E4,1.6735446E3,3.5424197E3,3.4664343E3,3.4289728E2,3.503317E4,1.4464722E4,3.2961652E4,7.8457427E3,8.4949554E1,3.3814849E3,1.8142407E2,1.614732E2,8.638923E3,2.639425E4,1.1240348E4,3.2243745E3,2.3205656E4,9.755996E3,9.9813544E2,6.8476074E3],"tree_param":{"num_deleted":"0","num_feature":"37","num_nodes":"27","size_leaf_vector":"1"}},{"base_weights":[-1.102962E-2,3.8487017E-1,-7.954501E-2,2.6234892E-1,5.853911E-1,-1.3482079E-1,2.2721328E-1,2.7462333E-1,-1.24581605E-2,6.846919E-1,4.4690776E-1,-1.1839358E-1,-1.0383613E0,1.7059094E-1,4.8504594E-1,5.8122845E-3,8.717496E-4,1.1117717E-2,1.4424961E-2,1.2122582E-2,6.6768182E-3,-3.6078286E-3,4.6276994E-4,-2.286893E-2,-5.3673303E-3,-1.1058965E-2,3.2047813E-3,7.251354E-3,1.0653558E-2],"categories":[],"categories_nodes":[],"categories_segments":[],"categories_sizes":[],"default_left":[0,0,0,0,0,0,0,0,0,0,0,0,0,0,0,0,0,0,0,0,0,0,0,0,0,0,0,0,0],"id":17,"left_children":[1,3,5,7,9,11,13,15,-1,17,19,21,23,25,27,-1,-1,-1,-1,-1,-1,-1,-1,-1,-1,-1,-1,-1,-1],"loss_changes":[2.6907874E3,3.55958E2,1.4344763E3,1.09019775E2,6.980701E1,1.0603323E3,1.8632458E2,9.762964E1,0E0,1.5389038E1,3.5315308E1,8.3284955E2,2.1127039E2,6.3098877E1,1.5235901E1,0E0,0E0,0E0,0E0,0E0,0E0,0E0,0E0,0E0,0E0,0E0,0E0,0E0,0E0],"parents":[2147483647,0,0,1,1,2,2,3,3,4,4,5,5,6,6,7,7,9,9,10,10,11,11,12,12,13,13,14,14],"right_children":[2,4,6,8,10,12,14,16,-1,18,20,22,24,26,28,-1,-1,-1,-1,-1,-1,-1,-1,-1,-1,-1,-1,-1,-1],"split_conditions":[-1.5326902E0,7.6036954E-1,1.6265628E0,4.693056E0,-2.3633006E0,6.0315747E0,2.851101E0,1.47147455E1,-1.24581605E-2,3.056939E0,-9.506618E-1,1.3131313E-3,2.4360979E0,-1.612687E0,3.4669235E0,5.8122845E-3,8.717496E-4,1.1117717E-2,1.4424961E-2,1.2122582E-2,6.6768182E-3,-3.6078286E-3,4.6276994E-4,-2.286893E-2,-5.3673303E-3,-1.1058965E-2,3.2047813E-3,7.251354E-3,1.0653558E-2],"split_indices":[35,8,35,31,35,31,35,4,0,8,27,36,12,34,35,0,0,0,0,0,0,0,0,0,0,0,0,0,0],"split_type":[0,0,0,0,0,0,0,0,0,0,0,0,0,0,0,0,0,0,0,0,0,0,0,0,0,0,0,0,0],"sum_hessian":[9.918366E4,1.4619164E4,8.456449E4,9.100643E3,5.518522E3,7.166435E4,1.2900136E4,8.997194E3,1.0344793E2,3.1731733E3,2.3453484E3,7.0402984E4,1.2613663E3,1.06024795E4,2.2976562E3,7.4037935E3,1.5934008E3,2.0834714E3,1.0897017E3,5.5437354E2,1.790975E3,4.486487E4,2.553812E4,9.504969E2,3.1086948E2,8.633025E1,1.0516149E4,1.3468878E3,9.507683E2],"tree_param":{"num_deleted":"0","num_feature":"37","num_nodes":"29","size_leaf_vector":"1"}},{"base_weights":[-1.4849986E-2,3.2640967E-1,-9.214052E-2,5.4869056E-1,2.125441E-1,-1.545829E-1,2.4835354E-1,4.1368455E-1,6.786735E-1,2.9223576E-1,9.6921936E-2,-1.1716672E-1,-3.1323797E-1,1.8928798E-1,5.035855E-1,1.0731153E-2,6.2103355E-3,1.2988847E-2,9.004092E-3,5.5913916E-3,-3.1292606E-3,9.740105E-4,9.849893E-3,-1.678347E-3,-4.790175E-3,-6.305082E-3,1.937989E-4,2.081941E-3,5.5999E-3,7.57401E-3,1.1184756E-2],"categories":[],"categories_nodes":[],"categories_segments":[],"categories_sizes":[],"default_left":[0,0,0,0,0,0,0,0,0,0,0,0,0,0,0,0,0,0,0,0,0,0,0,0,0,0,0,0,0,0,0],"id":18,"left_children":[1,3,5,7,9,11,13,15,17,19,21,23,25,27,29,-1,-1,-1,-1,-1,-1,-1,-1,-1,-1,-1,-1,-1,-1,-1,-1],"loss_changes":[2.622451E3,4.6178052E2,1.7242393E3,1.03038086E2,1.1111926E2,4.0559094E2,1.8697516E2,3.419519E1,1.6747314E1,6.2656006E1,9.495035E1,1.9680847E2,1.5732068E2,9.060333E1,1.7414795E1,0E0,0E0,0E0,0E0,0E0,0E0,0E0,0E0,0E0,0E0,0E0,0E0,0E0,0E0,0E0,0E0],"parents":[2147483647,0,0,1,1,2,2,3,3,4,4,5,5,6,6,7,7,8,8,9,9,10,10,11,11,12,12,13,13,14,14],"right_children":[2,4,6,8,10,12,14,16,18,20,22,24,26,28,30,-1,-1,-1,-1,-1,-1,-1,-1,-1,-1,-1,-1,-1,-1,-1,-1],"split_conditions":[-1.3337996E0,-2.1949096E0,1.6506115E0,1.0070095E0,5.4558845E0,3.4631526E0,2.851101E0,2.4859736E0,2.1712017E0,4.2002754E0,1.481804E0,1.1276579E1,4.590214E-1,4.966068E-1,3.490529E0,1.0731153E-2,6.2103355E-3,1.2988847E-2,9.004092E-3,5.5913916E-3,-3.1292606E-3,9.740105E-4,9.849893E-3,-1.678347E-3,-4.790175E-3,-6.305082E-3,1.937989E-4,2.081941E-3,5.5999E-3,7.57401E-3,1.1184756E-2],"split_indices":[35,35,35,26,22,15,35,22,0,15,23,4,26,26,15,0,0,0,0,0,0,0,0,0,0,0,0,0,0,0,0],"split_type":[0,0,0,0,0,0,0,0,0,0,0,0,0,0,0,0,0,0,0,0,0,0,0,0,0,0,0,0,0,0,0],"sum_hessian":[9.9406336E4,1.8344113E4,8.106223E4,6.189983E3,1.215413E4,6.851079E4,1.2551432E4,3.0727595E3,3.1172234E3,7.1737754E3,4.9803545E3,5.5465664E4,1.304513E4,1.0218644E4,2.3327886E3,8.0261163E2,2.270148E3,2.469152E3,6.4807135E2,6.9092764E3,2.6449945E2,4.566357E3,4.1399753E2,4.7819316E4,7.6463457E3,1.1709734E4,1.335395E3,6.3951035E3,3.8235396E3,1.417555E3,9.152336E2],"tree_param":{"num_deleted":"0","num_feature":"37","num_nodes":"31","size_leaf_vector":"1"}},{"base_weights":[-8.396409E-3,-1.073094E0,1.02427535E-1,-1.2583128E0,-9.077984E-1,2.6144268E-2,3.8169107E-1,-1.40608465E-2,-1.2761604E0,-9.6333414E-1,-5.422914E-1,1.0071761E-1,-1.3161811E-1,-3.475253E-2,4.392866E-1,-2.4545548E-2,-2.1452056E-2,-9.751065E-3,-1.7605526E-2,-1.1611806E-2,2.2786385E-3,-7.00916E-4,2.741613E-3,-4.258425E-3,-7.477897E-4,4.876039E-3,-1.8906569E-3,1.28858285E-2,7.3467987E-3],"categories":[],"categories_nodes":[],"categories_segments":[],"categories_sizes":[],"default_left":[0,0,0,0,0,0,0,0,0,0,0,0,0,0,0,0,0,0,0,0,0,0,0,0,0,0,0,0,0],"id":19,"left_children":[1,3,5,7,9,11,13,-1,15,17,19,21,23,25,27,-1,-1,-1,-1,-1,-1,-1,-1,-1,-1,-1,-1,-1,-1],"loss_changes":[1.1737178E4,2.6673242E2,1.9182957E3,1.9254883E1,9.167627E1,8.328239E2,4.6428564E2,0E0,2.7543945E0,1.6697266E1,5.0083786E1,3.4665607E2,2.1421045E2,5.0840347E1,1.401294E2,0E0,0E0,0E0,0E0,0E0,0E0,0E0,0E0,0E0,0E0,0E0,0E0,0E0,0E0],"parents":[2147483647,0,0,1,1,2,2,3,3,4,4,5,5,6,6,8,8,9,9,10,10,11,11,12,12,13,13,14,14],"right_children":[2,4,6,8,10,12,14,-1,16,18,20,22,24,26,28,-1,-1,-1,-1,-1,-1,-1,-1,-1,-1,-1,-1,-1,-1],"split_conditions":[-2.212938E0,-9.315704E0,5.6576353E-1,-1.2882248E0,-2.396488E0,3.172378E0,4.4015554E-1,-1.40608465E-2,-4.7081223E1,-1.4571747E0,2.3367388E0,-1.1899561E0,-3.407247E-1,-8.87239E-3,-1.1484741E0,-2.4545548E-2,-2.1452056E-2,-9.751065E-3,-1.7605526E-2,-1.1611806E-2,2.2786385E-3,-7.00916E-4,2.741613E-3,-4.258425E-3,-7.477897E-4,4.876039E-3,-1.8906569E-3,1.28858285E-2,7.3467987E-3],"split_indices":[28,28,8,31,28,24,17,0,28,31,31,28,17,2,33,0,0,0,0,0,0,0,0,0,0,0,0,0,0],"split_type":[0,0,0,0,0,0,0,0,0,0,0,0,0,0,0,0,0,0,0,0,0,0,0,0,0,0,0,0,0],"sum_hessian":[9.943136E4,9.363028E3,9.006833E4,4.3643633E3,4.998665E3,7.076109E4,1.9307234E4,1.8460147E2,4.1797617E3,4.3144785E3,6.8418695E2,4.805888E4,2.2702215E4,2.343379E3,1.6963855E4,1.9317775E3,2.2479841E3,1.6841347E2,4.146065E3,5.954419E2,8.874509E1,1.2958063E4,3.5100816E4,1.0465732E4,1.2236482E4,4.261269E2,1.917252E3,1.677907E3,1.5285949E4],"tree_param":{"num_deleted":"0","num_feature":"37","num_nodes":"29","size_leaf_vector":"1"}},{"base_weights":[-1.0933982E-2,-1.5042053E-1,1.8372048E-1,-1.2960927E-1,-9.272633E-1,1.06450275E-1,4.1322827E-1,-7.51872E-2,-3.442628E-1,-6.825968E-1,-2.4385892E-2,1.2065655E-1,-6.683964E-1,2.3090807E-1,5.0868005E-1,1.2458231E-4,-2.9257268E-3,-4.726206E-3,-8.42927E-3,-1.684709E-2,-6.730727E-3,3.1861272E-3,-1.949481E-4,-2.1703959E-2,-1.1805408E-3,-1.4973839E-3,4.6651433E-3,1.4057929E-2,8.243612E-3],"categories":[],"categories_nodes":[],"categories_segments":[],"categories_sizes":[],"default_left":[0,0,0,0,0,0,0,0,0,0,0,0,0,0,0,0,0,0,0,0,0,0,0,0,0,0,0,0,0],"id":20,"left_children":[1,3,5,7,9,11,13,15,17,19,-1,21,23,25,27,-1,-1,-1,-1,-1,-1,-1,-1,-1,-1,-1,-1,-1,-1],"loss_changes":[2.6972139E3,9.322792E2,7.339133E2,6.57657E2,1.4056128E2,3.421367E2,1.7871094E2,3.230454E2,1.1251428E2,7.021173E1,0E0,2.2627838E2,1.7810394E2,3.2712784E1,8.7086914E1,0E0,0E0,0E0,0E0,0E0,0E0,0E0,0E0,0E0,0E0,0E0,0E0,0E0,0E0],"parents":[2147483647,0,0,1,1,2,2,3,3,4,4,5,5,6,6,7,7,8,8,9,9,11,11,12,12,13,13,14,14],"right_children":[2,4,6,8,10,12,14,16,18,20,-1,22,24,26,28,-1,-1,-1,-1,-1,-1,-1,-1,-1,-1,-1,-1,-1,-1],"split_conditions":[2.3232324E-3,3.8938158E0,8.585858E-3,3.6396859E0,1.1516475E1,5.292944E0,1.1515071E0,-4.7872472E-1,2.9274284E1,5.414029E0,-2.4385892E-2,1.3739233E1,5.05795E0,-2.696209E-1,-9.3523496E-1,1.2458231E-4,-2.9257268E-3,-4.726206E-3,-8.42927E-3,-1.684709E-2,-6.730727E-3,3.1861272E-3,-1.949481E-4,-2.1703959E-2,-1.1805408E-3,-1.4973839E-3,4.6651433E-3,1.4057929E-2,8.243612E-3],"split_indices":[36,31,36,6,31,31,5,31,7,13,0,7,13,23,33,0,0,0,0,0,0,0,0,0,0,0,0,0,0],"split_type":[0,0,0,0,0,0,0,0,0,0,0,0,0,0,0,0,0,0,0,0,0,0,0,0,0,0,0,0,0],"sum_hessian":[9.931033E4,5.785989E4,4.1450438E4,5.636922E4,1.4906711E3,3.103136E4,1.041908E4,4.4989957E4,1.1379264E4,9.750826E2,5.1558856E2,3.0487E4,5.4435785E2,3.6033694E3,6.8157104E3,2.3189457E4,2.18005E4,6.895922E3,4.483342E3,5.161149E2,4.5896762E2,2.134537E4,9.141632E3,2.7855038E2,2.6580743E2,2.907184E2,3.3126511E3,1.0312532E3,5.7844575E3],"tree_param":{"num_deleted":"0","num_feature":"37","num_nodes":"29","size_leaf_vector":"1"}},{"base_weights":[-7.893888E-3,-1.3076445E-1,2.0140661E-1,-8.498963E-2,-3.4477997E-1,1.18641816E-1,4.239959E-1,-1.6708991E-1,-1.0663937E-2,-3.966333E-1,-1.3818358E-1,4.746628E-2,2.1965489E-1,6.7193085E-1,3.7262252E-1,-1.3413971E-3,-3.7821827E-3,1.1512187E-3,-1.6216785E-3,-6.27017E-3,-9.489498E-3,-6.3552144E-3,3.8976438E-4,1.7776145E-3,-1.4503726E-3,-3.0235026E-3,4.2919037E-3,1.0052916E-2,1.5765652E-2,-9.1296853E-4,7.1234433E-3],"categories":[],"categories_nodes":[],"categories_segments":[],"categories_sizes":[],"default_left":[0,0,0,0,0,0,0,0,0,0,0,0,0,0,0,0,0,0,0,0,0,0,0,0,0,0,0,0,0,0,0],"id":21,"left_children":[1,3,5,7,9,11,13,15,17,19,21,23,25,27,29,-1,-1,-1,-1,-1,-1,-1,-1,-1,-1,-1,-1,-1,-1,-1,-1],"loss_changes":[2.556473E3,6.1260547E2,6.758021E2,3.1477066E2,1.1650537E2,1.9232953E2,1.2147949E2,9.7017456E1,1.608939E2,5.1420166E1,7.7589294E1,1.0369005E2,8.136017E1,2.9492188E1,8.1926636E1,0E0,0E0,0E0,0E0,0E0,0E0,0E0,0E0,0E0,0E0,0E0,0E0,0E0,0E0,0E0,0E0],"parents":[2147483647,0,0,1,1,2,2,3,3,4,4,5,5,6,6,7,7,8,8,9,9,10,10,11,11,12,12,13,13,14,14],"right_children":[2,4,6,8,10,12,14,16,18,20,22,24,26,28,30,-1,-1,-1,-1,-1,-1,-1,-1,-1,-1,-1,-1,-1,-1,-1,-1],"split_conditions":[3.3333334E-3,1.9331747E1,1.4082001E0,-3.939394E-3,-1.04048334E-1,4.077982E-1,-1.0022776E0,-8.555443E-1,-3.3440438E-1,3.754908E1,2.3796093E0,1.5807154E1,-3.4746075E-1,9.79798E-3,2.5019038E-1,-1.3413971E-3,-3.7821827E-3,1.1512187E-3,-1.6216785E-3,-6.27017E-3,-9.489498E-3,-6.3552144E-3,3.8976438E-4,1.7776145E-3,-1.4503726E-3,-3.0235026E-3,4.2919037E-3,1.0052916E-2,1.5765652E-2,-9.1296853E-4,7.1234433E-3],"split_indices":[36,7,17,36,17,17,30,20,20,7,12,7,23,36,23,0,0,0,0,0,0,0,0,0,0,0,0,0,0,0,0],"split_type":[0,0,0,0,0,0,0,0,0,0,0,0,0,0,0,0,0,0,0,0,0,0,0,0,0,0,0,0,0,0,0],"sum_hessian":[9.938216E4,6.262861E4,3.6753543E4,5.1616543E4,1.1012067E4,2.6813344E4,9.9402E3,2.4507078E4,2.7109463E4,8.785859E3,2.226208E3,1.5751479E4,1.1061864E4,1.6700294E3,8.270171E3,7.8011978E3,1.670588E4,1.3969622E4,1.3139842E4,6.462201E3,2.3236587E3,9.458564E2,1.2803516E3,1.1257286E4,4.494193E3,5.0207895E2,1.0559785E4,1.1138909E3,5.561386E2,4.2405872E2,7.8461123E3],"tree_param":{"num_deleted":"0","num_feature":"37","num_nodes":"31","size_leaf_vector":"1"}},{"base_weights":[-7.6839197E-3,-1.0815195E0,9.775781E-2,-1.2405161E0,-9.32105E-1,3.916162E-1,2.5912607E-2,-2.4179189E-2,-1.1471418E0,-9.653277E-1,-4.8825186E-1,5.465487E-1,3.0101898E-1,-2.7418917E-2,3.032981E-1,-1.298441E-2,-2.1049451E-2,-1.2949379E-2,-1.7705975E-2,-1.2639721E-2,1.8802835E-3,7.849917E-3,1.1772933E-2,6.6688494E-3,2.3688392E-3,5.3415797E-4,-4.1789315E-3,3.1963158E-3,7.6019554E-3],"categories":[],"categories_nodes":[],"categories_segments":[],"categories_sizes":[],"default_left":[0,0,0,0,0,0,0,0,0,0,0,0,0,0,0,0,0,0,0,0,0,0,0,0,0,0,0,0,0],"id":22,"left_children":[1,3,5,7,9,11,13,-1,15,17,19,21,23,25,27,-1,-1,-1,-1,-1,-1,-1,-1,-1,-1,-1,-1,-1,-1],"loss_changes":[1.1246194E4,1.9037402E2,1.9084358E3,1.3956543E1,5.922461E1,2.4555835E2,1.0758046E3,0E0,6.6853027E0,6.229248E0,4.725258E1,7.1604126E1,1.3088812E2,7.131704E2,1.7347559E2,0E0,0E0,0E0,0E0,0E0,0E0,0E0,0E0,0E0,0E0,0E0,0E0,0E0,0E0],"parents":[2147483647,0,0,1,1,2,2,3,3,4,4,5,5,6,6,8,8,9,9,10,10,11,11,12,12,13,13,14,14],"right_children":[2,4,6,8,10,12,14,-1,16,18,20,22,24,26,28,-1,-1,-1,-1,-1,-1,-1,-1,-1,-1,-1,-1,-1,-1],"split_conditions":[-2.2921352E0,-9.315704E0,-1.314204E0,-4.7081223E1,-2.396488E0,-2.1462317E0,1.6753314E0,-2.4179189E-2,1.1709512E0,1.2648346E0,9.891672E-1,1.0557951E0,1.3739233E1,3.5759826E0,4.4731486E-1,-1.298441E-2,-2.1049451E-2,-1.2949379E-2,-1.7705975E-2,-1.2639721E-2,1.8802835E-3,7.849917E-3,1.1772933E-2,6.6688494E-3,2.3688392E-3,5.3415797E-4,-4.1789315E-3,3.1963158E-3,7.6019554E-3],"split_indices":[28,28,35,28,28,35,35,0,6,6,35,8,7,6,8,0,0,0,0,0,0,0,0,0,0,0,0,0,0],"split_type":[0,0,0,0,0,0,0,0,0,0,0,0,0,0,0,0,0,0,0,0,0,0,0,0,0,0,0,0,0],"sum_hessian":[9.92822E4,8.865893E3,9.041631E4,4.237286E3,4.628607E3,1.7745742E4,7.267057E4,1.9138994E3,2.3233865E3,4.2867393E3,3.4186746E2,6.513978E3,1.1231765E4,6.0958492E4,1.1712076E4,1.4373442E2,2.179652E3,3.450257E2,3.9417136E3,2.510163E2,9.0851166E1,3.2573655E3,3.2566125E3,7.946493E3,3.285271E3,4.767067E4,1.3287819E4,5.720229E3,5.9918477E3],"tree_param":{"num_deleted":"0","num_feature":"37","num_nodes":"29","size_leaf_vector":"1"}},{"base_weights":[-1.1752573E-2,-1.5181914E-1,1.501082E-1,-2.4039313E-2,-1.4437532E-1,4.206747E-2,2.9525977E-1,-1.0263E-1,-3.154026E-1,-2.0891396E-2,4.7877196E-2,1.859773E-1,4.284805E-1,3.3624336E-4,-2.6244784E-3,-9.958202E-3,-4.86082E-3,1.3617976E-3,-2.5738806E-3,-2.0169672E-2,3.5698358E-3,-8.676376E-3,7.887811E-3],"categories":[],"categories_nodes":[],"categories_segments":[],"categories_sizes":[],"default_left":[0,0,0,0,0,0,0,0,0,0,0,0,0,0,0,0,0,0,0,0,0,0,0],"id":23,"left_children":[1,3,5,-1,7,9,11,13,15,-1,17,19,21,-1,-1,-1,-1,-1,-1,-1,-1,-1,-1],"loss_changes":[2.2462927E3,4.629475E2,7.2006555E2,0E0,3.7590686E2,1.8343253E2,2.8328235E2,2.2269714E2,1.0813245E2,0E0,1.3929565E2,1.7620093E2,8.121912E1,0E0,0E0,0E0,0E0,0E0,0E0,0E0,0E0,0E0,0E0],"parents":[2147483647,0,0,1,1,2,2,4,4,5,5,6,6,7,7,8,8,10,10,11,11,12,12],"right_children":[2,4,6,-1,8,10,12,14,16,-1,18,20,22,-1,-1,-1,-1,-1,-1,-1,-1,-1,-1],"split_conditions":[1.3131313E-3,-2.2113557E0,4.590214E-1,-2.4039313E-2,1.5720091E1,-2.2113557E0,8.585858E-3,-9.5796734E-1,1.1744729E0,-2.0891396E-2,1.6534286E1,-1.836996E0,-1.733489E0,3.3624336E-4,-2.6244784E-3,-9.958202E-3,-4.86082E-3,1.3617976E-3,-2.5738806E-3,-2.0169672E-2,3.5698358E-3,-8.676376E-3,7.887811E-3],"split_indices":[36,34,26,0,16,34,36,34,12,0,22,34,34,0,0,0,0,0,0,0,0,0,0],"split_type":[0,0,0,0,0,0,0,0,0,0,0,0,0,0,0,0,0,0,0,0,0,0,0],"sum_hessian":[9.905078E4,5.3105777E4,4.5945E4,3.1389087E2,5.2791887E4,2.6356635E4,1.9588365E4,4.2460625E4,1.0331262E4,1.1113059E2,2.6245504E4,1.0786926E4,8.801439E3,1.1138298E4,3.1322328E4,1.6225181E3,8.708743E3,2.292591E4,3.3195945E3,8.72439E1,1.0699682E4,8.374465E1,8.717694E3],"tree_param":{"num_deleted":"0","num_feature":"37","num_nodes":"23","size_leaf_vector":"1"}},{"base_weights":[-4.5132255E-3,-1.0680922E0,9.967133E-2,-1.2217852E0,-9.227283E-1,4.1913933E-1,4.6353236E-2,-2.3754098E-2,-2.040372E-2,-9.5589334E-1,-7.02085E-1,2.5383252E-1,5.486824E-1,-1.4835489E-3,1.9411331E-1,-8.89822E-3,-1.7406385E-2,-1.42087545E-2,-1.0539674E-3,5.533375E-3,9.59465E-6,1.4674767E-2,9.030662E-3,1.1929895E-3,-2.858975E-3,2.4086891E-3,6.855164E-3],"categories":[],"categories_nodes":[],"categories_segments":[],"categories_sizes":[],"default_left":[0,0,0,0,0,0,0,0,0,0,0,0,0,0,0,0,0,0,0,0,0,0,0,0,0,0,0],"id":24,"left_children":[1,3,5,7,9,11,13,-1,-1,15,17,19,21,23,25,-1,-1,-1,-1,-1,-1,-1,-1,-1,-1,-1,-1],"loss_changes":[1.0991861E4,1.7759766E2,1.5377113E3,1.0597656E1,2.12146E1,2.7325708E2,5.47632E2,0E0,0E0,1.0998047E1,3.541272E1,7.698459E1,8.234009E1,6.240695E2,2.1178052E2,0E0,0E0,0E0,0E0,0E0,0E0,0E0,0E0,0E0,0E0,0E0,0E0],"parents":[2147483647,0,0,1,1,2,2,3,3,4,4,5,5,6,6,9,9,10,10,11,11,12,12,13,13,14,14],"right_children":[2,4,6,8,10,12,14,-1,-1,16,18,20,22,24,26,-1,-1,-1,-1,-1,-1,-1,-1,-1,-1,-1,-1],"split_conditions":[-2.2921352E0,-9.315704E0,-1.5948455E0,-4.7081223E1,-2.5334334E0,2.8103447E-1,2.3930074E-1,-2.3754098E-2,-2.040372E-2,-1.1454737E0,1.2585281E0,3.9786537E0,-3.1781476E0,3.233244E0,2.1078784E0,-8.89822E-3,-1.7406385E-2,-1.42087545E-2,-1.0539674E-3,5.533375E-3,9.59465E-6,1.4674767E-2,9.030662E-3,1.1929895E-3,-2.858975E-3,2.4086891E-3,6.855164E-3],"split_indices":[28,28,32,28,28,26,26,0,0,26,34,24,32,6,32,0,0,0,0,0,0,0,0,0,0,0,0],"split_type":[0,0,0,0,0,0,0,0,0,0,0,0,0,0,0,0,0,0,0,0,0,0,0,0,0,0,0],"sum_hessian":[9.915439E4,8.835177E3,9.031921E4,4.2355444E3,4.599632E3,1.2899248E4,7.741996E4,1.9007747E3,2.33477E3,3.949237E3,6.503949E2,5.6919087E3,7.20734E3,5.8489047E4,1.8930916E4,1.12189865E2,3.837047E3,5.67665E2,8.272991E1,4.6906323E3,1.0012762E3,1.038293E3,6.169047E3,4.0882496E4,1.760655E4,1.43355625E4,4.595354E3],"tree_param":{"num_deleted":"0","num_feature":"37","num_nodes":"27","size_leaf_vector":"1"}},{"base_weights":[-1.879751E-3,-1.0322707E0,1.0204336E-1,-1.1740998E0,-8.4931475E-1,2.7229745E-2,3.127737E-1,-2.3381175E-2,-1.968645E-2,-9.305144E-1,-5.937541E-1,7.793346E-2,-1.7785503E-1,4.8930004E-1,2.3187147E-1,-1.7504776E-2,-1.3763823E-2,-1.208694E-2,4.140172E-3,3.6899832E-3,4.7164204E-4,-4.1741435E-3,-7.4964407E-4,7.5531506E-4,9.837032E-3,1.12162E-3,5.0541596E-3],"categories":[],"categories_nodes":[],"categories_segments":[],"categories_sizes":[],"default_left":[0,0,0,0,0,0,0,0,0,0,0,0,0,0,0,0,0,0,0,0,0,0,0,0,0,0,0],"id":25,"left_children":[1,3,5,7,9,11,13,-1,-1,15,17,19,21,23,25,-1,-1,-1,-1,-1,-1,-1,-1,-1,-1,-1,-1],"loss_changes":[1.0638003E4,2.1818555E2,1.4218884E3,2.6135254E1,7.31272E1,6.927197E2,3.3474268E2,0E0,0E0,7.33374E0,6.82027E1,3.5073895E2,9.6629425E1,1.8833679E2,1.3392505E2,0E0,0E0,0E0,0E0,0E0,0E0,0E0,0E0,0E0,0E0,0E0,0E0],"parents":[2147483647,0,0,1,1,2,2,3,3,4,4,5,5,6,6,9,9,10,10,11,11,12,12,13,13,14,14],"right_children":[2,4,6,8,10,12,14,-1,-1,16,18,20,22,24,26,-1,-1,-1,-1,-1,-1,-1,-1,-1,-1,-1,-1],"split_conditions":[-2.212938E0,-6.3034344E0,3.6228576E-1,-4.7081223E1,-2.5334334E0,1.8755486E1,-1.2404647E0,-2.3381175E-2,-1.968645E-2,5.408777E-2,1.1066687E0,4.267423E0,-1.2218642E-1,2.1297246E-1,4.040404E-3,-1.7504776E-2,-1.3763823E-2,-1.208694E-2,4.140172E-3,3.6899832E-3,4.7164204E-4,-4.1741435E-3,-7.4964407E-4,7.5531506E-4,9.837032E-3,1.12162E-3,5.0541596E-3],"split_indices":[28,28,8,28,28,25,29,0,0,26,30,25,8,26,36,0,0,0,0,0,0,0,0,0,0,0,0],"split_type":[0,0,0,0,0,0,0,0,0,0,0,0,0,0,0,0,0,0,0,0,0,0,0,0,0,0,0],"sum_hessian":[9.930219E4,9.086873E3,9.021532E4,5.068366E3,4.0185073E3,6.659631E4,2.3619006E4,1.8890908E3,3.1792751E3,3.015047E3,1.00346027E3,5.3408566E4,1.3187744E4,7.393136E3,1.622587E4,2.340697E3,6.7435004E2,9.21123E2,8.233732E1,1.5431411E4,3.7977156E4,9.426244E3,3.7614993E3,8.4411194E2,6.5490244E3,3.6473838E3,1.2578486E4],"tree_param":{"num_deleted":"0","num_feature":"37","num_nodes":"27","size_leaf_vector":"1"}},{"base_weights":[-7.4017798E-3,-6.337275E-2,2.0506763E-1,-2.3949021E-2,-5.6814376E-2,4.769108E-1,1.4893402E-1,-6.2828045E-3,-1.9285268E-1,3.8864335E-1,6.600172E-1,-1.847718E-2,1.5924402E-1,1.9103893E-3,-8.527189E-4,-5.5885715E-3,-1.9174907E-3,8.614433E-3,3.5772207E-3,1.3781137E-2,8.2166875E-3,1.6060916E-3,5.730581E-3],"categories":[],"categories_nodes":[],"categories_segments":[],"categories_sizes":[],"default_left":[0,0,0,0,0,0,0,0,0,0,0,0,0,0,0,0,0,0,0,0,0,0,0],"id":26,"left_children":[1,3,5,-1,7,9,11,13,15,17,19,-1,21,-1,-1,-1,-1,-1,-1,-1,-1,-1,-1],"loss_changes":[1.1787812E3,6.489246E2,3.1334656E2,0E0,5.3646643E2,5.1561096E1,2.0905222E2,2.630999E2,2.1353955E2,3.8905E1,1.6991486E1,0E0,1.8858856E2,0E0,0E0,0E0,0E0,0E0,0E0,0E0,0E0,0E0,0E0],"parents":[2147483647,0,0,1,1,2,2,4,4,5,5,6,6,7,7,8,8,9,9,10,10,12,12],"right_children":[2,4,6,-1,8,10,12,14,16,18,20,-1,22,-1,-1,-1,-1,-1,-1,-1,-1,-1,-1],"split_conditions":[5.8500063E-1,-2.2113557E0,-7.87255E-1,-2.3949021E-2,3.377724E0,2.4420228E0,-1.836996E0,-9.5796734E-1,7.439011E-1,6.838577E-1,-1.1430727E0,-1.847718E-2,1.5769117E0,1.9103893E-3,-8.527189E-4,-5.5885715E-3,-1.9174907E-3,8.614433E-3,3.5772207E-3,1.3781137E-2,8.2166875E-3,1.6060916E-3,5.730581E-3],"split_indices":[5,34,30,0,24,5,34,34,9,2,30,0,9,0,0,0,0,0,0,0,0,0,0],"split_type":[0,0,0,0,0,0,0,0,0,0,0,0,0,0,0,0,0,0,0,0,0,0,0],"sum_hessian":[9.910937E4,7.8458555E4,2.065081E4,3.8722375E2,7.807133E4,3.5105928E3,1.7140217E4,5.6945562E4,2.1125771E4,2.405863E3,1.1047297E3,1.3491219E2,1.7005305E4,1.5227052E4,4.1718508E4,8.918059E3,1.2207713E4,1.6118368E3,7.940262E2,6.9522595E2,4.0950385E2,1.183188E4,5.1734263E3],"tree_param":{"num_deleted":"0","num_feature":"37","num_nodes":"23","size_leaf_vector":"1"}},{"base_weights":[-7.1845166E-3,-1.3619737E-1,1.6598608E-1,1.2077493E-1,-1.78575E-1,4.0148714E-1,8.556052E-2,-1.8274559E-2,1.3485602E-1,-2.1579286E-1,1.3479032E-1,5.0646216E-1,2.767425E-1,3.2101188E-2,3.1741038E-1,2.8441893E-3,-5.109697E-3,-2.8560096E-3,-6.918774E-3,1.9657856E-3,7.832997E-3,1.0034834E-2,6.3138166E-3,7.844847E-3,2.8345457E-3,3.0945233E-5,5.786581E-3,9.723321E-3,4.7448645E-3],"categories":[],"categories_nodes":[],"categories_segments":[],"categories_sizes":[],"default_left":[0,0,0,0,0,0,0,0,0,0,0,0,0,0,0,0,0,0,0,0,0,0,0,0,0,0,0,0,0],"id":27,"left_children":[1,3,5,7,9,11,13,-1,15,17,19,21,23,25,27,-1,-1,-1,-1,-1,-1,-1,-1,-1,-1,-1,-1,-1,-1],"loss_changes":[2.211911E3,6.183273E2,7.992709E2,1.2929218E2,5.6877625E2,1.3750366E2,3.901175E2,0E0,7.759038E1,4.1775818E2,3.824968E1,4.1890503E1,9.204309E1,2.2496165E2,6.73905E1,0E0,0E0,0E0,0E0,0E0,0E0,0E0,0E0,0E0,0E0,0E0,0E0,0E0,0E0],"parents":[2147483647,0,0,1,1,2,2,3,3,4,4,5,5,6,6,8,8,9,9,10,10,11,11,12,12,13,13,14,14],"right_children":[2,4,6,8,10,12,14,-1,16,18,20,22,24,26,28,-1,-1,-1,-1,-1,-1,-1,-1,-1,-1,-1,-1,-1,-1],"split_conditions":[2.1212122E-3,-1.1806108E0,-1.5091535E0,-1.7778974E0,1.5565044E0,-2.1462317E0,8.787879E-3,-1.8274559E-2,3.655199E1,1.531477E1,1.2568604E0,-9.4822E-1,-6.4561784E-1,2.3414917E0,-1.384868E0,2.8441893E-3,-5.109697E-3,-2.8560096E-3,-6.918774E-3,1.9657856E-3,7.832997E-3,1.0034834E-2,6.3138166E-3,7.844847E-3,2.8345457E-3,3.0945233E-5,5.786581E-3,9.723321E-3,4.7448645E-3],"split_indices":[36,35,35,34,35,35,36,0,7,7,33,29,34,35,29,0,0,0,0,0,0,0,0,0,0,0,0,0,0],"split_type":[0,0,0,0,0,0,0,0,0,0,0,0,0,0,0,0,0,0,0,0,0,0,0,0,0,0,0,0,0],"sum_hessian":[9.897758E4,5.6727332E4,4.2250246E4,8.021694E3,4.8705637E4,1.0735669E4,3.1514578E4,8.384992E1,7.937844E3,4.3543508E4,5.16213E3,5.7983354E3,4.9373335E3,2.562872E4,5.885857E3,7.5341484E3,4.0369568E2,3.2551297E4,1.099221E4,4.7804727E3,3.8165704E2,4.330633E3,1.4677028E3,2.093106E3,2.8442278E3,2.3211936E4,2.4167861E3,1.1132489E3,4.7726084E3],"tree_param":{"num_deleted":"0","num_feature":"37","num_nodes":"29","size_leaf_vector":"1"}},{"base_weights":[-7.132601E-3,-1.0735233E-1,1.9310854E-1,-9.2644565E-2,-1.0478966E0,4.3545023E-1,1.1667673E-1,2.1490128E-1,-1.1735298E-1,-2.2554118E-2,-6.231116E-1,3.8041067E-1,6.5583825E-1,6.1659414E-2,3.0871776E-1,-2.4038069E-4,4.965145E-3,-1.3571763E-3,-5.4528043E-3,-6.0440525E-3,-1.8308472E-2,7.227341E-3,-1.4882055E-3,2.0971429E-3,1.2505254E-2,3.6892653E-3,-4.811794E-4,2.3582012E-3,6.88261E-3],"categories":[],"categories_nodes":[],"categories_segments":[],"categories_sizes":[],"default_left":[0,0,0,0,0,0,0,0,0,0,0,0,0,0,0,0,0,0,0,0,0,0,0,0,0,0,0,0,0],"id":28,"left_children":[1,3,5,7,9,11,13,15,17,-1,19,21,23,25,27,-1,-1,-1,-1,-1,-1,-1,-1,-1,-1,-1,-1,-1,-1],"loss_changes":[1.9868737E3,9.097084E2,6.100502E2,4.941126E2,7.373657E1,9.06189E1,2.6466162E2,6.769043E1,4.6759906E2,0E0,3.3841476E1,6.322638E1,3.0169617E1,2.4807916E2,7.159003E1,0E0,0E0,0E0,0E0,0E0,0E0,0E0,0E0,0E0,0E0,0E0,0E0,0E0,0E0],"parents":[2147483647,0,0,1,1,2,2,3,3,4,4,5,5,6,6,7,7,8,8,10,10,11,11,12,12,13,13,14,14],"right_children":[2,4,6,8,10,12,14,16,18,-1,20,22,24,26,28,-1,-1,-1,-1,-1,-1,-1,-1,-1,-1,-1,-1,-1,-1],"split_conditions":[4.040404E-3,6.0315747E0,-1.6952254E0,-1.5948455E0,2.461479E0,3.023831E0,1.5120318E0,-4.6464647E-3,3.490529E0,-2.2554118E-2,1.1516475E1,4.693056E0,1.2997073E0,-7.5421953E-1,8.585858E-3,-2.4038069E-4,4.965145E-3,-1.3571763E-3,-5.4528043E-3,-6.0440525E-3,-1.8308472E-2,7.227341E-3,-1.4882055E-3,2.0971429E-3,1.2505254E-2,3.6892653E-3,-4.811794E-4,2.3582012E-3,6.88261E-3],"split_indices":[36,31,32,32,15,17,17,36,15,0,31,31,21,31,36,0,0,0,0,0,0,0,0,0,0,0,0,0,0],"split_type":[0,0,0,0,0,0,0,0,0,0,0,0,0,0,0,0,0,0,0,0,0,0,0,0,0,0,0,0,0],"sum_hessian":[9.8982414E4,6.597613E4,3.3006285E4,6.4978105E4,9.980231E2,7.8922656E3,2.511402E4,4.8190596E3,6.0159047E4,6.5093695E2,3.4708612E2,6.3532954E3,1.5389698E3,1.9542863E4,5.5711553E3,1.0127665E3,3.8062932E3,4.9090348E4,1.10687E4,2.1898659E2,1.2809955E2,6.0813325E3,2.719629E2,1.1015385E2,1.428816E3,7.4546426E3,1.2088221E4,1.6505769E3,3.9205786E3],"tree_param":{"num_deleted":"0","num_feature":"37","num_nodes":"29","size_leaf_vector":"1"}},{"base_weights":[-9.314825E-3,-1.0388615E0,8.969278E-2,-1.1908051E0,-9.119819E-1,-7.3586316E-3,2.158252E-1,-2.3245797E-2,-1.9580191E-2,-9.69764E-1,-7.819009E-1,1.2324176E-1,-8.333759E-2,3.805899E-1,1.4916584E-1,-8.359706E-3,-1.7668353E-2,-1.8204683E-3,-1.4723539E-2,3.5327957E-3,5.018719E-5,-8.352393E-4,-5.076086E-3,5.211557E-3,9.80233E-3,2.181835E-3,5.2651707E-3],"categories":[],"categories_nodes":[],"categories_segments":[],"categories_sizes":[],"default_left":[0,0,0,0,0,0,0,0,0,0,0,0,0,0,0,0,0,0,0,0,0,0,0,0,0,0,0],"id":29,"left_children":[1,3,5,7,9,11,13,-1,-1,15,17,19,21,23,25,-1,-1,-1,-1,-1,-1,-1,-1,-1,-1,-1,-1],"loss_changes":[1.0113272E4,1.4836035E2,1.1081536E3,1.5854492E1,2.2172607E1,5.076775E2,4.3065198E2,0E0,0E0,1.0462891E1,3.58302E1,1.6517014E2,2.3672917E2,1.654342E2,1.1125629E2,0E0,0E0,0E0,0E0,0E0,0E0,0E0,0E0,0E0,0E0,0E0,0E0],"parents":[2147483647,0,0,1,1,2,2,3,3,4,4,5,5,6,6,9,9,10,10,11,11,12,12,13,13,14,14],"right_children":[2,4,6,8,10,12,14,-1,-1,16,18,20,22,24,26,-1,-1,-1,-1,-1,-1,-1,-1,-1,-1,-1,-1],"split_conditions":[-2.2921352E0,-1.0694716E1,2.3232324E-3,-4.7081223E1,6.8765724E-1,5.9542437E0,-1.1666383E0,-2.3245797E-2,-1.9580191E-2,6.016605E-1,-9.370066E-1,1.8677438E0,4.4775314E0,8.585858E-3,1.6176931E0,-8.359706E-3,-1.7668353E-2,-1.8204683E-3,-1.4723539E-2,3.5327957E-3,5.018719E-5,-8.352393E-4,-5.076086E-3,5.211557E-3,9.80233E-3,2.181835E-3,5.2651707E-3],"split_indices":[28,28,36,28,29,7,29,0,0,21,30,21,6,36,5,0,0,0,0,0,0,0,0,0,0,0,0],"split_type":[0,0,0,0,0,0,0,0,0,0,0,0,0,0,0,0,0,0,0,0,0,0,0,0,0,0,0],"sum_hessian":[9.917227E4,8.68918E3,9.048309E4,3.8914324E3,4.797747E3,5.1137812E4,3.9345277E4,1.8736346E3,2.0177977E3,3.2470483E3,1.550699E3,1.8797564E4,3.2340248E4,1.1306182E4,2.8039098E4,9.087396E1,3.1561743E3,8.299982E1,1.4676991E3,1.1689151E4,7.1084136E3,2.7292238E4,5.0480083E3,7.3020474E3,4.004134E3,2.3495496E4,4.5436006E3],"tree_param":{"num_deleted":"0","num_feature":"37","num_nodes":"27","size_leaf_vector":"1"}},{"base_weights":[-4.682663E-3,-8.765069E-2,2.410101E-1,-4.8810486E-2,-2.628462E-1,1.6883208E-1,4.0300527E-1,-1.027443E-1,5.0982233E-2,-3.549019E-1,-1.2918036E-1,3.0623224E-1,8.614202E-2,5.458903E-1,2.9535547E-1,-2.9125306E-4,-3.0122162E-3,3.930786E-3,6.9305745E-5,-5.445766E-3,-1.0000749E-2,8.127647E-4,-4.429702E-3,2.204008E-3,6.1908257E-3,4.903412E-3,-1.3557291E-6,-2.957198E-3,1.0462638E-2,1.9791534E-3,6.5390817E-3],"categories":[],"categories_nodes":[],"categories_segments":[],"categories_sizes":[],"default_left":[0,0,0,0,0,0,0,0,0,0,0,0,0,0,0,0,0,0,0,0,0,0,0,0,0,0,0,0,0,0,0],"id":30,"left_children":[1,3,5,7,9,11,13,15,17,19,21,23,25,27,29,-1,-1,-1,-1,-1,-1,-1,-1,-1,-1,-1,-1,-1,-1,-1,-1],"loss_changes":[2.0227772E3,5.041947E2,2.909994E2,3.2715073E2,1.6412189E2,1.9625424E2,1.1480847E2,2.2031552E2,1.6782663E2,7.974567E1,1.12911476E2,4.3775696E1,1.7490369E2,8.460028E1,5.450705E1,0E0,0E0,0E0,0E0,0E0,0E0,0E0,0E0,0E0,0E0,0E0,0E0,0E0,0E0,0E0,0E0],"parents":[2147483647,0,0,1,1,2,2,3,3,4,4,5,5,6,6,7,7,8,8,9,9,10,10,11,11,12,12,13,13,14,14],"right_children":[2,4,6,8,10,12,14,16,18,20,22,24,26,28,30,-1,-1,-1,-1,-1,-1,-1,-1,-1,-1,-1,-1,-1,-1,-1,-1],"split_conditions":[4.4015554E-1,1.9714008E1,1.8480136E0,-2.6070875E-1,-2.4144596E-1,1.1138492E-1,-1.2262738E0,5.7337523E0,-6.3284457E-1,4.005432E1,-3.0151564E-1,-5.798122E-2,-1.3031012E0,4.048908E-1,1.5536227E0,-2.9125306E-4,-3.0122162E-3,3.930786E-3,6.9305745E-5,-5.445766E-3,-1.0000749E-2,8.127647E-4,-4.429702E-3,2.204008E-3,6.1908257E-3,4.903412E-3,-1.3557291E-6,-2.957198E-3,1.0462638E-2,1.9791534E-3,6.5390817E-3],"split_indices":[17,25,17,17,17,11,29,25,11,7,11,5,29,23,5,0,0,0,0,0,0,0,0,0,0,0,0,0,0,0,0],"split_type":[0,0,0,0,0,0,0,0,0,0,0,0,0,0,0,0,0,0,0,0,0,0,0,0,0,0,0,0,0,0,0],"sum_hessian":[9.9211195E4,7.417783E4,2.5033367E4,6.073978E4,1.3438044E4,1.7345057E4,7.688311E3,3.943915E4,2.1300633E4,7.936278E3,5.501766E3,6.4946567E3,1.0850399E4,3.2712883E3,4.417023E3,1.6872479E4,2.256667E4,4.6608228E3,1.663981E4,6.3299453E3,1.6063323E3,2.2070906E3,3.2946755E3,1.1231536E3,5.3715034E3,3.4284175E3,7.4219814E3,1.5057858E2,3.1207097E3,1.200819E3,3.2162039E3],"tree_param":{"num_deleted":"0","num_feature":"37","num_nodes":"31","size_leaf_vector":"1"}},{"base_weights":[-6.652379E-3,-1.4694339E-1,1.3135763E-1,-9.5780306E-2,-3.0096477E-1,3.601376E-1,6.166159E-2,-1.16937354E-1,2.076332E-1,3.24062E-2,-3.4619236E-1,5.1725453E-1,2.8150988E-1,6.3375966E-3,3.1993878E-1,1.7380955E-3,-2.7631773E-3,-3.9044132E-3,4.736789E-3,-6.1080564E-4,4.945098E-3,-6.802023E-3,1.2063998E-3,5.4460233E-3,9.976561E-3,5.7264394E-3,-2.087409E-3,1.1346848E-3,-2.25309E-3,2.9837259E-3,6.7791147E-3],"categories":[],"categories_nodes":[],"categories_segments":[],"categories_sizes":[],"default_left":[0,0,0,0,0,0,0,0,0,0,0,0,0,0,0,0,0,0,0,0,0,0,0,0,0,0,0,0,0,0,0],"id":31,"left_children":[1,3,5,7,9,11,13,15,17,19,21,23,25,27,29,-1,-1,-1,-1,-1,-1,-1,-1,-1,-1,-1,-1,-1,-1,-1,-1],"loss_changes":[1.9176946E3,3.8606238E2,7.950676E2,2.371177E2,1.8510217E2,1.4053064E2,5.4659155E2,2.697771E2,5.7644775E1,2.4152514E1,1.420166E2,2.6870361E1,1.1445471E2,2.353154E2,5.72323E1,0E0,0E0,0E0,0E0,0E0,0E0,0E0,0E0,0E0,0E0,0E0,0E0,0E0,0E0,0E0,0E0],"parents":[2147483647,0,0,1,1,2,2,3,3,4,4,5,5,6,6,7,7,8,8,9,9,10,10,11,11,12,12,13,13,14,14],"right_children":[2,4,6,8,10,12,14,16,18,20,22,24,26,28,30,-1,-1,-1,-1,-1,-1,-1,-1,-1,-1,-1,-1,-1,-1,-1,-1],"split_conditions":[5.050505E-4,1.531477E1,-1.5326902E0,1.701611E0,-1.2347839E0,-2.505724E0,1.9747254E0,-1.1446064E0,-6.902955E-1,-5.491549E-2,1.6506115E0,3.2435054E-1,3.6070194E0,1.331162E1,4.1265145E-1,1.7380955E-3,-2.7631773E-3,-3.9044132E-3,4.736789E-3,-6.1080564E-4,4.945098E-3,-6.802023E-3,1.2063998E-3,5.4460233E-3,9.976561E-3,5.7264394E-3,-2.087409E-3,1.1346848E-3,-2.25309E-3,2.9837259E-3,6.7791147E-3],"split_indices":[36,7,35,35,35,35,35,35,26,26,35,26,21,7,8,0,0,0,0,0,0,0,0,0,0,0,0,0,0,0,0],"split_type":[0,0,0,0,0,0,0,0,0,0,0,0,0,0,0,0,0,0,0,0,0,0,0,0,0,0,0,0,0,0,0],"sum_hessian":[9.901531E4,4.910679E4,4.990852E4,3.6887504E4,1.2219287E4,1.1634333E4,3.8274188E4,3.449624E4,2.3912634E3,1.4562689E3,1.0763019E4,3.8461172E3,7.788216E3,3.1539482E4,6.734705E3,5.03543E3,2.9460809E4,2.6839243E2,2.122871E3,1.1485438E3,3.077251E2,1.0000769E4,7.622496E2,5.915664E2,3.2545508E3,7.137314E3,6.5090186E2,2.205126E4,9.488223E3,1.8332552E3,4.90145E3],"tree_param":{"num_deleted":"0","num_feature":"37","num_nodes":"31","size_leaf_vector":"1"}},{"base_weights":[-7.2729015E-3,3.3048195E-1,-5.499552E-2,1.691797E-1,4.392897E-1,-4.6398383E-2,-1.0756515E0,3.5401618E-1,1.09165356E-1,3.7678745E-1,5.542344E-1,-1.1188588E-1,8.102183E-2,-2.2358462E-2,2.7077594E-3,1.2062147E-2,4.1101133E-3,4.9834573E-3,-1.01502665E-4,7.1307556E-3,-2.3495913E-3,1.1905031E-2,8.799657E-3,-1.1715526E-5,-3.45315E-3,1.0708953E-4,4.230706E-3],"categories":[],"categories_nodes":[],"categories_segments":[],"categories_sizes":[],"default_left":[0,0,0,0,0,0,0,0,0,0,0,0,0,0,0,0,0,0,0,0,0,0,0,0,0,0,0],"id":32,"left_children":[1,3,5,7,9,11,13,15,17,19,21,23,25,-1,-1,-1,-1,-1,-1,-1,-1,-1,-1,-1,-1,-1,-1],"loss_changes":[1.5910315E3,2.1243665E2,7.5668964E2,5.366072E1,4.7788574E1,7.161916E2,1.5150922E2,4.406993E1,7.29385E1,4.806189E1,1.1108276E1,5.0391772E2,3.3643506E2,0E0,0E0,0E0,0E0,0E0,0E0,0E0,0E0,0E0,0E0,0E0,0E0,0E0,0E0],"parents":[2147483647,0,0,1,1,2,2,3,3,4,4,5,5,6,6,7,7,8,8,9,9,10,10,11,11,12,12],"right_children":[2,4,6,8,10,12,14,16,18,20,22,24,26,-1,-1,-1,-1,-1,-1,-1,-1,-1,-1,-1,-1,-1,-1],"split_conditions":[-1.6689763E0,2.2549047E-1,1.1516475E1,-6.865143E-1,1.8839086E0,-3.8229138E-2,1.4776643E1,1.8836852E0,-2.1406684E0,4.693056E0,-9.1568094E-1,-6.5653294E-1,1.5155146E0,-2.2358462E-2,2.7077594E-3,1.2062147E-2,4.1101133E-3,4.9834573E-3,-1.01502665E-4,7.1307556E-3,-2.3495913E-3,1.1905031E-2,8.799657E-3,-1.1715526E-5,-3.45315E-3,1.0708953E-4,4.230706E-3],"split_indices":[32,26,31,31,26,26,13,24,32,31,33,31,32,0,0,0,0,0,0,0,0,0,0,0,0,0,0],"split_type":[0,0,0,0,0,0,0,0,0,0,0,0,0,0,0,0,0,0,0,0,0,0,0,0,0,0,0],"sum_hessian":[9.870186E4,1.2204525E4,8.6497336E4,4.937309E3,7.2672163E3,8.579185E4,7.054858E2,1.1860254E3,3.7512834E3,4.7575015E3,2.509715E3,5.667658E4,2.9115271E4,6.220473E2,8.3438484E1,3.1551685E2,8.705086E2,1.5211908E3,2.2300928E3,4.5885874E3,1.6891371E2,8.90362E2,1.6193531E3,2.3716254E4,3.2960324E4,1.959126E4,9.524013E3],"tree_param":{"num_deleted":"0","num_feature":"37","num_nodes":"27","size_leaf_vector":"1"}},{"base_weights":[-1.1759479E-2,-9.9444985E-1,8.661578E-2,-1.1348741E0,-8.1443787E-1,3.4333637E-1,2.68054E-2,-2.2731517E-2,-1.8968234E-2,-8.444422E-1,-8.1382523E-4,2.7671674E-1,4.6945524E-1,-1.7385414E-2,2.4729641E-1,-3.5073243E-3,-1.551302E-2,6.825987E-3,3.0356396E-3,1.0025307E-2,6.944907E-3,7.574105E-4,-2.800971E-3,2.8938826E-3,6.019031E-3],"categories":[],"categories_nodes":[],"categories_segments":[],"categories_sizes":[],"default_left":[0,0,0,0,0,0,0,0,0,0,0,0,0,0,0,0,0,0,0,0,0,0,0,0,0],"id":33,"left_children":[1,3,5,7,9,11,13,-1,-1,15,-1,17,19,21,23,-1,-1,-1,-1,-1,-1,-1,-1,-1,-1],"loss_changes":[9.549625E3,2.104414E2,1.3778645E3,2.8525879E1,9.034717E1,1.3941943E2,7.101184E2,0E0,0E0,3.9328857E1,0E0,1.216391E2,3.8043457E1,4.990613E2,9.014349E1,0E0,0E0,0E0,0E0,0E0,0E0,0E0,0E0,0E0,0E0],"parents":[2147483647,0,0,1,1,2,2,3,3,4,4,5,5,6,6,9,9,11,11,12,12,13,13,14,14],"right_children":[2,4,6,8,10,12,14,-1,-1,16,-1,18,20,22,24,-1,-1,-1,-1,-1,-1,-1,-1,-1,-1],"split_conditions":[-2.212938E0,-6.3034344E0,-1.3547829E0,-4.7081223E1,2.052162E0,7.6036954E-1,1.6506115E0,-2.2731517E-2,-1.8968234E-2,-2.2500732E0,-8.1382523E-4,2.5091152E0,-2.505724E0,3.2032015E0,2.1847968E0,-3.5073243E-3,-1.551302E-2,6.825987E-3,3.0356396E-3,1.0025307E-2,6.944907E-3,7.574105E-4,-2.800971E-3,2.8938826E-3,6.019031E-3],"split_indices":[28,28,35,28,35,8,35,0,0,35,0,24,35,24,35,0,0,0,0,0,0,0,0,0,0],"split_type":[0,0,0,0,0,0,0,0,0,0,0,0,0,0,0,0,0,0,0,0,0,0,0,0,0],"sum_hessian":[9.874089E4,8.974219E3,8.976667E4,4.992082E3,3.9821367E3,1.6943764E4,7.282291E4,1.8440978E3,3.1479841E3,3.8293528E3,1.5278395E2,1.1126324E4,5.81744E3,6.0670363E4,1.2152542E4,1.0687641E2,3.7224763E3,5.6837534E3,5.4425703E3,2.7925332E3,3.024907E3,4.2420652E4,1.8249713E4,6.126241E3,6.026301E3],"tree_param":{"num_deleted":"0","num_feature":"37","num_nodes":"25","size_leaf_vector":"1"}},{"base_weights":[-8.059904E-3,-8.9462005E-2,1.6977832E-1,-3.5281155E-2,-2.3110351E-1,1.1448704E-1,3.5647884E-1,-2.6901461E-2,-3.4308437E-1,-2.817551E-1,-7.409983E-2,2.8541917E-1,7.3486194E-2,-1.2314577E-2,3.9873418E-1,2.9005704E-3,-7.373087E-4,-1.5117557E-2,-4.7846013E-3,-4.3608993E-3,-8.465846E-3,-4.195825E-3,1.1419921E-4,5.6822505E-3,-7.4780465E-4,6.888144E-4,5.9010014E-3,3.0013956E-3,-2.5075169E-3,1.1647108E-2,6.103724E-3],"categories":[],"categories_nodes":[],"categories_segments":[],"categories_sizes":[],"default_left":[0,0,0,0,0,0,0,0,0,0,0,0,0,0,0,0,0,0,0,0,0,0,0,0,0,0,0,0,0,0,0],"id":34,"left_children":[1,3,5,7,9,11,13,15,17,19,21,23,25,27,29,-1,-1,-1,-1,-1,-1,-1,-1,-1,-1,-1,-1,-1,-1,-1,-1],"loss_changes":[1.4314014E3,5.2010547E2,3.1915686E2,1.259389E2,1.4834204E2,1.6720804E2,1.109845E2,1.2633956E2,4.4710587E1,1.0273279E2,5.9245316E1,4.638861E1,1.7275815E2,1.7104988E1,8.9365234E1,0E0,0E0,0E0,0E0,0E0,0E0,0E0,0E0,0E0,0E0,0E0,0E0,0E0,0E0,0E0,0E0],"parents":[2147483647,0,0,1,1,2,2,3,3,4,4,5,5,6,6,7,7,8,8,9,9,10,10,11,11,12,12,13,13,14,14],"right_children":[2,4,6,8,10,12,14,16,18,20,22,24,26,28,30,-1,-1,-1,-1,-1,-1,-1,-1,-1,-1,-1,-1,-1,-1,-1,-1],"split_conditions":[1.392477E-1,3.3595684E0,1.8839086E0,2.3558168E1,2.5025249E0,-6.5240234E-1,9.1323155E-1,-8.998998E-1,7.158068E0,3.754908E1,1.3276585E0,1.9216421E1,9.801379E-1,-2.6847032E-1,-1.0022776E0,2.9005704E-3,-7.373087E-4,-1.5117557E-2,-4.7846013E-3,-4.3608993E-3,-8.465846E-3,-4.195825E-3,1.1419921E-4,5.6822505E-3,-7.4780465E-4,6.888144E-4,5.9010014E-3,3.0013956E-3,-2.5075169E-3,1.1647108E-2,6.103724E-3],"split_indices":[26,24,26,16,10,30,14,30,7,7,18,22,33,30,30,0,0,0,0,0,0,0,0,0,0,0,0,0,0,0,0],"split_type":[0,0,0,0,0,0,0,0,0,0,0,0,0,0,0,0,0,0,0,0,0,0,0,0,0,0,0,0,0,0,0],"sum_hessian":[9.885582E4,6.782574E4,3.1030072E4,4.908068E4,1.8745064E4,2.3965062E4,7.06501E3,4.7800535E4,1.2801467E3,1.4156508E4,4.5885576E3,4.6119365E3,1.9353125E4,7.2371783E2,6.341292E3,3.3070813E3,4.4493453E4,1.4978078E2,1.130366E3,1.1740498E4,2.4160098E3,1.5382734E3,3.0502842E3,4.2259214E3,3.860154E2,1.7019621E4,2.3335037E3,2.9344824E2,4.3026962E2,1.1945256E3,5.146766E3],"tree_param":{"num_deleted":"0","num_feature":"37","num_nodes":"31","size_leaf_vector":"1"}},{"base_weights":[-4.9603917E-3,-5.741544E-2,1.9169945E-1,-4.411051E-2,-8.6930037E-1,-1.545697E-1,2.3802257E-1,7.0828505E-2,-1.0458448E-1,1.0172415E-1,-1.0689088E0,2.780509E-1,-2.0230529E-1,4.1375276E-1,1.5659498E-1,3.608507E-3,1.2480277E-4,6.69179E-4,-2.5411278E-3,8.651499E-3,-2.6868514E-3,-2.264001E-2,-4.8716017E-3,9.051562E-3,-0E0,-6.978573E-3,-1.8995623E-3,1.1310563E-2,6.24845E-3,-9.902744E-4,3.8340231E-3],"categories":[],"categories_nodes":[],"categories_segments":[],"categories_sizes":[],"default_left":[0,0,0,0,0,0,0,0,0,0,0,0,0,0,0,0,0,0,0,0,0,0,0,0,0,0,0,0,0,0,0],"id":35,"left_children":[1,3,5,7,9,11,13,15,17,19,21,23,25,27,29,-1,-1,-1,-1,-1,-1,-1,-1,-1,-1,-1,-1,-1,-1,-1,-1],"loss_changes":[1.02334174E3,8.442167E2,3.3570337E2,5.359859E2,2.4737549E2,5.1733818E1,2.619192E2,2.1981833E2,2.6231165E2,2.319327E1,1.5061475E2,1.6131378E1,3.8765175E1,7.8491394E1,1.5111224E2,0E0,0E0,0E0,0E0,0E0,0E0,0E0,0E0,0E0,0E0,0E0,0E0,0E0,0E0,0E0,0E0],"parents":[2147483647,0,0,1,1,2,2,3,3,4,4,5,5,6,6,7,7,8,8,9,9,10,10,11,11,12,12,13,13,14,14],"right_children":[2,4,6,8,10,12,14,16,18,20,22,24,26,28,30,-1,-1,-1,-1,-1,-1,-1,-1,-1,-1,-1,-1,-1,-1,-1,-1],"split_conditions":[5.8500063E-1,5.292944E0,3.6977518E-1,-7.9190713E-1,-1.5817931E0,-1.2274866E0,-1.4006513E0,2.9483728E0,-6.746094E-1,-5.751746E-1,1.3384051E0,8.353682E-1,-7.5085096E-2,-9.370066E-1,1.1557602E0,3.608507E-3,1.2480277E-4,6.69179E-4,-2.5411278E-3,8.651499E-3,-2.6868514E-3,-2.264001E-2,-4.8716017E-3,9.051562E-3,-0E0,-6.978573E-3,-1.8995623E-3,1.1310563E-2,6.24845E-3,-9.902744E-4,3.8340231E-3],"split_indices":[5,31,14,31,30,31,29,4,30,14,30,5,14,30,12,0,0,0,0,0,0,0,0,0,0,0,0,0,0,0,0],"split_type":[0,0,0,0,0,0,0,0,0,0,0,0,0,0,0,0,0,0,0,0,0,0,0,0,0,0,0,0,0,0,0],"sum_hessian":[9.91899E4,7.831831E4,2.0871584E4,7.707293E4,1.2453857E3,2.4547434E3,1.8416842E4,2.6561605E4,5.0511324E4,2.1232771E2,1.0330581E3,2.3362643E2,2.221117E3,5.8063726E3,1.2610469E4,8.750713E3,1.7810893E4,1.0354143E4,4.0157184E4,8.151699E1,1.3081071E2,8.2689966E2,2.061584E2,1.24806496E2,1.0881993E2,7.409882E2,1.4801288E3,1.340102E3,4.4662705E3,2.6484595E3,9.96201E3],"tree_param":{"num_deleted":"0","num_feature":"37","num_nodes":"31","size_leaf_vector":"1"}},{"base_weights":[-1.220647E-3,-8.006866E-2,2.0902766E-1,-2.489145E-2,-2.0676449E-1,-2.3539957E-1,2.349136E-1,3.2406878E-2,-8.198077E-2,-2.6568282E-1,-4.160875E-2,-1.3755573E-2,-1.4219108E-1,4.109467E-1,1.6435531E-1,7.648215E-4,-6.7571956E-3,-3.0088786E-3,-6.4387097E-4,-4.199254E-3,-8.977751E-3,1.7604004E-3,-3.6349925E-3,-6.8419417E-6,-4.7837636E-3,1.2410653E-2,6.7444798E-3,5.9186807E-3,1.9633279E-3],"categories":[],"categories_nodes":[],"categories_segments":[],"categories_sizes":[],"default_left":[0,0,0,0,0,0,0,0,0,0,0,0,0,0,0,0,0,0,0,0,0,0,0,0,0,0,0,0,0],"id":36,"left_children":[1,3,5,7,9,11,13,15,17,19,21,-1,23,25,27,-1,-1,-1,-1,-1,-1,-1,-1,-1,-1,-1,-1,-1,-1],"loss_changes":[1.6421624E3,5.032919E2,3.1162366E2,1.6439012E2,2.1198889E2,7.051042E1,3.153341E2,1.0279385E2,9.86915E1,1.186709E2,1.2941856E2,0E0,2.218076E1,6.815674E1,1.6484094E2,0E0,0E0,0E0,0E0,0E0,0E0,0E0,0E0,0E0,0E0,0E0,0E0,0E0,0E0],"parents":[2147483647,0,0,1,1,2,2,3,3,4,4,5,5,6,6,7,7,8,8,9,9,10,10,12,12,13,13,14,14],"right_children":[2,4,6,8,10,12,14,16,18,20,22,-1,24,26,28,-1,-1,-1,-1,-1,-1,-1,-1,-1,-1,-1,-1,-1,-1],"split_conditions":[2.8598964E-1,3.2168474E0,5.408777E-2,1.9321382E-2,-1.3694085E-1,-3.8790506E-1,-1.271575E0,3.6299477E0,-6.5073174E-1,5.700968E0,7.578081E-2,-1.3755573E-2,4.4731486E-1,-1.1825962E0,-9.485054E-2,7.648215E-4,-6.7571956E-3,-3.0088786E-3,-6.4387097E-4,-4.199254E-3,-8.977751E-3,1.7604004E-3,-3.6349925E-3,-6.8419417E-6,-4.7837636E-3,1.2410653E-2,6.7444798E-3,5.9186807E-3,1.9633279E-3],"split_indices":[8,6,26,29,8,26,29,15,8,6,2,0,8,33,20,0,0,0,0,0,0,0,0,0,0,0,0,0,0],"split_type":[0,0,0,0,0,0,0,0,0,0,0,0,0,0,0,0,0,0,0,0,0,0,0,0,0,0,0,0,0],"sum_hessian":[9.904027E4,7.204001E4,2.700026E4,5.0205035E4,2.1834975E4,1.4762172E3,2.5524043E4,2.5046775E4,2.515826E4,1.6080233E4,5.754741E3,2.0261996E2,1.2735973E3,7.2765205E3,1.8247521E4,2.4459127E4,5.8764764E2,8.823038E3,1.6335222E4,1.4150245E4,1.9299885E3,3.0763784E3,2.6783628E3,6.056956E2,6.679016E2,8.021281E2,6.4743926E3,4.5651206E3,1.3682402E4],"tree_param":{"num_deleted":"0","num_feature":"37","num_nodes":"29","size_leaf_vector":"1"}},{"base_weights":[-6.134611E-3,-1.0142461E0,8.928628E-2,-1.1633742E0,-8.746429E-1,3.386601E-1,2.9226035E-2,-1.3973386E-2,-2.1176856E-2,-9.043643E-1,-4.6783867E-1,4.8834807E-1,2.5523058E-1,-1.0906837E-2,2.2980563E-1,-5.4080337E-3,-1.648052E-2,-1.1962982E-2,-9.7215734E-4,1.1860708E-2,7.967627E-3,5.333207E-3,4.5342615E-4,8.511061E-4,-2.766577E-3,2.7689438E-3,5.629108E-3],"categories":[],"categories_nodes":[],"categories_segments":[],"categories_sizes":[],"default_left":[0,0,0,0,0,0,0,0,0,0,0,0,0,0,0,0,0,0,0,0,0,0,0,0,0,0,0],"id":37,"left_children":[1,3,5,7,9,11,13,-1,-1,15,17,19,21,23,25,-1,-1,-1,-1,-1,-1,-1,-1,-1,-1,-1,-1],"loss_changes":[9.516151E3,1.5976465E2,1.3526343E3,4.114746E0,4.5807373E1,2.159613E2,5.86725E2,0E0,0E0,2.2231201E1,2.6053123E1,4.2709106E1,1.0609253E2,5.046725E2,7.513318E1,0E0,0E0,0E0,0E0,0E0,0E0,0E0,0E0,0E0,0E0,0E0,0E0],"parents":[2147483647,0,0,1,1,2,2,3,3,4,4,5,5,6,6,9,9,10,10,11,11,12,12,13,13,14,14],"right_children":[2,4,6,8,10,12,14,-1,-1,16,18,20,22,24,26,-1,-1,-1,-1,-1,-1,-1,-1,-1,-1,-1,-1],"split_conditions":[-2.2921352E0,-9.315704E0,-1.3337996E0,-1.2882248E0,-2.396488E0,-2.1949096E0,1.6506115E0,-1.3973386E-2,-2.1176856E-2,-1.5938896E0,7.497113E-1,2.71599E0,3.0781972E0,3.2168474E0,5.661781E-1,-5.4080337E-3,-1.648052E-2,-1.1962982E-2,-9.7215734E-4,1.1860708E-2,7.967627E-3,5.333207E-3,4.5342615E-4,8.511061E-4,-2.766577E-3,2.7689438E-3,5.629108E-3],"split_indices":[28,28,35,31,28,35,35,0,0,31,35,4,21,6,17,0,0,0,0,0,0,0,0,0,0,0,0],"split_type":[0,0,0,0,0,0,0,0,0,0,0,0,0,0,0,0,0,0,0,0,0,0,0,0,0,0,0],"sum_hessian":[9.888218E4,8.539072E3,9.034311E4,4.0703079E3,4.4687646E3,1.7516979E4,7.2826125E4,1.6675671E2,3.9035513E3,4.1439697E3,3.247949E2,6.2365957E3,1.1280383E4,6.0689754E4,1.2136374E4,8.562512E1,4.0583447E3,2.1150972E2,1.1328516E2,1.2683765E3,4.968219E3,9.562737E3,1.7176455E3,4.311789E4,1.7571863E4,6.3652837E3,5.771091E3],"tree_param":{"num_deleted":"0","num_feature":"37","num_nodes":"27","size_leaf_vector":"1"}},{"base_weights":[-3.2298043E-3,-7.508291E-2,2.1540105E-1,-6.0815074E-2,-9.159931E-1,5.8412623E-2,3.105894E-1,1.6169831E-1,-9.392117E-2,-2.1296896E-2,-1.8859619E-1,1.38392E-1,-1.18501976E-1,4.390687E-1,2.3649633E-1,4.61896E-3,7.416779E-4,-7.122839E-4,-4.243523E-3,-7.458497E-3,1.5167043E-3,4.5797713E-3,-1.6179541E-4,1.2275822E-3,-3.2869736E-3,1.1714794E-2,7.01531E-3,3.3196385E-3,6.723616E-3],"categories":[],"categories_nodes":[],"categories_segments":[],"categories_sizes":[],"default_left":[0,0,0,0,0,0,0,0,0,0,0,0,0,0,0,0,0,0,0,0,0,0,0,0,0,0,0,0,0],"id":38,"left_children":[1,3,5,7,9,11,13,15,17,-1,19,21,23,25,27,-1,-1,-1,-1,-1,-1,-1,-1,-1,-1,-1,-1,-1,-1],"loss_changes":[1.5551667E3,8.9183405E2,3.6507507E2,5.400817E2,2.3567786E2,1.3139857E2,1.4244519E2,1.07955185E2,4.9140436E2,0E0,2.2739355E1,1.09763016E2,3.4916885E1,5.2575928E1,6.735962E1,0E0,0E0,0E0,0E0,0E0,0E0,0E0,0E0,0E0,0E0,0E0,0E0,0E0,0E0],"parents":[2147483647,0,0,1,1,2,2,3,3,4,4,5,5,6,6,7,7,8,8,10,10,11,11,12,12,13,13,14,14],"right_children":[2,4,6,8,10,12,14,16,18,-1,20,22,24,26,28,-1,-1,-1,-1,-1,-1,-1,-1,-1,-1,-1,-1,-1,-1],"split_conditions":[5.8585857E-3,5.292944E0,5.6576353E-1,-1.3567262E0,2.3505688E0,1.5473923E1,-1.5703652E0,9.046539E0,1.4174476E1,-2.1296896E-2,-6.060606E-4,-3.881078E-1,-1.4377389E0,-3.1781476E0,2.7542243E0,4.61896E-3,7.416779E-4,-7.122839E-4,-4.243523E-3,-7.458497E-3,1.5167043E-3,4.5797713E-3,-1.6179541E-4,1.2275822E-3,-3.2869736E-3,1.1714794E-2,7.01531E-3,3.3196385E-3,6.723616E-3],"split_indices":[36,31,8,32,12,7,32,25,7,0,36,31,32,32,12,0,0,0,0,0,0,0,0,0,0,0,0,0,0],"split_type":[0,0,0,0,0,0,0,0,0,0,0,0,0,0,0,0,0,0,0,0,0,0,0,0,0,0,0,0,0],"sum_hessian":[9.8979484E4,7.4508836E4,2.4470646E4,7.32833E4,1.2255393E3,9.25194E3,1.5218706E4,9.47774E3,6.380556E4,8.879433E2,3.3759604E2,6.3796016E3,2.872339E3,5.5319785E3,9.686728E3,5.2852583E3,4.192482E3,4.6150336E4,1.7655223E4,1.8349174E2,1.5410431E2,3.5689114E3,2.81069E3,7.279556E2,2.1443835E3,1.0049157E3,4.527063E3,7.052888E3,2.6338396E3],"tree_param":{"num_deleted":"0","num_feature":"37","num_nodes":"29","size_leaf_vector":"1"}},{"base_weights":[-4.8396573E-3,-9.845756E-1,8.719155E-2,-1.143885E0,-8.3801234E-1,3.0827165E-1,3.5668045E-2,-2.2377219E-2,-1.9008286E-2,-8.6660403E-1,-4.470551E-1,2.1300723E-1,4.2402986E-1,8.523532E-2,-1.0492569E-1,-7.4782376E-3,-1.5935624E-2,-1.1991122E-2,-3.9638387E-4,5.560438E-3,1.8841781E-3,8.584375E-3,4.560476E-3,-9.050361E-4,2.4008253E-3,-2.7037885E-3,4.1537504E-3],"categories":[],"categories_nodes":[],"categories_segments":[],"categories_sizes":[],"default_left":[0,0,0,0,0,0,0,0,0,0,0,0,0,0,0,0,0,0,0,0,0,0,0,0,0,0,0],"id":39,"left_children":[1,3,5,7,9,11,13,-1,-1,15,17,19,21,23,25,-1,-1,-1,-1,-1,-1,-1,-1,-1,-1,-1,-1],"loss_changes":[8.912196E3,1.8082227E2,1.0283665E3,1.194043E1,4.231421E1,1.8590137E2,5.1083603E2,0E0,0E0,2.7614746E1,3.0410393E1,9.6552734E1,6.642798E1,3.5384317E2,2.9078046E2,0E0,0E0,0E0,0E0,0E0,0E0,0E0,0E0,0E0,0E0,0E0,0E0],"parents":[2147483647,0,0,1,1,2,2,3,3,4,4,5,5,6,6,9,9,10,10,11,11,12,12,13,13,14,14],"right_children":[2,4,6,8,10,12,14,-1,-1,16,18,20,22,24,26,-1,-1,-1,-1,-1,-1,-1,-1,-1,-1,-1,-1],"split_conditions":[-2.2921352E0,-9.315704E0,-1.3567262E0,-4.7081223E1,-2.396488E0,4.0605268E-1,1.5135639E1,-2.2377219E-2,-1.9008286E-2,-1.0619773E0,1.2092315E0,9.217505E0,-9.341232E-1,-1.1899561E0,1.9878792E0,-7.4782376E-3,-1.5935624E-2,-1.1991122E-2,-3.9638387E-4,5.560438E-3,1.8841781E-3,8.584375E-3,4.560476E-3,-9.050361E-4,2.4008253E-3,-2.7037885E-3,4.1537504E-3],"split_indices":[28,28,32,28,28,26,7,0,0,33,9,25,29,28,32,0,0,0,0,0,0,0,0,0,0,0,0],"split_type":[0,0,0,0,0,0,0,0,0,0,0,0,0,0,0,0,0,0,0,0,0,0,0,0,0,0,0],"sum_hessian":[9.879757E4,8.472522E3,9.032505E4,4.0059185E3,4.4666045E3,1.7052275E4,7.327277E4,1.7800886E3,2.2258298E3,4.14163E3,3.249744E2,9.384644E3,7.667632E3,5.4185785E4,1.908699E4,1.8196213E2,3.959668E3,2.064854E2,1.18489006E2,4.9557007E3,4.4289424E3,5.826625E3,1.841007E3,1.4195772E4,3.999001E4,1.6829441E4,2.2575474E3],"tree_param":{"num_deleted":"0","num_feature":"37","num_nodes":"27","size_leaf_vector":"1"}},{"base_weights":[-1.0518067E-2,2.729919E-1,-7.091521E-2,4.5330203E-1,1.9920136E-1,-1.1742723E-1,1.8480298E-1,4.9988875E-1,2.6592848E-1,2.3907693E-1,-1.0458762E-2,-1.7412244E-1,-3.6391388E-3,1.4243567E-1,3.6488974E-1,1.2163979E-3,9.292349E-3,-2.2424476E-3,5.5958983E-3,6.3925567E-3,3.632876E-3,-1.1560962E-3,8.942821E-3,-2.5095074E-3,-5.930531E-3,-5.5339653E-4,4.236877E-3,-6.413657E-4,2.9813258E-3,7.0933052E-3,9.439877E-4],"categories":[],"categories_nodes":[],"categories_segments":[],"categories_sizes":[],"default_left":[0,0,0,0,0,0,0,0,0,0,0,0,0,0,0,0,0,0,0,0,0,0,0,0,0,0,0,0,0,0,0],"id":40,"left_children":[1,3,5,7,9,11,13,15,17,19,21,23,25,27,29,-1,-1,-1,-1,-1,-1,-1,-1,-1,-1,-1,-1,-1,-1,-1,-1],"loss_changes":[1.6906246E3,2.2835718E2,9.6851697E2,4.0654785E1,1.0351346E2,4.4418695E2,9.405765E1,2.6842773E1,1.90746E1,4.292981E1,5.3826427E1,2.4648291E2,1.4839574E2,4.230484E1,2.062967E1,0E0,0E0,0E0,0E0,0E0,0E0,0E0,0E0,0E0,0E0,0E0,0E0,0E0,0E0,0E0,0E0],"parents":[2147483647,0,0,1,1,2,2,3,3,4,4,5,5,6,6,7,7,8,8,9,9,10,10,11,11,12,12,13,13,14,14],"right_children":[2,4,6,8,10,12,14,16,18,20,22,24,26,28,30,-1,-1,-1,-1,-1,-1,-1,-1,-1,-1,-1,-1,-1,-1,-1,-1],"split_conditions":[-1.3969749E0,-2.3633006E0,1.6506115E0,1.6240332E1,3.0180514E0,1.9191919E-3,2.851101E0,-4.3996477E-1,-1.0133803E-1,1.9037983E0,9.39394E-3,3.490529E0,9.090909E-3,1.2819517E0,7.2108994E0,1.2163979E-3,9.292349E-3,-2.2424476E-3,5.5958983E-3,6.3925567E-3,3.632876E-3,-1.1560962E-3,8.942821E-3,-2.5095074E-3,-5.930531E-3,-5.5339653E-4,4.236877E-3,-6.413657E-4,2.9813258E-3,7.0933052E-3,9.439877E-4],"split_indices":[35,35,35,4,21,36,35,23,5,4,36,15,36,15,10,0,0,0,0,0,0,0,0,0,0,0,0,0,0,0,0],"split_type":[0,0,0,0,0,0,0,0,0,0,0,0,0,0,0,0,0,0,0,0,0,0,0,0,0,0,0,0,0,0,0],"sum_hessian":[9.871877E4,1.7323406E4,8.139537E4,5.0023906E3,1.2321017E4,6.888077E4,1.2514597E4,3.9798542E3,1.0225361E3,1.0356372E4,1.9646438E3,4.5959965E4,2.2920807E4,1.015963E4,2.354967E3,1.512072E2,3.8286472E3,9.937337E1,9.231627E2,2.4753608E3,7.8810117E3,1.7908793E3,1.737645E2,3.7598598E4,8.361369E3,2.0603686E4,2.317121E3,1.1624297E3,8.9972E3,2.1458252E3,2.0914198E2],"tree_param":{"num_deleted":"0","num_feature":"37","num_nodes":"31","size_leaf_vector":"1"}},{"base_weights":[-3.23272E-3,-8.6364046E-2,1.6349389E-1,-7.465307E-2,-9.2502594E-1,3.7671092E-1,9.2033714E-2,-3.2335203E-2,-2.667597E-1,-2.132813E-2,-1.9287561E-1,6.0748404E-1,3.404483E-1,3.3980463E-2,2.848357E-1,2.5693101E-3,-1.3501011E-3,-6.575493E-4,-5.5674426E-3,4.8572046E-4,-8.983499E-3,4.454825E-3,1.1911827E-2,6.481863E-3,-8.065245E-3,3.4156535E-3,-1.2651553E-3,3.9192843E-3,8.904472E-3],"categories":[],"categories_nodes":[],"categories_segments":[],"categories_sizes":[],"default_left":[0,0,0,0,0,0,0,0,0,0,0,0,0,0,0,0,0,0,0,0,0,0,0,0,0,0,0,0,0],"id":41,"left_children":[1,3,5,7,9,11,13,15,17,-1,19,21,23,25,27,-1,-1,-1,-1,-1,-1,-1,-1,-1,-1,-1,-1,-1,-1],"loss_changes":[1.3681736E3,6.445139E2,4.99143E2,5.2777185E2,1.6654169E2,6.437659E1,2.749596E2,3.9810782E2,1.1413971E2,0E0,1.816452E1,1.7545227E1,1.1318121E2,3.0811868E2,7.743509E1,0E0,0E0,0E0,0E0,0E0,0E0,0E0,0E0,0E0,0E0,0E0,0E0,0E0,0E0],"parents":[2147483647,0,0,1,1,2,2,3,3,4,4,5,5,6,6,7,7,8,8,10,10,11,11,12,12,13,13,14,14],"right_children":[2,4,6,8,10,12,14,16,18,-1,20,22,24,26,28,-1,-1,-1,-1,-1,-1,-1,-1,-1,-1,-1,-1,-1,-1],"split_conditions":[1.0001936E-1,6.0315747E0,-1.6952254E0,1.9564775E1,2.3505688E0,-3.1781476E0,1.9878792E0,-1.0578328E0,-1.1923451E0,-2.132813E-2,3.6736908E0,1.717222E0,4.693056E0,-7.8420293E-1,1.211436E0,2.5693101E-3,-1.3501011E-3,-6.575493E-4,-5.5674426E-3,4.8572046E-4,-8.983499E-3,4.454825E-3,1.1911827E-2,6.481863E-3,-8.065245E-3,3.4156535E-3,-1.2651553E-3,3.9192843E-3,8.904472E-3],"split_indices":[8,31,32,7,12,32,32,31,32,0,3,21,31,31,33,0,0,0,0,0,0,0,0,0,0,0,0,0,0],"split_type":[0,0,0,0,0,0,0,0,0,0,0,0,0,0,0,0,0,0,0,0,0,0,0,0,0,0,0,0,0],"sum_hessian":[9.8690445E4,6.586554E4,3.2824902E4,6.4976344E4,8.891985E2,8.21841E3,2.460649E4,5.32677E4,1.1708645E4,6.479057E2,2.4129282E2,1.0783308E3,7.1400796E3,1.8931562E4,5.674927E3,1.0424822E4,4.284288E4,1.8359779E3,9.872667E3,1.4555933E2,9.5733505E1,1.5584444E2,9.224864E2,6.9762363E3,1.638432E2,7.5915815E3,1.1339981E4,4.328641E3,1.3462856E3],"tree_param":{"num_deleted":"0","num_feature":"37","num_nodes":"29","size_leaf_vector":"1"}},{"base_weights":[-4.008024E-3,2.3377846E-1,-6.458567E-2,4.387012E-1,1.6587426E-1,-1.1278997E-1,1.8555802E-1,4.6761245E-1,1.3092227E-1,-2.0189332E-2,1.7548099E-1,-2.1809826E-2,-1.06715284E-1,1.4610274E-1,3.2645196E-1,9.776896E-3,6.746457E-3,8.184363E-3,5.027794E-4,7.5355107E-3,2.3058662E-3,-1.100638E-3,-4.4763717E-3,3.4777462E-3,1.0336298E-3,6.3660364E-3,4.602507E-4],"categories":[],"categories_nodes":[],"categories_segments":[],"categories_sizes":[],"default_left":[0,0,0,0,0,0,0,0,0,0,0,0,0,0,0,0,0,0,0,0,0,0,0,0,0,0,0],"id":42,"left_children":[1,3,5,7,9,11,13,15,17,-1,19,-1,21,23,25,-1,-1,-1,-1,-1,-1,-1,-1,-1,-1,-1,-1],"loss_changes":[1.4242466E3,2.7732544E2,9.505957E2,4.2510376E1,1.8838647E2,4.3730475E2,6.9371796E1,2.7426086E1,1.4192038E1,0E0,1.7128403E2,0E0,4.246908E2,4.1166245E1,2.1943634E1,0E0,0E0,0E0,0E0,0E0,0E0,0E0,0E0,0E0,0E0,0E0,0E0],"parents":[2147483647,0,0,1,1,2,2,3,3,4,4,5,5,6,6,7,7,8,8,10,10,12,12,13,13,14,14],"right_children":[2,4,6,8,10,12,14,16,18,-1,20,-1,22,24,26,-1,-1,-1,-1,-1,-1,-1,-1,-1,-1,-1,-1],"split_conditions":[-1.2547232E0,-2.3633006E0,1.6506115E0,4.292105E0,-1.836996E0,-2.2113557E0,1.311023E0,-1.3507729E0,-2.4762592E0,-2.0189332E-2,-1.1181E0,-2.1809826E-2,1.5885775E1,2.913357E0,7.1127434E0,9.776896E-3,6.746457E-3,8.184363E-3,5.027794E-4,7.5355107E-3,2.3058662E-3,-1.100638E-3,-4.4763717E-3,3.4777462E-3,1.0336298E-3,6.3660364E-3,4.602507E-4],"split_indices":[35,35,35,12,34,34,34,29,29,0,34,0,25,6,1,0,0,0,0,0,0,0,0,0,0,0,0],"split_type":[0,0,0,0,0,0,0,0,0,0,0,0,0,0,0,0,0,0,0,0,0,0,0,0,0,0,0],"sum_hessian":[9.886169E4,2.005841E4,7.880327E4,4.966476E3,1.5091935E4,6.608291E4,1.2720368E4,4.528434E3,4.3804187E2,9.775873E1,1.4994176E4,3.4558328E2,6.573732E4,9.9697E3,2.7506675E3,2.44732E3,2.0811138E3,8.9837364E1,3.4820453E2,2.4207507E3,1.2573426E4,4.9788688E4,1.5948635E4,6.488483E3,3.4812175E3,2.515507E3,2.3516046E2],"tree_param":{"num_deleted":"0","num_feature":"37","num_nodes":"27","size_leaf_vector":"1"}},{"base_weights":[-2.9870989E-3,-9.4971013E-1,8.918544E-2,-1.1061076E0,-7.7773637E-1,3.2104768E-2,2.4256413E-1,-2.2078866E-2,-1.8415838E-2,-8.408315E-1,-4.3710753E-1,8.247719E-2,-1.1779586E-1,8.5353665E-2,2.9339123E-1,-8.362912E-3,-1.5394704E-2,-1.2102809E-2,-1.2722526E-3,3.8445152E-3,6.88178E-4,-5.8052274E-3,-1.5953014E-3,-7.535244E-4,3.465005E-3,4.5740204E-3,7.4211475E-3],"categories":[],"categories_nodes":[],"categories_segments":[],"categories_sizes":[],"default_left":[0,0,0,0,0,0,0,0,0,0,0,0,0,0,0,0,0,0,0,0,0,0,0,0,0,0,0],"id":43,"left_children":[1,3,5,7,9,11,13,-1,-1,15,17,19,21,23,25,-1,-1,-1,-1,-1,-1,-1,-1,-1,-1,-1,-1],"loss_changes":[8.624035E3,2.201084E2,7.878253E2,2.3330078E1,8.3510254E1,4.9579614E2,1.9412927E2,0E0,0E0,1.1333008E1,5.8195267E1,2.846289E2,9.754193E1,8.20343E1,8.3522095E1,0E0,0E0,0E0,0E0,0E0,0E0,0E0,0E0,0E0,0E0,0E0,0E0],"parents":[2147483647,0,0,1,1,2,2,3,3,4,4,5,5,6,6,9,9,10,10,11,11,12,12,13,13,14,14],"right_children":[2,4,6,8,10,12,14,-1,-1,16,18,20,22,24,26,-1,-1,-1,-1,-1,-1,-1,-1,-1,-1,-1,-1],"split_conditions":[-2.212938E0,-7.1394434E0,5.757576E-3,-4.7081223E1,-2.396488E0,1.5135639E1,1.5070564E-1,-2.2078866E-2,-1.8415838E-2,-1.089121E0,-6.3166715E-2,-9.6614856E-1,-1.5797434E0,-5.449477E-1,2.4879756E0,-8.362912E-3,-1.5394704E-2,-1.2102809E-2,-1.2722526E-3,3.8445152E-3,6.88178E-4,-5.8052274E-3,-1.5953014E-3,-7.535244E-4,3.465005E-3,4.5740204E-3,7.4211475E-3],"split_indices":[28,28,36,28,28,7,26,0,0,33,17,34,28,28,17,0,0,0,0,0,0,0,0,0,0,0,0],"split_type":[0,0,0,0,0,0,0,0,0,0,0,0,0,0,0,0,0,0,0,0,0,0,0,0,0,0,0],"sum_hessian":[9.878502E4,8.753434E3,9.003159E4,4.5370874E3,4.216346E3,6.5633625E4,2.439797E4,1.7589471E3,2.7781404E3,3.535104E3,6.812423E2,4.913808E4,1.6495545E4,5.9778687E3,1.8420104E4,1.5281158E2,3.3822922E3,4.0474847E2,2.7649384E2,1.2375547E4,3.6762527E4,2.0319487E3,1.4463596E4,2.7307566E3,3.2471118E3,1.38907295E4,4.5293735E3],"tree_param":{"num_deleted":"0","num_feature":"37","num_nodes":"27","size_leaf_vector":"1"}},{"base_weights":[-8.269192E-3,-1.20748065E-1,1.19133554E-1,-7.891181E-2,-2.7515176E-1,3.3819667E-1,6.3131146E-2,-1.3019387E-1,-1.0153163E-2,-3.0593157E-1,-1.3356955E-2,2.5357205E-1,4.5391005E-1,2.5365613E-2,2.165336E-1,-1.411574E-3,-3.4395924E-3,1.685282E-3,-1.1753096E-3,-4.8935693E-3,-9.877998E-3,-5.9922175E-3,1.8312621E-3,5.804582E-3,1.9071153E-3,2.8646681E-3,8.51994E-3,1.0748241E-3,-2.3376415E-3,-5.346926E-3,4.336831E-3],"categories":[],"categories_nodes":[],"categories_segments":[],"categories_sizes":[],"default_left":[0,0,0,0,0,0,0,0,0,0,0,0,0,0,0,0,0,0,0,0,0,0,0,0,0,0,0,0,0,0,0],"id":44,"left_children":[1,3,5,7,9,11,13,15,17,19,21,23,25,27,29,-1,-1,-1,-1,-1,-1,-1,-1,-1,-1,-1,-1,-1,-1,-1,-1],"loss_changes":[1.414125E3,3.3773523E2,5.6666565E2,1.452926E2,8.939447E1,8.936279E1,2.1315408E2,7.385571E1,1.0110889E2,7.9102844E1,4.4803066E1,5.4555267E1,2.0524475E1,1.5789168E2,9.214722E1,0E0,0E0,0E0,0E0,0E0,0E0,0E0,0E0,0E0,0E0,0E0,0E0,0E0,0E0,0E0,0E0],"parents":[2147483647,0,0,1,1,2,2,3,3,4,4,5,5,6,6,7,7,8,8,9,9,10,10,11,11,12,12,13,13,14,14],"right_children":[2,4,6,8,10,12,14,16,18,20,22,24,26,28,30,-1,-1,-1,-1,-1,-1,-1,-1,-1,-1,-1,-1,-1,-1,-1,-1],"split_conditions":[1.3131313E-3,3.5867765E0,-1.6952254E0,-3.8383838E-3,4.9454756E0,1.1309218E0,1.1846801E0,-5.6156826E-1,-6.27232E-1,6.062435E0,3.7501101E0,3.2032015E0,1.2157316E0,3.9487307E0,4.7389704E-1,-1.411574E-3,-3.4395924E-3,1.685282E-3,-1.1753096E-3,-4.8935693E-3,-9.877998E-3,-5.9922175E-3,1.8312621E-3,5.804582E-3,1.9071153E-3,2.8646681E-3,8.51994E-3,1.0748241E-3,-2.3376415E-3,-5.346926E-3,4.336831E-3],"split_indices":[36,24,32,36,10,26,8,20,20,24,1,24,15,24,17,0,0,0,0,0,0,0,0,0,0,0,0,0,0,0,0],"split_type":[0,0,0,0,0,0,0,0,0,0,0,0,0,0,0,0,0,0,0,0,0,0,0,0,0,0,0,0,0,0,0],"sum_hessian":[9.86518E4,5.2401305E4,4.6250496E4,4.1255387E4,1.114592E4,9.395603E3,3.6854895E4,2.361068E4,1.7644705E4,9.965942E3,1.1799772E3,5.461951E3,3.933651E3,2.9596025E4,7.258868E3,1.2792954E4,1.0817726E4,6.1091934E3,1.1535511E4,8.773202E3,1.1927407E3,3.083968E2,8.715804E2,3.704761E3,1.7571902E3,2.5644354E2,3.6772075E3,2.4249525E4,5.3465E3,3.1885077E2,6.9400176E3],"tree_param":{"num_deleted":"0","num_feature":"37","num_nodes":"31","size_leaf_vector":"1"}},{"base_weights":[2.3950743E-3,2.519449E-1,-5.863857E-2,4.01187E-1,1.6972005E-1,-1.0556559E-1,1.880305E-1,4.6628365E-1,2.974124E-1,2.914121E-1,7.948067E-2,-9.227007E-2,-7.93056E-1,1.511057E-1,3.9627978E-1,-1.9403702E-3,8.640634E-3,6.0338085E-3,-1.1591248E-3,-1.2706851E-2,5.647287E-3,2.0335007E-3,-3.0002568E-3,7.375387E-4,-2.6745913E-3,-1.9626778E-2,-4.2751995E-3,1.2689417E-3,3.6746466E-3,-2.6380036E-5,7.4946485E-3],"categories":[],"categories_nodes":[],"categories_segments":[],"categories_sizes":[],"default_left":[0,0,0,0,0,0,0,0,0,0,0,0,0,0,0,0,0,0,0,0,0,0,0,0,0,0,0,0,0,0,0],"id":45,"left_children":[1,3,5,7,9,11,13,15,17,19,21,23,25,27,29,-1,-1,-1,-1,-1,-1,-1,-1,-1,-1,-1,-1,-1,-1,-1,-1],"loss_changes":[1.5069807E3,2.3673315E2,9.201795E2,4.331787E1,1.371283E2,6.080732E2,9.596774E1,3.4480896E1,3.774025E1,1.2162512E2,5.9934105E1,4.92088E2,2.0274762E2,4.563817E1,1.5796875E1,0E0,0E0,0E0,0E0,0E0,0E0,0E0,0E0,0E0,0E0,0E0,0E0,0E0,0E0,0E0,0E0],"parents":[2147483647,0,0,1,1,2,2,3,3,4,4,5,5,6,6,7,7,8,8,9,9,10,10,11,11,12,12,13,13,14,14],"right_children":[2,4,6,8,10,12,14,16,18,20,22,24,26,28,30,-1,-1,-1,-1,-1,-1,-1,-1,-1,-1,-1,-1,-1,-1,-1,-1],"split_conditions":[-1.2940965E0,-2.1462317E0,1.6506115E0,1.3565118E0,-7.04064E-1,5.292944E0,3.005574E0,8.88179E-1,7.190339E-1,-1.7778974E0,4.081159E0,-9.423757E-1,2.1251924E0,8.914915E-1,7.6986057E-1,-1.9403702E-3,8.640634E-3,6.0338085E-3,-1.1591248E-3,-1.2706851E-2,5.647287E-3,2.0335007E-3,-3.0002568E-3,7.375387E-4,-2.6745913E-3,-1.9626778E-2,-4.2751995E-3,1.2689417E-3,3.6746466E-3,-2.6380036E-5,7.4946485E-3],"split_indices":[35,35,35,18,34,31,35,15,27,34,15,34,12,9,29,0,0,0,0,0,0,0,0,0,0,0,0,0,0,0,0],"split_type":[0,0,0,0,0,0,0,0,0,0,0,0,0,0,0,0,0,0,0,0,0,0,0,0,0,0,0,0,0,0,0],"sum_hessian":[9.8893516E4,1.9429455E4,7.9464055E4,6.8748457E3,1.2554609E4,6.677521E4,1.2688845E4,4.183641E3,2.691204E3,5.324377E3,7.230233E3,6.5527164E4,1.2480487E3,1.0805927E4,1.8829181E3,9.291911E1,4.0907222E3,2.4413928E3,2.498113E2,1.05051476E2,5.219325E3,6.3768394E3,8.5339343E2,1.9461158E4,4.6066008E4,8.017965E2,4.4625217E2,4.313601E3,6.4923257E3,8.760974E1,1.7953083E3],"tree_param":{"num_deleted":"0","num_feature":"37","num_nodes":"31","size_leaf_vector":"1"}},{"base_weights":[-7.825712E-3,-6.2107485E-2,2.146472E-1,-4.9124923E-2,-8.54414E-1,3.730827E-1,1.4559159E-1,1.10864095E-1,-8.784089E-2,3.53086E-2,-1.0128528E0,5.1962817E-1,3.0811003E-1,8.119333E-2,2.777952E-1,3.1125266E-3,-8.125517E-4,3.8037458E-3,-2.0141224E-3,-3.2312723E-3,4.1367337E-3,-2.1563008E-2,-1.2912226E-3,1.0463499E-2,4.2484035E-3,7.2081387E-3,2.9322638E-3,6.3632615E-4,4.2684274E-3,4.150203E-3,9.041194E-3],"categories":[],"categories_nodes":[],"categories_segments":[],"categories_sizes":[],"default_left":[0,0,0,0,0,0,0,0,0,0,0,0,0,0,0,0,0,0,0,0,0,0,0,0,0,0,0,0,0,0,0],"id":46,"left_children":[1,3,5,7,9,11,13,15,17,19,21,23,25,27,29,-1,-1,-1,-1,-1,-1,-1,-1,-1,-1,-1,-1,-1,-1,-1,-1],"loss_changes":[1.1909119E3,8.136357E2,2.1001099E2,4.8345435E2,1.8181317E2,5.2102417E1,1.1406601E2,1.4748618E2,4.5244843E2,9.29684E0,1.8575061E2,2.7667725E1,5.3155457E1,6.457152E1,4.390451E1,0E0,0E0,0E0,0E0,0E0,0E0,0E0,0E0,0E0,0E0,0E0,0E0,0E0,0E0,0E0,0E0],"parents":[2147483647,0,0,1,1,2,2,3,3,4,4,5,5,6,6,7,7,8,8,9,9,10,10,11,11,12,12,13,13,14,14],