{"learner":{"attributes":{"best_iteration":"2028","best_score":"0.27990088585684003","scikit_learn":"{\"_estimator_type\": \"classifier\"}"},"feature_names":["FEATURE_RelativeVWAPEMA12","FEATURE_RelativeVWAPEMA24","FEATURE_MACD_12_48_9","FEATURE_MACD_12_48_9_slope","FEATURE_MACD_24_48_9","FEATURE_MACD_24_48_9_slope","FEATURE_LogReturn0/1","FEATURE_ReturnKurt6","FEATURE_ReturnKurt12","FEATURE_SquaredCosineMinuteOfDay","FEATURE_LogRollingG-KVolatility6","FEATURE_RollingG-KVolatilityZscore6","FEATURE_RollingG-KVolatilitySkew6","FEATURE_LogRollingG-KVolatility12","FEATURE_RollingG-KVolatilityZscore12","FEATURE_RollingG-KVolatilitySkew12","OBIRatioZscore6","OBIRatioZscore12","OBIRatioZscore48"],"feature_types":["float","float","float","float","float","float","float","float","float","float","float","float","float","float","float","float","float","float","float"],"gradient_booster":{"model":{"cats":{"enc":[],"feature_segments":[],"sorted_idx":[]},"gbtree_model_param":{"num_parallel_tree":"1","num_trees":"2179"},"iteration_indptr":[0,1,2,3,4,5,6,7,8,9,10,11,12,13,14,15,16,17,18,19,20,21,22,23,24,25,26,27,28,29,30,31,32,33,34,35,36,37,38,39,40,41,42,43,44,45,46,47,48,49,50,51,52,53,54,55,56,57,58,59,60,61,62,63,64,65,66,67,68,69,70,71,72,73,74,75,76,77,78,79,80,81,82,83,84,85,86,87,88,89,90,91,92,93,94,95,96,97,98,99,100,101,102,103,104,105,106,107,108,109,110,111,112,113,114,115,116,117,118,119,120,121,122,123,124,125,126,127,128,129,130,131,132,133,134,135,136,137,138,139,140,141,142,143,144,145,146,147,148,149,150,151,152,153,154,155,156,157,158,159,160,161,162,163,164,165,166,167,168,169,170,171,172,173,174,175,176,177,178,179,180,181,182,183,184,185,186,187,188,189,190,191,192,193,194,195,196,197,198,199,200,201,202,203,204,205,206,207,208,209,210,211,212,213,214,215,216,217,218,219,220,221,222,223,224,225,226,227,228,229,230,231,232,233,234,235,236,237,238,239,240,241,242,243,244,245,246,247,248,249,250,251,252,253,254,255,256,257,258,259,260,261,262,263,264,265,266,267,268,269,270,271,272,273,274,275,276,277,278,279,280,281,282,283,284,285,286,287,288,289,290,291,292,293,294,295,296,297,298,299,300,301,302,303,304,305,306,307,308,309,310,311,312,313,314,315,316,317,318,319,320,321,322,323,324,325,326,327,328,329,330,331,332,333,334,335,336,337,338,339,340,341,342,343,344,345,346,347,348,349,350,351,352,353,354,355,356,357,358,359,360,361,362,363,364,365,366,367,368,369,370,371,372,373,374,375,376,377,378,379,380,381,382,383,384,385,386,387,388,389,390,391,392,393,394,395,396,397,398,399,400,401,402,403,404,405,406,407,408,409,410,411,412,413,414,415,416,417,418,419,420,421,422,423,424,425,426,427,428,429,430,431,432,433,434,435,436,437,438,439,440,441,442,443,444,445,446,447,448,449,450,451,452,453,454,455,456,457,458,459,460,461,462,463,464,465,466,467,468,469,470,471,472,473,474,475,476,477,478,479,480,481,482,483,484,485,486,487,488,489,490,491,492,493,494,495,496,497,498,499,500,501,502,503,504,505,506,507,508,509,510,511,512,513,514,515,516,517,518,519,520,521,522,523,524,525,526,527,528,529,530,531,532,533,534,535,536,537,538,539,540,541,542,543,544,545,546,547,548,549,550,551,552,553,554,555,556,557,558,559,560,561,562,563,564,565,566,567,568,569,570,571,572,573,574,575,576,577,578,579,580,581,582,583,584,585,586,587,588,589,590,591,592,593,594,595,596,597,598,599,600,601,602,603,604,605,606,607,608,609,610,611,612,613,614,615,616,617,618,619,620,621,622,623,624,625,626,627,628,629,630,631,632,633,634,635,636,637,638,639,640,641,642,643,644,645,646,647,648,649,650,651,652,653,654,655,656,657,658,659,660,661,662,663,664,665,666,667,668,669,670,671,672,673,674,675,676,677,678,679,680,681,682,683,684,685,686,687,688,689,690,691,692,693,694,695,696,697,698,699,700,701,702,703,704,705,706,707,708,709,710,711,712,713,714,715,716,717,718,719,720,721,722,723,724,725,726,727,728,729,730,731,732,733,734,735,736,737,738,739,740,741,742,743,744,745,746,747,748,749,750,751,752,753,754,755,756,757,758,759,760,761,762,763,764,765,766,767,768,769,770,771,772,773,774,775,776,777,778,779,780,781,782,783,784,785,786,787,788,789,790,791,792,793,794,795,796,797,798,799,800,801,802,803,804,805,806,807,808,809,810,811,812,813,814,815,816,817,818,819,820,821,822,823,824,825,826,827,828,829,830,831,832,833,834,835,836,837,838,839,840,841,842,843,844,845,846,847,848,849,850,851,852,853,854,855,856,857,858,859,860,861,862,863,864,865,866,867,868,869,870,871,872,873,874,875,876,877,878,879,880,881,882,883,884,885,886,887,888,889,890,891,892,893,894,895,896,897,898,899,900,901,902,903,904,905,906,907,908,909,910,911,912,913,914,915,916,917,918,919,920,921,922,923,924,925,926,927,928,929,930,931,932,933,934,935,936,937,938,939,940,941,942,943,944,945,946,947,948,949,950,951,952,953,954,955,956,957,958,959,960,961,962,963,964,965,966,967,968,969,970,971,972,973,974,975,976,977,978,979,980,981,982,983,984,985,986,987,988,989,990,991,992,993,994,995,996,997,998,999,1000,1001,1002,1003,1004,1005,1006,1007,1008,1009,1010,1011,1012,1013,1014,1015,1016,1017,1018,1019,1020,1021,1022,1023,1024,1025,1026,1027,1028,1029,1030,1031,1032,1033,1034,1035,1036,1037,1038,1039,1040,1041,1042,1043,1044,1045,1046,1047,1048,1049,1050,1051,1052,1053,1054,1055,1056,1057,1058,1059,1060,1061,1062,1063,1064,1065,1066,1067,1068,1069,1070,1071,1072,1073,1074,1075,1076,1077,1078,1079,1080,1081,1082,1083,1084,1085,1086,1087,1088,1089,1090,1091,1092,1093,1094,1095,1096,1097,1098,1099,1100,1101,1102,1103,1104,1105,1106,1107,1108,1109,1110,1111,1112,1113,1114,1115,1116,1117,1118,1119,1120,1121,1122,1123,1124,1125,1126,1127,1128,1129,1130,1131,1132,1133,1134,1135,1136,1137,1138,1139,1140,1141,1142,1143,1144,1145,1146,1147,1148,1149,1150,1151,1152,1153,1154,1155,1156,1157,1158,1159,1160,1161,1162,1163,1164,1165,1166,1167,1168,1169,1170,1171,1172,1173,1174,1175,1176,1177,1178,1179,1180,1181,1182,1183,1184,1185,1186,1187,1188,1189,1190,1191,1192,1193,1194,1195,1196,1197,1198,1199,1200,1201,1202,1203,1204,1205,1206,1207,1208,1209,1210,1211,1212,1213,1214,1215,1216,1217,1218,1219,1220,1221,1222,1223,1224,1225,1226,1227,1228,1229,1230,1231,1232,1233,1234,1235,1236,1237,1238,1239,1240,1241,1242,1243,1244,1245,1246,1247,1248,1249,1250,1251,1252,1253,1254,1255,1256,1257,1258,1259,1260,1261,1262,1263,1264,1265,1266,1267,1268,1269,1270,1271,1272,1273,1274,1275,1276,1277,1278,1279,1280,1281,1282,1283,1284,1285,1286,1287,1288,1289,1290,1291,1292,1293,1294,1295,1296,1297,1298,1299,1300,1301,1302,1303,1304,1305,1306,1307,1308,1309,1310,1311,1312,1313,1314,1315,1316,1317,1318,1319,1320,1321,1322,1323,1324,1325,1326,1327,1328,1329,1330,1331,1332,1333,1334,1335,1336,1337,1338,1339,1340,1341,1342,1343,1344,1345,1346,1347,1348,1349,1350,1351,1352,1353,1354,1355,1356,1357,1358,1359,1360,1361,1362,1363,1364,1365,1366,1367,1368,1369,1370,1371,1372,1373,1374,1375,1376,1377,1378,1379,1380,1381,1382,1383,1384,1385,1386,1387,1388,1389,1390,1391,1392,1393,1394,1395,1396,1397,1398,1399,1400,1401,1402,1403,1404,1405,1406,1407,1408,1409,1410,1411,1412,1413,1414,1415,1416,1417,1418,1419,1420,1421,1422,1423,1424,1425,1426,1427,1428,1429,1430,1431,1432,1433,1434,1435,1436,1437,1438,1439,1440,1441,1442,1443,1444,1445,1446,1447,1448,1449,1450,1451,1452,1453,1454,1455,1456,1457,1458,1459,1460,1461,1462,1463,1464,1465,1466,1467,1468,1469,1470,1471,1472,1473,1474,1475,1476,1477,1478,1479,1480,1481,1482,1483,1484,1485,1486,1487,1488,1489,1490,1491,1492,1493,1494,1495,1496,1497,1498,1499,1500,1501,1502,1503,1504,1505,1506,1507,1508,1509,1510,1511,1512,1513,1514,1515,1516,1517,1518,1519,1520,1521,1522,1523,1524,1525,1526,1527,1528,1529,1530,1531,1532,1533,1534,1535,1536,1537,1538,1539,1540,1541,1542,1543,1544,1545,1546,1547,1548,1549,1550,1551,1552,1553,1554,1555,1556,1557,1558,1559,1560,1561,1562,1563,1564,1565,1566,1567,1568,1569,1570,1571,1572,1573,1574,1575,1576,1577,1578,1579,1580,1581,1582,1583,1584,1585,1586,1587,1588,1589,1590,1591,1592,1593,1594,1595,1596,1597,1598,1599,1600,1601,1602,1603,1604,1605,1606,1607,1608,1609,1610,1611,1612,1613,1614,1615,1616,1617,1618,1619,1620,1621,1622,1623,1624,1625,1626,1627,1628,1629,1630,1631,1632,1633,1634,1635,1636,1637,1638,1639,1640,1641,1642,1643,1644,1645,1646,1647,1648,1649,1650,1651,1652,1653,1654,1655,1656,1657,1658,1659,1660,1661,1662,1663,1664,1665,1666,1667,1668,1669,1670,1671,1672,1673,1674,1675,1676,1677,1678,1679,1680,1681,1682,1683,1684,1685,1686,1687,1688,1689,1690,1691,1692,1693,1694,1695,1696,1697,1698,1699,1700,1701,1702,1703,1704,1705,1706,1707,1708,1709,1710,1711,1712,1713,1714,1715,1716,1717,1718,1719,1720,1721,1722,1723,1724,1725,1726,1727,1728,1729,1730,1731,1732,1733,1734,1735,1736,1737,1738,1739,1740,1741,1742,1743,1744,1745,1746,1747,1748,1749,1750,1751,1752,1753,1754,1755,1756,1757,1758,1759,1760,1761,1762,1763,1764,1765,1766,1767,1768,1769,1770,1771,1772,1773,1774,1775,1776,1777,1778,1779,1780,1781,1782,1783,1784,1785,1786,1787,1788,1789,1790,1791,1792,1793,1794,1795,1796,1797,1798,1799,1800,1801,1802,1803,1804,1805,1806,1807,1808,1809,1810,1811,1812,1813,1814,1815,1816,1817,1818,1819,1820,1821,1822,1823,1824,1825,1826,1827,1828,1829,1830,1831,1832,1833,1834,1835,1836,1837,1838,1839,1840,1841,1842,1843,1844,1845,1846,1847,1848,1849,1850,1851,1852,1853,1854,1855,1856,1857,1858,1859,1860,1861,1862,1863,1864,1865,1866,1867,1868,1869,1870,1871,1872,1873,1874,1875,1876,1877,1878,1879,1880,1881,1882,1883,1884,1885,1886,1887,1888,1889,1890,1891,1892,1893,1894,1895,1896,1897,1898,1899,1900,1901,1902,1903,1904,1905,1906,1907,1908,1909,1910,1911,1912,1913,1914,1915,1916,1917,1918,1919,1920,1921,1922,1923,1924,1925,1926,1927,1928,1929,1930,1931,1932,1933,1934,1935,1936,1937,1938,1939,1940,1941,1942,1943,1944,1945,1946,1947,1948,1949,1950,1951,1952,1953,1954,1955,1956,1957,1958,1959,1960,1961,1962,1963,1964,1965,1966,1967,1968,1969,1970,1971,1972,1973,1974,1975,1976,1977,1978,1979,1980,1981,1982,1983,1984,1985,1986,1987,1988,1989,1990,1991,1992,1993,1994,1995,1996,1997,1998,1999,2000,2001,2002,2003,2004,2005,2006,2007,2008,2009,2010,2011,2012,2013,2014,2015,2016,2017,2018,2019,2020,2021,2022,2023,2024,2025,2026,2027,2028,2029,2030,2031,2032,2033,2034,2035,2036,2037,2038,2039,2040,2041,2042,2043,2044,2045,2046,2047,2048,2049,2050,2051,2052,2053,2054,2055,2056,2057,2058,2059,2060,2061,2062,2063,2064,2065,2066,2067,2068,2069,2070,2071,2072,2073,2074,2075,2076,2077,2078,2079,2080,2081,2082,2083,2084,2085,2086,2087,2088,2089,2090,2091,2092,2093,2094,2095,2096,2097,2098,2099,2100,2101,2102,2103,2104,2105,2106,2107,2108,2109,2110,2111,2112,2113,2114,2115,2116,2117,2118,2119,2120,2121,2122,2123,2124,2125,2126,2127,2128,2129,2130,2131,2132,2133,2134,2135,2136,2137,2138,2139,2140,2141,2142,2143,2144,2145,2146,2147,2148,2149,2150,2151,2152,2153,2154,2155,2156,2157,2158,2159,2160,2161,2162,2163,2164,2165,2166,2167,2168,2169,2170,2171,2172,2173,2174,2175,2176,2177,2178,2179],"tree_info":[0,0,0,0,0,0,0,0,0,0,0,0,0,0,0,0,0,0,0,0,0,0,0,0,0,0,0,0,0,0,0,0,0,0,0,0,0,0,0,0,0,0,0,0,0,0,0,0,0,0,0,0,0,0,0,0,0,0,0,0,0,0,0,0,0,0,0,0,0,0,0,0,0,0,0,0,0,0,0,0,0,0,0,0,0,0,0,0,0,0,0,0,0,0,0,0,0,0,0,0,0,0,0,0,0,0,0,0,0,0,0,0,0,0,0,0,0,0,0,0,0,0,0,0,0,0,0,0,0,0,0,0,0,0,0,0,0,0,0,0,0,0,0,0,0,0,0,0,0,0,0,0,0,0,0,0,0,0,0,0,0,0,0,0,0,0,0,0,0,0,0,0,0,0,0,0,0,0,0,0,0,0,0,0,0,0,0,0,0,0,0,0,0,0,0,0,0,0,0,0,0,0,0,0,0,0,0,0,0,0,0,0,0,0,0,0,0,0,0,0,0,0,0,0,0,0,0,0,0,0,0,0,0,0,0,0,0,0,0,0,0,0,0,0,0,0,0,0,0,0,0,0,0,0,0,0,0,0,0,0,0,0,0,0,0,0,0,0,0,0,0,0,0,0,0,0,0,0,0,0,0,0,0,0,0,0,0,0,0,0,0,0,0,0,0,0,0,0,0,0,0,0,0,0,0,0,0,0,0,0,0,0,0,0,0,0,0,0,0,0,0,0,0,0,0,0,0,0,0,0,0,0,0,0,0,0,0,0,0,0,0,0,0,0,0,0,0,0,0,0,0,0,0,0,0,0,0,0,0,0,0,0,0,0,0,0,0,0,0,0,0,0,0,0,0,0,0,0,0,0,0,0,0,0,0,0,0,0,0,0,0,0,0,0,0,0,0,0,0,0,0,0,0,0,0,0,0,0,0,0,0,0,0,0,0,0,0,0,0,0,0,0,0,0,0,0,0,0,0,0,0,0,0,0,0,0,0,0,0,0,0,0,0,0,0,0,0,0,0,0,0,0,0,0,0,0,0,0,0,0,0,0,0,0,0,0,0,0,0,0,0,0,0,0,0,0,0,0,0,0,0,0,0,0,0,0,0,0,0,0,0,0,0,0,0,0,0,0,0,0,0,0,0,0,0,0,0,0,0,0,0,0,0,0,0,0,0,0,0,0,0,0,0,0,0,0,0,0,0,0,0,0,0,0,0,0,0,0,0,0,0,0,0,0,0,0,0,0,0,0,0,0,0,0,0,0,0,0,0,0,0,0,0,0,0,0,0,0,0,0,0,0,0,0,0,0,0,0,0,0,0,0,0,0,0,0,0,0,0,0,0,0,0,0,0,0,0,0,0,0,0,0,0,0,0,0,0,0,0,0,0,0,0,0,0,0,0,0,0,0,0,0,0,0,0,0,0,0,0,0,0,0,0,0,0,0,0,0,0,0,0,0,0,0,0,0,0,0,0,0,0,0,0,0,0,0,0,0,0,0,0,0,0,0,0,0,0,0,0,0,0,0,0,0,0,0,0,0,0,0,0,0,0,0,0,0,0,0,0,0,0,0,0,0,0,0,0,0,0,0,0,0,0,0,0,0,0,0,0,0,0,0,0,0,0,0,0,0,0,0,0,0,0,0,0,0,0,0,0,0,0,0,0,0,0,0,0,0,0,0,0,0,0,0,0,0,0,0,0,0,0,0,0,0,0,0,0,0,0,0,0,0,0,0,0,0,0,0,0,0,0,0,0,0,0,0,0,0,0,0,0,0,0,0,0,0,0,0,0,0,0,0,0,0,0,0,0,0,0,0,0,0,0,0,0,0,0,0,0,0,0,0,0,0,0,0,0,0,0,0,0,0,0,0,0,0,0,0,0,0,0,0,0,0,0,0,0,0,0,0,0,0,0,0,0,0,0,0,0,0,0,0,0,0,0,0,0,0,0,0,0,0,0,0,0,0,0,0,0,0,0,0,0,0,0,0,0,0,0,0,0,0,0,0,0,0,0,0,0,0,0,0,0,0,0,0,0,0,0,0,0,0,0,0,0,0,0,0,0,0,0,0,0,0,0,0,0,0,0,0,0,0,0,0,0,0,0,0,0,0,0,0,0,0,0,0,0,0,0,0,0,0,0,0,0,0,0,0,0,0,0,0,0,0,0,0,0,0,0,0,0,0,0,0,0,0,0,0,0,0,0,0,0,0,0,0,0,0,0,0,0,0,0,0,0,0,0,0,0,0,0,0,0,0,0,0,0,0,0,0,0,0,0,0,0,0,0,0,0,0,0,0,0,0,0,0,0,0,0,0,0,0,0,0,0,0,0,0,0,0,0,0,0,0,0,0,0,0,0,0,0,0,0,0,0,0,0,0,0,0,0,0,0,0,0,0,0,0,0,0,0,0,0,0,0,0,0,0,0,0,0,0,0,0,0,0,0,0,0,0,0,0,0,0,0,0,0,0,0,0,0,0,0,0,0,0,0,0,0,0,0,0,0,0,0,0,0,0,0,0,0,0,0,0,0,0,0,0,0,0,0,0,0,0,0,0,0,0,0,0,0,0,0,0,0,0,0,0,0,0,0,0,0,0,0,0,0,0,0,0,0,0,0,0,0,0,0,0,0,0,0,0,0,0,0,0,0,0,0,0,0,0,0,0,0,0,0,0,0,0,0,0,0,0,0,0,0,0,0,0,0,0,0,0,0,0,0,0,0,0,0,0,0,0,0,0,0,0,0,0,0,0,0,0,0,0,0,0,0,0,0,0,0,0,0,0,0,0,0,0,0,0,0,0,0,0,0,0,0,0,0,0,0,0,0,0,0,0,0,0,0,0,0,0,0,0,0,0,0,0,0,0,0,0,0,0,0,0,0,0,0,0,0,0,0,0,0,0,0,0,0,0,0,0,0,0,0,0,0,0,0,0,0,0,0,0,0,0,0,0,0,0,0,0,0,0,0,0,0,0,0,0,0,0,0,0,0,0,0,0,0,0,0,0,0,0,0,0,0,0,0,0,0,0,0,0,0,0,0,0,0,0,0,0,0,0,0,0,0,0,0,0,0,0,0,0,0,0,0,0,0,0,0,0,0,0,0,0,0,0,0,0,0,0,0,0,0,0,0,0,0,0,0,0,0,0,0,0,0,0,0,0,0,0,0,0,0,0,0,0,0,0,0,0,0,0,0,0,0,0,0,0,0,0,0,0,0,0,0,0,0,0,0,0,0,0,0,0,0,0,0,0,0,0,0,0,0,0,0,0,0,0,0,0,0,0,0,0,0,0,0,0,0,0,0,0,0,0,0,0,0,0,0,0,0,0,0,0,0,0,0,0,0,0,0,0,0,0,0,0,0,0,0,0,0,0,0,0,0,0,0,0,0,0,0,0,0,0,0,0,0,0,0,0,0,0,0,0,0,0,0,0,0,0,0,0,0,0,0,0,0,0,0,0,0,0,0,0,0,0,0,0,0,0,0,0,0,0,0,0,0,0,0,0,0,0,0,0,0,0,0,0,0,0,0,0,0,0,0,0,0,0,0,0,0,0,0,0,0,0,0,0,0,0,0,0,0,0,0,0,0,0,0,0,0,0,0,0,0,0,0,0,0,0,0,0,0,0,0,0,0,0,0,0,0,0,0,0,0,0,0,0,0,0,0,0,0,0,0,0,0,0,0,0,0,0,0,0,0,0,0,0,0,0,0,0,0,0,0,0,0,0,0,0,0,0,0,0,0,0,0,0,0,0,0,0,0,0,0,0,0,0,0,0,0,0,0,0,0,0,0,0,0,0,0,0,0,0,0,0,0,0,0,0,0,0,0,0,0,0,0,0,0,0,0,0,0,0,0,0,0,0,0,0,0,0,0,0,0,0,0,0,0,0,0,0,0,0,0,0,0,0,0,0,0,0,0,0,0,0,0,0,0,0,0,0,0,0,0,0,0,0,0,0,0,0,0,0,0,0,0,0,0,0,0,0,0,0,0,0,0,0,0,0,0,0,0,0,0,0,0,0,0,0,0,0,0,0,0,0,0,0,0,0,0,0,0,0,0,0,0,0,0,0,0,0,0,0,0,0,0,0,0,0,0,0,0,0,0,0,0,0,0,0,0,0,0,0,0,0,0,0,0,0,0,0,0,0,0,0,0,0,0,0,0,0,0,0,0,0,0,0,0,0,0,0,0,0,0,0,0,0,0,0,0,0,0,0,0,0,0,0,0,0,0,0,0,0,0,0,0,0,0,0,0,0,0,0,0,0,0,0,0,0,0,0,0,0,0,0,0,0,0,0,0,0,0,0,0,0,0,0,0,0,0,0,0,0,0,0,0,0,0,0,0,0,0,0,0,0,0,0,0,0,0,0,0,0,0,0,0,0,0,0,0,0,0,0,0,0,0,0,0,0,0,0,0,0,0,0,0,0,0,0,0,0,0,0,0,0,0,0,0,0,0,0,0,0,0,0,0,0,0,0,0,0,0,0,0,0,0,0,0,0,0,0,0,0,0,0,0,0,0,0,0,0,0,0,0,0,0,0,0,0,0,0,0,0,0,0,0,0,0,0,0,0,0,0,0,0,0,0,0,0,0,0,0,0,0,0,0,0,0,0,0,0,0,0,0,0,0,0,0,0,0,0,0,0,0,0,0,0,0,0,0,0,0,0,0,0,0,0,0,0,0,0,0,0,0,0,0,0,0,0,0,0,0,0,0,0,0,0,0,0,0,0,0,0,0,0,0,0,0,0,0,0,0,0,0,0,0,0,0,0,0,0,0,0,0,0,0,0,0,0,0,0,0,0,0,0,0,0,0,0,0,0,0,0,0,0,0,0,0,0,0,0,0,0,0,0,0,0,0,0,0,0,0,0,0,0,0,0,0,0,0,0,0,0,0,0,0,0,0,0,0,0,0,0,0,0,0,0,0,0,0,0,0,0,0],"trees":[{"base_weights":[5.7919878E-3,-5.0754046E-1,4.7952858E-1,-8.502009E-1,-2.5305983E-1,2.8500736E-1,8.961128E-1,-3.976306E-3,-2.6971227E-3,-1.6478496E-3,-5.371708E-4,3.0153596E-3,9.0190535E-4,4.7231433E-3,3.0296913E-3],"categories":[],"categories_nodes":[],"categories_segments":[],"categories_sizes":[],"default_left":[0,0,0,0,0,0,0,0,0,0,0,0,0,0,0],"id":0,"left_children":[1,3,5,7,9,11,13,-1,-1,-1,-1,-1,-1,-1,-1],"loss_changes":[1.0110399E4,1.723665E3,1.73473E3,1.7680518E2,2.1154224E2,4.0026648E2,2.2227783E2,0E0,0E0,0E0,0E0,0E0,0E0,0E0,0E0],"parents":[2147483647,0,0,1,1,2,2,3,3,4,4,5,5,6,6],"right_children":[2,4,6,8,10,12,14,-1,-1,-1,-1,-1,-1,-1,-1],"split_conditions":[-1.2618008E1,-1.3606866E1,-1.1408732E1,-1.4194512E1,-1.3121028E1,-2.3284392E-4,-4.0532998E-4,-3.976306E-3,-2.6971227E-3,-1.6478496E-3,-5.371708E-4,3.0153596E-3,9.0190535E-4,4.7231433E-3,3.0296913E-3],"split_indices":[13,13,13,13,13,5,3,0,0,0,0,0,0,0,0],"split_type":[0,0,0,0,0,0,0,0,0,0,0,0,0,0,0],"sum_hessian":[4.1495754E4,1.9907629E4,2.1588125E4,8.4331455E3,1.1474483E4,1.477296E4,6.8151655E3,4.516427E3,3.916719E3,4.8423145E3,6.6321694E3,1.5996134E3,1.3173347E4,2.118776E3,4.6963896E3],"tree_param":{"num_deleted":"0","num_feature":"19","num_nodes":"15","size_leaf_vector":"1"}},{"base_weights":[6.4028637E-3,-5.110721E-1,4.8284853E-1,-8.517681E-1,-2.4941474E-1,2.667153E-1,8.4908336E-1,-3.998012E-3,-2.7121704E-3,-1.6241978E-3,-5.962067E-4,3.7760826E-4,1.5071857E-3,4.741253E-3,2.9585098E-3],"categories":[],"categories_nodes":[],"categories_segments":[],"categories_sizes":[],"default_left":[0,0,0,0,0,0,0,0,0,0,0,0,0,0,0],"id":1,"left_children":[1,3,5,7,9,11,13,-1,-1,-1,-1,-1,-1,-1,-1],"loss_changes":[1.0249564E4,1.7603105E3,1.6974683E3,1.8339355E2,1.7216803E2,2.5509839E2,2.4705078E2,0E0,0E0,0E0,0E0,0E0,0E0,0E0,0E0],"parents":[2147483647,0,0,1,1,2,2,3,3,4,4,5,5,6,6],"right_children":[2,4,6,8,10,12,14,-1,-1,-1,-1,-1,-1,-1,-1],"split_conditions":[-1.2700059E1,-1.3706986E1,-1.1560531E1,-1.4330574E1,-1.3251665E1,-1.22994375E1,-2.9435786E-3,-3.998012E-3,-2.7121704E-3,-1.6241978E-3,-5.962067E-4,3.7760826E-4,1.5071857E-3,4.741253E-3,2.9585098E-3],"split_indices":[10,10,10,10,10,10,6,0,0,0,0,0,0,0,0],"split_type":[0,0,0,0,0,0,0,0,0,0,0,0,0,0,0],"sum_hessian":[4.149288E4,1.9882088E4,2.1610793E4,8.586639E3,1.1295448E4,1.3645053E4,7.9657393E3,4.5174697E3,4.069169E3,4.3382427E3,6.957206E3,5.3710073E3,8.274046E3,1.8451643E3,6.1205747E3],"tree_param":{"num_deleted":"0","num_feature":"19","num_nodes":"15","size_leaf_vector":"1"}},{"base_weights":[2.215457E-4,6.566879E-1,-1.11661576E-1,9.118234E-1,4.72946E-1,3.1329685E-1,-2.5779474E-1,4.490224E-3,3.1158156E-3,2.0324274E-3,1.1263872E-3,2.7312457E-3,6.9688045E-4,2.0424856E-4,-1.3096383E-3],"categories":[],"categories_nodes":[],"categories_segments":[],"categories_sizes":[],"default_left":[0,0,0,0,0,0,0,0,0,0,0,0,0,0,0],"id":2,"left_children":[1,3,5,7,9,11,13,-1,-1,-1,-1,-1,-1,-1,-1],"loss_changes":[3.0633865E3,2.58531E2,2.2127495E3,2.225415E1,1.3562378E1,4.5796722E2,5.7252344E2,0E0,0E0,0E0,0E0,0E0,0E0,0E0,0E0],"parents":[2147483647,0,0,1,1,2,2,3,3,4,4,5,5,6,6],"right_children":[2,4,6,8,10,12,14,-1,-1,-1,-1,-1,-1,-1,-1],"split_conditions":[-4.3042796E-3,-8.785929E-3,-2.5173381E-3,-1.526842E-2,-4.805686E-3,-6.9641536E-3,-1.9906654E-3,4.490224E-3,3.1158156E-3,2.0324274E-3,1.1263872E-3,2.7312457E-3,6.9688045E-4,2.0424856E-4,-1.3096383E-3],"split_indices":[2,2,1,2,2,1,2,0,0,0,0,0,0,0,0],"split_type":[0,0,0,0,0,0,0,0,0,0,0,0,0,0,0],"sum_hessian":[4.1580344E4,6.034814E3,3.5545527E4,2.4453872E3,3.5894268E3,9.07244E3,2.647309E4,8.1149115E2,1.6338961E3,2.9476113E3,6.418154E2,2.4253582E3,6.647082E3,4.854157E3,2.1618932E4],"tree_param":{"num_deleted":"0","num_feature":"19","num_nodes":"15","size_leaf_vector":"1"}},{"base_weights":[1.0057077E-3,-5.2301115E-1,4.5998517E-1,-8.4311026E-1,-2.6820266E-1,2.626251E-1,8.52562E-1,-3.942875E-3,-2.6485492E-3,-1.680496E-3,-6.736943E-4,2.4586902E-3,7.616091E-4,5.4175383E-3,3.0690066E-3],"categories":[],"categories_nodes":[],"categories_segments":[],"categories_sizes":[],"default_left":[0,0,0,0,0,0,0,0,0,0,0,0,0,0,0],"id":3,"left_children":[1,3,5,7,9,11,13,-1,-1,-1,-1,-1,-1,-1,-1],"loss_changes":[1.000063E4,1.5667979E3,1.7017539E3,1.8442041E2,1.5821674E2,3.6700153E2,2.609751E2,0E0,0E0,0E0,0E0,0E0,0E0,0E0,0E0],"parents":[2147483647,0,0,1,1,2,2,3,3,4,4,5,5,6,6],"right_children":[2,4,6,8,10,12,14,-1,-1,-1,-1,-1,-1,-1,-1],"split_conditions":[-1.2735898E1,-1.3706986E1,-1.1483919E1,-1.4297438E1,-1.326578E1,-4.0532998E-4,-1.0259987E-3,-3.942875E-3,-2.6485492E-3,-1.680496E-3,-6.736943E-4,2.4586902E-3,7.616091E-4,5.4175383E-3,3.0690066E-3],"split_indices":[10,10,10,10,10,3,3,0,0,0,0,0,0,0,0],"split_type":[0,0,0,0,0,0,0,0,0,0,0,0,0,0,0],"sum_hessian":[4.1502113E4,1.9368898E4,2.2133215E4,8.532375E3,1.0836524E4,1.4784115E4,7.3490986E3,4.6524277E3,3.879947E3,4.2190825E3,6.617442E3,2.4502131E3,1.2333902E4,9.7029364E2,6.378805E3],"tree_param":{"num_deleted":"0","num_feature":"19","num_nodes":"15","size_leaf_vector":"1"}},{"base_weights":[-7.0765626E-4,-5.180326E-1,4.663287E-1,-8.440611E-1,-2.6759627E-1,2.5995055E-1,8.6807793E-1,-3.9516133E-3,-2.6907993E-3,-1.5343672E-3,-5.236623E-4,4.858609E-4,1.6758725E-3,3.0044853E-3,4.660959E-3],"categories":[],"categories_nodes":[],"categories_segments":[],"categories_sizes":[],"default_left":[0,0,0,0,0,0,0,0,0,0,0,0,0,0,0],"id":4,"left_children":[1,3,5,7,9,11,13,-1,-1,-1,-1,-1,-1,-1,-1],"loss_changes":[1.0066316E4,1.59823E3,1.7984849E3,1.736289E2,1.7305627E2,3.1438593E2,2.0973975E2,0E0,0E0,0E0,0E0,0E0,0E0,0E0,0E0],"parents":[2147483647,0,0,1,1,2,2,3,3,4,4,5,5,6,6],"right_children":[2,4,6,8,10,12,14,-1,-1,-1,-1,-1,-1,-1,-1],"split_conditions":[-1.2712217E1,-1.3706986E1,-1.1483919E1,-1.4330574E1,-1.3115443E1,-1.2120659E1,-1.0458709E1,-3.9516133E-3,-2.6907993E-3,-1.5343672E-3,-5.236623E-4,4.858609E-4,1.6758725E-3,3.0044853E-3,4.660959E-3],"split_indices":[10,10,10,10,10,10,10,0,0,0,0,0,0,0,0],"split_type":[0,0,0,0,0,0,0,0,0,0,0,0,0,0,0],"sum_hessian":[4.158218E4,1.9733455E4,2.1848723E4,8.520433E3,1.1213021E4,1.4488207E4,7.360517E3,4.5079146E3,4.012518E3,6.0006733E3,5.212348E3,7.803617E3,6.68459E3,5.398687E3,1.9618298E3],"tree_param":{"num_deleted":"0","num_feature":"19","num_nodes":"15","size_leaf_vector":"1"}},{"base_weights":[1.3184847E-3,-5.101559E-1,4.6231756E-1,-8.295192E-1,-2.559753E-1,2.4930984E-1,8.274423E-1,-3.9153565E-3,-2.592254E-3,-1.4986703E-3,-5.103873E-4,2.3769028E-3,7.188693E-4,5.005957E-3,2.9732669E-3],"categories":[],"categories_nodes":[],"categories_segments":[],"categories_sizes":[],"default_left":[0,0,0,0,0,0,0,0,0,0,0,0,0,0,0],"id":5,"left_children":[1,3,5,7,9,11,13,-1,-1,-1,-1,-1,-1,-1,-1],"loss_changes":[9.819373E3,1.5865049E3,1.6888208E3,2.002417E2,1.6332635E2,3.2449677E2,2.3678662E2,0E0,0E0,0E0,0E0,0E0,0E0,0E0,0E0],"parents":[2147483647,0,0,1,1,2,2,3,3,4,4,5,5,6,6],"right_children":[2,4,6,8,10,12,14,-1,-1,-1,-1,-1,-1,-1,-1],"split_conditions":[-1.2712217E1,-1.3687047E1,-1.1560531E1,-1.4297438E1,-1.3128756E1,-4.0532998E-4,-9.087815E-4,-3.9153565E-3,-2.592254E-3,-1.4986703E-3,-5.103873E-4,2.3769028E-3,7.188693E-4,5.005957E-3,2.9732669E-3],"split_indices":[10,10,10,10,10,3,3,0,0,0,0,0,0,0,0],"split_type":[0,0,0,0,0,0,0,0,0,0,0,0,0,0,0],"sum_hessian":[4.1566016E4,1.9695578E4,2.1870438E4,8.677141E3,1.1018438E4,1.3866226E4,8.004211E3,4.6439995E3,4.0331406E3,5.6590225E3,5.3594155E3,2.261716E3,1.160451E4,1.2203818E3,6.783829E3],"tree_param":{"num_deleted":"0","num_feature":"19","num_nodes":"15","size_leaf_vector":"1"}},{"base_weights":[2.3077005E-3,-5.573078E-1,4.2582753E-1,-8.8316053E-1,-3.257506E-1,2.0067446E-1,7.812502E-1,-3.990417E-3,-2.8062228E-3,-1.9333623E-3,-9.271537E-4,1.01200865E-4,1.3196837E-3,2.348604E-3,3.9119907E-3],"categories":[],"categories_nodes":[],"categories_segments":[],"categories_sizes":[],"default_left":[0,0,0,0,0,0,0,0,0,0,0,0,0,0,0],"id":6,"left_children":[1,3,5,7,9,11,13,-1,-1,-1,-1,-1,-1,-1,-1],"loss_changes":[9.8617E3,1.3327319E3,1.883373E3,1.149458E2,1.4709741E2,3.2760095E2,3.1679297E2,0E0,0E0,0E0,0E0,0E0,0E0,0E0,0E0],"parents":[2147483647,0,0,1,1,2,2,3,3,4,4,5,5,6,6],"right_children":[2,4,6,8,10,12,14,-1,-1,-1,-1,-1,-1,-1,-1],"split_conditions":[-1.2844616E1,-1.372599E1,-1.1651898E1,-1.4297438E1,-1.3419126E1,-1.235381E1,-1.1062131E1,-3.990417E-3,-2.8062228E-3,-1.9333623E-3,-9.271537E-4,1.01200865E-4,1.3196837E-3,2.348604E-3,3.9119907E-3],"split_indices":[10,13,13,10,10,13,10,0,0,0,0,0,0,0,0],"split_type":[0,0,0,0,0,0,0,0,0,0,0,0,0,0,0],"sum_hessian":[4.153266E4,1.7879588E4,2.3653072E4,7.369052E3,1.0510535E4,1.4529684E4,9.123389E3,4.3881865E3,2.9808652E3,3.8382407E3,6.672295E3,6.206381E3,8.323303E3,4.689458E3,4.4339307E3],"tree_param":{"num_deleted":"0","num_feature":"19","num_nodes":"15","size_leaf_vector":"1"}},{"base_weights":[-4.2702504E-3,7.573975E-1,-1.1925238E-1,4.446631E-3,5.6649065E-1,-2.2308496E-1,3.0960628E-1,2.7516144E-3,1.6044377E-3,8.457974E-4,-1.1818567E-3,7.2473456E-4,2.6686417E-3],"categories":[],"categories_nodes":[],"categories_segments":[],"categories_sizes":[],"default_left":[0,0,0,0,0,0,0,0,0,0,0,0,0],"id":7,"left_children":[1,3,5,-1,7,9,11,-1,-1,-1,-1,-1,-1],"loss_changes":[3.635624E3,3.3206274E2,1.610397E3,0E0,5.4791016E1,9.1862695E2,3.131053E2,0E0,0E0,0E0,0E0,0E0,0E0],"parents":[2147483647,0,0,1,1,2,2,4,4,5,5,6,6],"right_children":[2,4,6,-1,8,10,12,-1,-1,-1,-1,-1,-1],"split_conditions":[-1.7971252E-4,-3.5600262E-4,1.4509716E-4,4.446631E-3,-2.3284392E-4,-1.541263E-3,3.620981E-4,2.7516144E-3,1.6044377E-3,8.457974E-4,-1.1818567E-3,7.2473456E-4,2.6686417E-3],"split_indices":[5,5,5,0,5,6,5,0,0,0,0,0,0],"split_type":[0,0,0,0,0,0,0,0,0,0,0,0,0],"sum_hessian":[4.1479004E4,5.4036943E3,3.6075312E4,1.8127878E3,3.5909065E3,2.9071139E4,7.004173E3,1.9751716E3,1.6157347E3,4.127101E3,2.4944037E4,5.2109907E3,1.7931821E3],"tree_param":{"num_deleted":"0","num_feature":"19","num_nodes":"13","size_leaf_vector":"1"}},{"base_weights":[-1.6341583E-3,6.402258E-1,-1.11826725E-1,4.0702773E-3,5.087795E-1,-2.4908392E-1,2.9244608E-1,2.4211705E-3,1.3146773E-3,2.9488973E-4,-1.2866312E-3,7.40255E-4,2.48539E-3],"categories":[],"categories_nodes":[],"categories_segments":[],"categories_sizes":[],"default_left":[0,0,0,0,0,0,0,0,0,0,0,0,0],"id":8,"left_children":[1,3,5,-1,7,9,11,-1,-1,-1,-1,-1,-1],"loss_changes":[2.9451309E3,2.7191772E2,1.9774147E3,0E0,6.6222046E1,6.2576794E2,3.089663E2,0E0,0E0,0E0,0E0,0E0,0E0],"parents":[2147483647,0,0,1,1,2,2,4,4,5,5,6,6],"right_children":[2,4,6,-1,8,10,12,-1,-1,-1,-1,-1,-1],"split_conditions":[-4.3042796E-3,-1.1614494E-2,3.1599766E-3,4.0702773E-3,3.7354916E-1,-1.9906654E-3,9.299785E-3,2.4211705E-3,1.3146773E-3,2.9488973E-4,-1.2866312E-3,7.40255E-4,2.48539E-3],"split_indices":[2,2,2,0,18,2,2,0,0,0,0,0,0],"split_type":[0,0,0,0,0,0,0,0,0,0,0,0,0],"sum_hessian":[4.1608195E4,6.0596997E3,3.5548496E4,1.4830885E3,4.576611E3,2.6561775E4,8.986722E3,2.894865E3,1.6817461E3,4.8589805E3,2.1702795E4,6.836844E3,2.1498774E3],"tree_param":{"num_deleted":"0","num_feature":"19","num_nodes":"13","size_leaf_vector":"1"}},{"base_weights":[2.770811E-3,-5.0770235E-1,4.620656E-1,-8.4430856E-1,-2.5761208E-1,2.7455428E-1,8.6331E-1,-3.984485E-3,-2.7333277E-3,-1.5686977E-3,-5.7004776E-4,2.5397012E-4,1.439809E-3,2.816072E-3,4.1668266E-3],"categories":[],"categories_nodes":[],"categories_segments":[],"categories_sizes":[],"default_left":[0,0,0,0,0,0,0,0,0,0,0,0,0,0,0],"id":9,"left_children":[1,3,5,7,9,11,13,-1,-1,-1,-1,-1,-1,-1,-1],"loss_changes":[9.755179E3,1.6425073E3,1.631498E3,1.6637451E2,1.7040546E2,2.667124E2,1.5675977E2,0E0,0E0,0E0,0E0,0E0,0E0,0E0,0E0],"parents":[2147483647,0,0,1,1,2,2,3,3,4,4,5,5,6,6],"right_children":[2,4,6,8,10,12,14,-1,-1,-1,-1,-1,-1,-1,-1],"split_conditions":[-1.2629228E1,-1.3606866E1,-1.1408732E1,-1.42620125E1,-1.3093546E1,-1.2319907E1,-1.0802004E1,-3.984485E-3,-2.7333277E-3,-1.5686977E-3,-5.7004776E-4,2.5397012E-4,1.439809E-3,2.816072E-3,4.1668266E-3],"split_indices":[13,13,13,13,13,13,13,0,0,0,0,0,0,0,0],"split_type":[0,0,0,0,0,0,0,0,0,0,0,0,0,0,0],"sum_hessian":[4.1528668E4,1.9659822E4,2.1868848E4,8.328771E3,1.1331051E4,1.4960848E4,6.908E3,4.158813E3,4.169959E3,5.1534478E3,6.1776025E3,4.3516245E3,1.0609223E4,3.7731807E3,3.1348193E3],"tree_param":{"num_deleted":"0","num_feature":"19","num_nodes":"15","size_leaf_vector":"1"}},{"base_weights":[-9.332138E-4,7.4776006E-1,-1.18454605E-1,1.0811161E0,5.279089E-1,-2.192414E-1,3.340519E-1,4.9103373E-3,3.4449352E-3,3.0967726E-3,1.7123617E-3,1.3566237E-3,-1.2087893E-3,7.367496E-4,2.6519673E-3],"categories":[],"categories_nodes":[],"categories_segments":[],"categories_sizes":[],"default_left":[0,0,0,0,0,0,0,0,0,0,0,0,0,0,0],"id":10,"left_children":[1,3,5,7,9,11,13,-1,-1,-1,-1,-1,-1,-1,-1],"loss_changes":[3.6573752E3,3.7993604E2,1.6428799E3,1.4689941E1,6.466376E1,1.368409E3,3.128562E2,0E0,0E0,0E0,0E0,0E0,0E0,0E0,0E0],"parents":[2147483647,0,0,1,1,2,2,3,3,4,4,5,5,6,6],"right_children":[2,4,6,8,10,12,14,-1,-1,-1,-1,-1,-1,-1,-1],"split_conditions":[-1.7566161E-4,-3.267002E-4,1.5534519E-4,-4.421678E-4,-3.9780946E-3,-3.3953262E-3,3.4558255E-4,4.9103373E-3,3.4449352E-3,3.0967726E-3,1.7123617E-3,1.3566237E-3,-1.2087893E-3,7.367496E-4,2.6519673E-3],"split_indices":[5,5,5,5,2,2,5,0,0,0,0,0,0,0,0],"split_type":[0,0,0,0,0,0,0,0,0,0,0,0,0,0,0],"sum_hessian":[4.153322E4,5.5983027E3,3.5934914E4,2.1508088E3,3.447494E3,2.9417695E4,6.51722E3,1.1631396E3,9.876692E2,8.975623E2,2.5499316E3,3.7789211E3,2.5638773E4,4.5337905E3,1.9834298E3],"tree_param":{"num_deleted":"0","num_feature":"19","num_nodes":"15","size_leaf_vector":"1"}},{"base_weights":[-2.7570903E-4,-5.0678647E-1,4.474888E-1,-8.3759505E-1,-2.5632963E-1,2.7195668E-1,8.5406405E-1,-4.0099793E-3,-2.7540058E-3,6.935044E-4,-1.1519291E-3,2.5227463E-3,8.061042E-4,4.5666946E-3,2.855386E-3],"categories":[],"categories_nodes":[],"categories_segments":[],"categories_sizes":[],"default_left":[0,0,0,0,0,0,0,0,0,0,0,0,0,0,0],"id":11,"left_children":[1,3,5,7,9,11,13,-1,-1,-1,-1,-1,-1,-1,-1],"loss_changes":[9.445374E3,1.6038721E3,1.5604277E3,1.6776611E2,1.5499036E2,3.8122388E2,2.2285791E2,0E0,0E0,0E0,0E0,0E0,0E0,0E0,0E0],"parents":[2147483647,0,0,1,1,2,2,3,3,4,4,5,5,6,6],"right_children":[2,4,6,8,10,12,14,-1,-1,-1,-1,-1,-1,-1,-1],"split_conditions":[-1.2641512E1,-1.3606866E1,-1.1371202E1,-1.4335673E1,-4.0532998E-4,-4.345375E-4,-4.0532998E-4,-4.0099793E-3,-2.7540058E-3,6.935044E-4,-1.1519291E-3,2.5227463E-3,8.061042E-4,4.5666946E-3,2.855386E-3],"split_indices":[13,13,13,13,3,3,3,0,0,0,0,0,0,0,0],"split_type":[0,0,0,0,0,0,0,0,0,0,0,0,0,0,0],"sum_hessian":[4.1565023E4,1.9507455E4,2.2057568E4,8.353824E3,1.1153631E4,1.5463989E4,6.5935786E3,3.8372336E3,4.516591E3,7.388466E2,1.0414784E4,2.4704705E3,1.2993519E4,2.0521782E3,4.5414004E3],"tree_param":{"num_deleted":"0","num_feature":"19","num_nodes":"15","size_leaf_vector":"1"}},{"base_weights":[-2.3071368E-3,-5.10747E-1,4.5086277E-1,-8.3111227E-1,-2.5689152E-1,2.500661E-1,7.92772E-1,-3.943659E-3,-2.6225026E-3,-1.471734E-3,-5.4754183E-4,2.288434E-3,7.061711E-4,4.415837E-3,2.7087613E-3],"categories":[],"categories_nodes":[],"categories_segments":[],"categories_sizes":[],"default_left":[0,0,0,0,0,0,0,0,0,0,0,0,0,0,0],"id":12,"left_children":[1,3,5,7,9,11,13,-1,-1,-1,-1,-1,-1,-1,-1],"loss_changes":[9.58264E3,1.5788301E3,1.49448E3,1.9813477E2,1.4138483E2,3.206753E2,2.4996094E2,0E0,0E0,0E0,0E0,0E0,0E0,0E0,0E0],"parents":[2147483647,0,0,1,1,2,2,3,3,4,4,5,5,6,6],"right_children":[2,4,6,8,10,12,14,-1,-1,-1,-1,-1,-1,-1,-1],"split_conditions":[-1.2712217E1,-1.3687047E1,-1.1560531E1,-1.4330574E1,-1.3128756E1,-3.7793466E-4,-5.6802627E-4,-3.943659E-3,-2.6225026E-3,-1.471734E-3,-5.4754183E-4,2.288434E-3,7.061711E-4,4.415837E-3,2.7087613E-3],"split_indices":[10,10,10,10,10,3,3,0,0,0,0,0,0,0,0],"split_type":[0,0,0,0,0,0,0,0,0,0,0,0,0,0,0],"sum_hessian":[4.1507906E4,1.9565453E4,2.1942453E4,8.598101E3,1.0967354E4,1.3879537E4,8.062917E3,4.450448E3,4.1476523E3,5.6253755E3,5.341978E3,2.512924E3,1.1366612E4,2.0758088E3,5.987108E3],"tree_param":{"num_deleted":"0","num_feature":"19","num_nodes":"15","size_leaf_vector":"1"}},{"base_weights":[-3.3624417E-3,7.541535E-1,-1.21886715E-1,1.0484219E0,5.076513E-1,-2.2104679E-1,3.2209405E-1,4.8941392E-3,3.4357407E-3,2.9317713E-3,1.8103415E-3,8.547931E-4,-1.074521E-3,7.967317E-4,2.5168404E-3],"categories":[],"categories_nodes":[],"categories_segments":[],"categories_sizes":[],"default_left":[0,0,0,0,0,0,0,0,0,0,0,0,0,0,0],"id":13,"left_children":[1,3,5,7,9,11,13,-1,-1,-1,-1,-1,-1,-1,-1],"loss_changes":[3.7320154E3,3.764453E2,1.5866057E3,2.7824707E1,1.8093628E1,6.1196094E2,2.3778455E2,0E0,0E0,0E0,0E0,0E0,0E0,0E0,0E0],"parents":[2147483647,0,0,1,1,2,2,3,3,4,4,5,5,6,6],"right_children":[2,4,6,8,10,12,14,-1,-1,-1,-1,-1,-1,-1,-1],"split_conditions":[-1.7566161E-4,-3.021951E-4,1.5534519E-4,-4.421678E-4,-6.686964E-4,-2.9120166E-4,3.620981E-4,4.8941392E-3,3.4357407E-3,2.9317713E-3,1.8103415E-3,8.547931E-4,-1.074521E-3,7.967317E-4,2.5168404E-3],"split_indices":[5,5,5,5,3,3,5,0,0,0,0,0,0,0,0],"split_type":[0,0,0,0,0,0,0,0,0,0,0,0,0,0,0],"sum_hessian":[4.1531406E4,5.5825693E3,3.594884E4,2.4733936E3,3.1091755E3,2.9414121E4,6.5347183E3,1.1541799E3,1.3192135E3,4.9078326E2,2.6183923E3,2.8745564E3,2.6539564E4,4.7291636E3,1.8055549E3],"tree_param":{"num_deleted":"0","num_feature":"19","num_nodes":"15","size_leaf_vector":"1"}},{"base_weights":[2.9320715E-3,-5.145783E-1,4.4855365E-1,-8.708446E-1,-2.863726E-1,2.4803981E-1,7.971872E-1,-4.0396773E-3,-2.8556178E-3,-1.7376777E-3,-6.675338E-4,8.8027875E-5,1.3958804E-3,2.612409E-3,4.0840516E-3],"categories":[],"categories_nodes":[],"categories_segments":[],"categories_sizes":[],"default_left":[0,0,0,0,0,0,0,0,0,0,0,0,0,0,0],"id":14,"left_children":[1,3,5,7,9,11,13,-1,-1,-1,-1,-1,-1,-1,-1],"loss_changes":[9.602778E3,1.5483994E3,1.5499062E3,1.2342236E2,2.0212537E2,3.230409E2,2.2503955E2,0E0,0E0,0E0,0E0,0E0,0E0,0E0,0E0],"parents":[2147483647,0,0,1,1,2,2,3,3,4,4,5,5,6,6],"right_children":[2,4,6,8,10,12,14,-1,-1,-1,-1,-1,-1,-1,-1],"split_conditions":[-1.2735898E1,-1.3707008E1,-1.1560531E1,-1.4335673E1,-1.326578E1,-1.2400201E1,-1.0802004E1,-4.0396773E-3,-2.8556178E-3,-1.7376777E-3,-6.675338E-4,8.8027875E-5,1.3958804E-3,2.612409E-3,4.0840516E-3],"split_indices":[10,13,10,13,10,13,13,0,0,0,0,0,0,0,0],"split_type":[0,0,0,0,0,0,0,0,0,0,0,0,0,0,0],"sum_hessian":[4.1561914E4,1.922024E4,2.2341674E4,7.4493945E3,1.1770846E4,1.4239209E4,8.102465E3,3.8122754E3,3.6371194E3,5.185812E3,6.5850337E3,4.4304224E3,9.808787E3,5.0423022E3,3.0601626E3],"tree_param":{"num_deleted":"0","num_feature":"19","num_nodes":"15","size_leaf_vector":"1"}},{"base_weights":[-4.271859E-4,7.4819034E-1,-1.14798866E-1,4.5645293E-3,5.371853E-1,-2.1768342E-1,3.0672875E-1,3.007616E-3,1.7085037E-3,1.3930504E-3,-1.1934432E-3,7.6313666E-4,2.4984009E-3],"categories":[],"categories_nodes":[],"categories_segments":[],"categories_sizes":[],"default_left":[0,0,0,0,0,0,0,0,0,0,0,0,0],"id":15,"left_children":[1,3,5,-1,7,9,11,-1,-1,-1,-1,-1,-1],"loss_changes":[3.5586763E3,4.2118872E2,1.5678765E3,0E0,6.6206055E1,1.3305266E3,2.5114545E2,0E0,0E0,0E0,0E0,0E0,0E0],"parents":[2147483647,0,0,1,1,2,2,4,4,5,5,6,6],"right_children":[2,4,6,-1,8,10,12,-1,-1,-1,-1,-1,-1],"split_conditions":[-1.7971252E-4,-3.5600262E-4,1.4509716E-4,4.5645293E-3,-3.3953262E-3,-3.4827655E-3,3.620981E-4,3.007616E-3,1.7085037E-3,1.3930504E-3,-1.1934432E-3,7.6313666E-4,2.4984009E-3],"split_indices":[5,5,5,0,2,2,5,0,0,0,0,0,0],"split_type":[0,0,0,0,0,0,0,0,0,0,0,0,0],"sum_hessian":[4.153125E4,5.467213E3,3.6064035E4,1.837752E3,3.6294612E3,2.9016566E4,7.0474688E3,1.1308723E3,2.4985889E3,3.59371E3,2.5422857E4,5.225799E3,1.8216703E3],"tree_param":{"num_deleted":"0","num_feature":"19","num_nodes":"13","size_leaf_vector":"1"}},{"base_weights":[2.3569758E-3,-5.0281847E-1,4.435651E-1,-8.718597E-1,-2.708267E-1,2.4707143E-1,7.906092E-1,-3.917631E-3,-2.8074554E-3,-1.6630319E-3,-5.549213E-4,2.9124413E-3,7.8855676E-4,5.1546507E-3,2.8658805E-3],"categories":[],"categories_nodes":[],"categories_segments":[],"categories_sizes":[],"default_left":[0,0,0,0,0,0,0,0,0,0,0,0,0,0,0],"id":16,"left_children":[1,3,5,7,9,11,13,-1,-1,-1,-1,-1,-1,-1,-1],"loss_changes":[9.262762E3,1.6413564E3,1.4987002E3,9.773096E1,2.2308752E2,3.3025604E2,2.4514795E2,0E0,0E0,0E0,0E0,0E0,0E0,0E0,0E0],"parents":[2147483647,0,0,1,1,2,2,3,3,4,4,5,5,6,6],"right_children":[2,4,6,8,10,12,14,-1,-1,-1,-1,-1,-1,-1,-1],"split_conditions":[-1.2641512E1,-1.3707008E1,-1.1518326E1,-1.4194512E1,-1.3121028E1,-5.8492564E-4,-1.0259987E-3,-3.917631E-3,-2.8074554E-3,-1.6630319E-3,-5.549213E-4,2.9124413E-3,7.8855676E-4,5.1546507E-3,2.8658805E-3],"split_indices":[13,13,13,13,13,3,3,0,0,0,0,0,0,0,0],"split_type":[0,0,0,0,0,0,0,0,0,0,0,0,0,0,0],"sum_hessian":[4.147971E4,1.9328549E4,2.2151162E4,7.4071963E3,1.1921353E4,1.4199002E4,7.952159E3,4.396842E3,3.0103542E3,5.620093E3,6.3012603E3,1.2719358E3,1.2927066E4,9.3410004E2,7.018059E3],"tree_param":{"num_deleted":"0","num_feature":"19","num_nodes":"15","size_leaf_vector":"1"}},{"base_weights":[-2.0681792E-3,-4.9864823E-1,4.391687E-1,-8.162663E-1,-2.4708834E-1,2.2435093E-1,7.686473E-1,-3.8674595E-3,-2.535153E-3,-1.5111654E-3,-5.1843293E-4,2.2746562E-3,6.536951E-4,4.65388E-3,2.7343915E-3],"categories":[],"categories_nodes":[],"categories_segments":[],"categories_sizes":[],"default_left":[0,0,0,0,0,0,0,0,0,0,0,0,0,0,0],"id":17,"left_children":[1,3,5,7,9,11,13,-1,-1,-1,-1,-1,-1,-1,-1],"loss_changes":[9.122328E3,1.5506128E3,1.546417E3,2.0228223E2,1.63695E2,2.7280573E2,2.4728467E2,0E0,0E0,0E0,0E0,0E0,0E0,0E0,0E0],"parents":[2147483647,0,0,1,1,2,2,3,3,4,4,5,5,6,6],"right_children":[2,4,6,8,10,12,14,-1,-1,-1,-1,-1,-1,-1,-1],"split_conditions":[-1.2712217E1,-1.3687047E1,-1.16137905E1,-1.4297438E1,-1.3168728E1,-4.345375E-4,-3.73603E-4,-3.8674595E-3,-2.535153E-3,-1.5111654E-3,-5.1843293E-4,2.2746562E-3,6.536951E-4,4.65388E-3,2.7343915E-3],"split_indices":[10,10,10,10,10,3,5,0,0,0,0,0,0,0,0],"split_type":[0,0,0,0,0,0,0,0,0,0,0,0,0,0,0],"sum_hessian":[4.155192E4,1.9554396E4,2.1997525E4,8.59136E3,1.0963036E4,1.3368393E4,8.629133E3,4.5931157E3,3.9982449E3,5.1213247E3,5.8417114E3,1.9437576E3,1.1424635E4,1.4259343E3,7.2031987E3],"tree_param":{"num_deleted":"0","num_feature":"19","num_nodes":"15","size_leaf_vector":"1"}},{"base_weights":[-3.2243691E-3,7.0596236E-1,-1.16020724E-1,1.049928E0,5.0227517E-1,-2.0567302E-1,3.681582E-1,4.7824164E-3,3.1657964E-3,2.4545817E-3,1.4073629E-3,-1.1353448E-3,1.186387E-3,9.1748254E-4,2.6003383E-3],"categories":[],"categories_nodes":[],"categories_segments":[],"categories_sizes":[],"default_left":[0,0,0,0,0,0,0,0,0,0,0,0,0,0,0],"id":18,"left_children":[1,3,5,7,9,11,13,-1,-1,-1,-1,-1,-1,-1,-1],"loss_changes":[3.3271052E3,3.6859814E2,1.5617401E3,2.7317871E1,4.6615784E1,1.1950283E3,2.0809949E2,0E0,0E0,0E0,0E0,0E0,0E0,0E0,0E0],"parents":[2147483647,0,0,1,1,2,2,3,3,4,4,5,5,6,6],"right_children":[2,4,6,8,10,12,14,-1,-1,-1,-1,-1,-1,-1,-1],"split_conditions":[-4.0532998E-4,-7.8326167E-4,4.0948886E-4,-1.0259987E-3,-5.1994965E-4,1.8528682E-3,3.620981E-4,4.7824164E-3,3.1657964E-3,2.4545817E-3,1.4073629E-3,-1.1353448E-3,1.186387E-3,9.1748254E-4,2.6003383E-3],"split_indices":[3,3,3,3,3,0,5,0,0,0,0,0,0,0,0],"split_type":[0,0,0,0,0,0,0,0,0,0,0,0,0,0,0],"sum_hessian":[4.1559082E4,5.6661587E3,3.5892926E4,2.0337229E3,3.6324355E3,3.031595E4,5.5769766E3,1.1918435E3,8.418794E2,1.9916189E3,1.6408167E3,2.6259746E4,4.0562014E3,3.8012732E3,1.7757032E3],"tree_param":{"num_deleted":"0","num_feature":"19","num_nodes":"15","size_leaf_vector":"1"}},{"base_weights":[-0E0,7.086618E-1,-1.1175832E-1,1.0540094E0,4.798662E-1,-2.0156555E-1,3.7329814E-1,4.72131E-3,3.3309825E-3,2.5571263E-3,1.5472524E-3,9.74931E-4,-1.0570835E-3,9.466286E-4,2.4237437E-3],"categories":[],"categories_nodes":[],"categories_segments":[],"categories_sizes":[],"default_left":[0,0,0,0,0,0,0,0,0,0,0,0,0,0,0],"id":19,"left_children":[1,3,5,7,9,11,13,-1,-1,-1,-1,-1,-1,-1,-1],"loss_changes":[3.29911E3,4.1825488E2,1.567147E3,9.5625E0,3.5338562E1,8.5032324E2,1.673122E2,0E0,0E0,0E0,0E0,0E0,0E0,0E0,0E0],"parents":[2147483647,0,0,1,1,2,2,3,3,4,4,5,5,6,6],"right_children":[2,4,6,8,10,12,14,-1,-1,-1,-1,-1,-1,-1,-1],"split_conditions":[-4.0532998E-4,-7.4957137E-4,4.0948886E-4,-2.9435786E-3,-5.8492564E-4,-1.6391211E-3,7.962971E-4,4.72131E-3,3.3309825E-3,2.5571263E-3,1.5472524E-3,9.74931E-4,-1.0570835E-3,9.466286E-4,2.4237437E-3],"split_indices":[3,3,3,6,3,6,3,0,0,0,0,0,0,0,0],"split_type":[0,0,0,0,0,0,0,0,0,0,0,0,0,0,0],"sum_hessian":[4.152763E4,5.635655E3,3.5891973E4,2.1769907E3,3.458664E3,3.0315836E4,5.576138E3,1.2567594E3,9.202313E2,1.162483E3,2.2961812E3,3.7149802E3,2.6600855E4,3.581284E3,1.9948541E3],"tree_param":{"num_deleted":"0","num_feature":"19","num_nodes":"15","size_leaf_vector":"1"}},{"base_weights":[-7.251437E-3,-4.9906948E-1,4.345538E-1,-8.5516244E-1,-2.652854E-1,2.6453835E-1,8.164843E-1,-3.9036493E-3,-2.7356807E-3,-1.6739209E-3,-5.339701E-4,2.718689E-3,8.3632354E-4,4.727225E-3,2.9224013E-3],"categories":[],"categories_nodes":[],"categories_segments":[],"categories_sizes":[],"default_left":[0,0,0,0,0,0,0,0,0,0,0,0,0,0,0],"id":20,"left_children":[1,3,5,7,9,11,13,-1,-1,-1,-1,-1,-1,-1,-1],"loss_changes":[9.028821E3,1.6210654E3,1.4051885E3,1.2310205E2,2.3529974E2,3.3876086E2,1.6353564E2,0E0,0E0,0E0,0E0,0E0,0E0,0E0,0E0],"parents":[2147483647,0,0,1,1,2,2,3,3,4,4,5,5,6,6],"right_children":[2,4,6,8,10,12,14,-1,-1,-1,-1,-1,-1,-1,-1],"split_conditions":[-1.2618008E1,-1.3664895E1,-1.1371202E1,-1.4194512E1,-1.3107008E1,-2.3284392E-4,-3.73603E-4,-3.9036493E-3,-2.7356807E-3,-1.6739209E-3,-5.339701E-4,2.718689E-3,8.3632354E-4,4.727225E-3,2.9224013E-3],"split_indices":[13,13,13,13,13,5,5,0,0,0,0,0,0,0,0],"split_type":[0,0,0,0,0,0,0,0,0,0,0,0,0,0,0],"sum_hessian":[4.1470508E4,1.9629006E4,2.1841504E4,7.726346E3,1.190266E4,1.517231E4,6.669194E3,4.398717E3,3.3276294E3,5.4413516E3,6.4613086E3,1.7211313E3,1.3451178E4,1.1578748E3,5.511319E3],"tree_param":{"num_deleted":"0","num_feature":"19","num_nodes":"15","size_leaf_vector":"1"}},{"base_weights":[-2.4700235E-3,7.1396166E-1,-1.1656956E-1,4.4071595E-3,5.3696847E-1,-2.1305545E-1,3.2245168E-1,2.608397E-3,1.5338953E-3,1.7622623E-3,-1.1332328E-3,8.164669E-4,2.4184864E-3],"categories":[],"categories_nodes":[],"categories_segments":[],"categories_sizes":[],"default_left":[0,0,0,0,0,0,0,0,0,0,0,0,0],"id":21,"left_children":[1,3,5,-1,7,9,11,-1,-1,-1,-1,-1,-1],"loss_changes":[3.3941533E3,3.5715356E2,1.5212661E3,0E0,5.405017E1,1.3557886E3,2.0570544E2,0E0,0E0,0E0,0E0,0E0,0E0],"parents":[2147483647,0,0,1,1,2,2,4,4,5,5,6,6],"right_children":[2,4,6,-1,8,10,12,-1,-1,-1,-1,-1,-1],"split_conditions":[-1.7566161E-4,-3.73603E-4,1.5887042E-4,4.4071595E-3,-2.3284392E-4,-4.3042796E-3,3.620981E-4,2.608397E-3,1.5338953E-3,1.7622623E-3,-1.1332328E-3,8.164669E-4,2.4184864E-3],"split_indices":[5,5,5,0,5,2,5,0,0,0,0,0,0],"split_type":[0,0,0,0,0,0,0,0,0,0,0,0,0],"sum_hessian":[4.1488254E4,5.6629976E3,3.5825258E4,1.6975636E3,3.9654338E3,2.9399398E4,6.425859E3,2.1674375E3,1.7979963E3,2.823802E3,2.6575596E4,4.5920425E3,1.8338162E3],"tree_param":{"num_deleted":"0","num_feature":"19","num_nodes":"13","size_leaf_vector":"1"}},{"base_weights":[2.5284034E-3,-5.341681E-1,4.045072E-1,-8.057902E-1,-2.7410632E-1,1.2611656E-1,6.680608E-1,-3.8392467E-3,-2.547086E-3,-1.7319783E-3,-7.4138807E-4,-8.607198E-5,8.991342E-4,2.0645924E-3,3.6939764E-3],"categories":[],"categories_nodes":[],"categories_segments":[],"categories_sizes":[],"default_left":[0,0,0,0,0,0,0,0,0,0,0,0,0,0,0],"id":22,"left_children":[1,3,5,7,9,11,13,-1,-1,-1,-1,-1,-1,-1,-1],"loss_changes":[8.966607E3,1.2410425E3,1.7356741E3,1.9088672E2,1.2199408E2,1.7081021E2,4.4460547E2,0E0,0E0,0E0,0E0,0E0,0E0,0E0,0E0],"parents":[2147483647,0,0,1,1,2,2,3,3,4,4,5,5,6,6],"right_children":[2,4,6,8,10,12,14,-1,-1,-1,-1,-1,-1,-1,-1],"split_conditions":[-1.2831854E1,-1.3548927E1,-1.1942649E1,-1.4297438E1,-1.3355701E1,-1.246888E1,-1.1065921E1,-3.8392467E-3,-2.547086E-3,-1.7319783E-3,-7.4138807E-4,-8.607198E-5,8.991342E-4,2.0645924E-3,3.6939764E-3],"split_indices":[10,13,10,10,10,13,13,0,0,0,0,0,0,0,0],"split_type":[0,0,0,0,0,0,0,0,0,0,0,0,0,0,0],"sum_hessian":[4.1485824E4,1.7753354E4,2.3732473E4,8.630392E3,9.122961E3,1.1582125E4,1.2150348E4,4.39749E3,4.2329014E3,3.1879114E3,5.93505E3,4.625871E3,6.9562534E3,7.7108066E3,4.439541E3],"tree_param":{"num_deleted":"0","num_feature":"19","num_nodes":"15","size_leaf_vector":"1"}},{"base_weights":[-4.226226E-3,5.3176475E-1,-1.0995393E-1,8.716055E-1,3.9776096E-1,-2.3333141E-1,2.9854065E-1,4.223552E-3,2.9050382E-3,1.9761105E-3,1.0113607E-3,1.7480958E-4,-1.1240614E-3,7.6060544E-4,2.2051127E-3],"categories":[],"categories_nodes":[],"categories_segments":[],"categories_sizes":[],"default_left":[0,0,0,0,0,0,0,0,0,0,0,0,0,0,0],"id":23,"left_children":[1,3,5,7,9,11,13,-1,-1,-1,-1,-1,-1,-1,-1],"loss_changes":[2.355442E3,2.8964795E2,1.754533E3,8.332031E0,5.986566E1,3.5521826E2,2.120556E2,0E0,0E0,0E0,0E0,0E0,0E0,0E0,0E0],"parents":[2147483647,0,0,1,1,2,2,3,3,4,4,5,5,6,6],"right_children":[2,4,6,8,10,12,14,-1,-1,-1,-1,-1,-1,-1,-1],"split_conditions":[-2.4031447E-3,-6.3915714E-3,2.2414955E-3,-1.0155E-2,2.6976418E-1,-1.2875209E-3,5.527556E-3,4.223552E-3,2.9050382E-3,1.9761105E-3,1.0113607E-3,1.7480958E-4,-1.1240614E-3,7.6060544E-4,2.2051127E-3],"split_indices":[4,4,4,4,18,4,4,0,0,0,0,0,0,0,0],"split_type":[0,0,0,0,0,0,0,0,0,0,0,0,0,0,0],"sum_hessian":[4.1531953E4,6.8059995E3,3.4725957E4,1.8487612E3,4.9572383E3,2.6696027E4,8.0299277E3,6.849782E2,1.163783E3,2.8937769E3,2.0634614E3,3.900713E3,2.2795314E4,5.686865E3,2.3430625E3],"tree_param":{"num_deleted":"0","num_feature":"19","num_nodes":"15","size_leaf_vector":"1"}},{"base_weights":[5.1344596E-3,-5.3614277E-1,4.0385303E-1,-8.1855386E-1,-2.7996933E-1,1.6676351E-1,6.7916477E-1,-3.977405E-3,-2.7094602E-3,-1.6219398E-3,-7.795772E-4,2.724205E-3,5.1896623E-4,4.580091E-3,2.4294134E-3],"categories":[],"categories_nodes":[],"categories_segments":[],"categories_sizes":[],"default_left":[0,0,0,0,0,0,0,0,0,0,0,0,0,0,0],"id":24,"left_children":[1,3,5,7,9,11,13,-1,-1,-1,-1,-1,-1,-1,-1],"loss_changes":[8.994393E3,1.2622432E3,1.5570032E3,1.7001465E2,9.266766E1,2.380422E2,3.3154443E2,0E0,0E0,0E0,0E0,0E0,0E0,0E0,0E0],"parents":[2147483647,0,0,1,1,2,2,3,3,4,4,5,5,6,6],"right_children":[2,4,6,8,10,12,14,-1,-1,-1,-1,-1,-1,-1,-1],"split_conditions":[-1.2844616E1,-1.3706986E1,-1.1839856E1,-1.4501242E1,-1.3310679E1,-5.8492564E-4,-9.087815E-4,-3.977405E-3,-2.7094602E-3,-1.6219398E-3,-7.795772E-4,2.724205E-3,5.1896623E-4,4.580091E-3,2.4294134E-3],"split_indices":[10,10,10,10,10,3,3,0,0,0,0,0,0,0,0],"split_type":[0,0,0,0,0,0,0,0,0,0,0,0,0,0,0],"sum_hessian":[4.1599816E4,1.7632656E4,2.396716E4,8.332995E3,9.29966E3,1.2924683E4,1.1042477E4,3.5834365E3,4.7495586E3,3.6651794E3,5.6344805E3,8.094108E2,1.2115272E4,1.3829089E3,9.659568E3],"tree_param":{"num_deleted":"0","num_feature":"19","num_nodes":"15","size_leaf_vector":"1"}},{"base_weights":[-6.6029775E-4,-5.4454905E-1,4.0703395E-1,-8.338877E-1,-3.1135848E-1,1.3795467E-1,6.5366757E-1,-3.860206E-3,-2.6310224E-3,-1.5967002E-3,-6.3642254E-4,1.9015948E-3,3.5923743E-4,1.992925E-3,3.4827772E-3],"categories":[],"categories_nodes":[],"categories_segments":[],"categories_sizes":[],"default_left":[0,0,0,0,0,0,0,0,0,0,0,0,0,0,0],"id":25,"left_children":[1,3,5,7,9,11,13,-1,-1,-1,-1,-1,-1,-1,-1],"loss_changes":[9.230797E3,1.1858853E3,1.5696741E3,1.4715576E2,1.26932556E2,1.8044249E2,3.9159277E2,0E0,0E0,0E0,0E0,0E0,0E0,0E0,0E0],"parents":[2147483647,0,0,1,1,2,2,3,3,4,4,5,5,6,6],"right_children":[2,4,6,8,10,12,14,-1,-1,-1,-1,-1,-1,-1,-1],"split_conditions":[-1.2831854E1,-1.3766298E1,-1.1957301E1,-1.4330574E1,-1.3128756E1,-4.345375E-4,-1.1144637E1,-3.860206E-3,-2.6310224E-3,-1.5967002E-3,-6.3642254E-4,1.9015948E-3,3.5923743E-4,1.992925E-3,3.4827772E-3],"split_indices":[10,10,10,10,10,3,10,0,0,0,0,0,0,0,0],"split_type":[0,0,0,0,0,0,0,0,0,0,0,0,0,0,0],"sum_hessian":[4.154485E4,1.7800469E4,2.3744383E4,7.885441E3,9.915027E3,1.1397904E4,1.2346479E4,4.395837E3,3.489604E3,6.219928E3,3.6950989E3,1.3619816E3,1.0035923E4,7.288309E3,5.0581694E3],"tree_param":{"num_deleted":"0","num_feature":"19","num_nodes":"15","size_leaf_vector":"1"}},{"base_weights":[-5.5377715E-4,-5.153491E-1,4.0927604E-1,-8.09742E-1,-2.6072827E-1,1.5010819E-1,6.5325063E-1,-3.994675E-3,-2.6575944E-3,-1.3992448E-3,-5.703727E-4,1.7910679E-3,3.9377593E-4,4.5450004E-3,2.332357E-3],"categories":[],"categories_nodes":[],"categories_segments":[],"categories_sizes":[],"default_left":[0,0,0,0,0,0,0,0,0,0,0,0,0,0,0],"id":26,"left_children":[1,3,5,7,9,11,13,-1,-1,-1,-1,-1,-1,-1,-1],"loss_changes":[8.776587E3,1.3671367E3,1.4547739E3,1.9668799E2,9.9631226E1,1.6832841E2,3.6561523E2,0E0,0E0,0E0,0E0,0E0,0E0,0E0,0E0],"parents":[2147483647,0,0,1,1,2,2,3,3,4,4,5,5,6,6],"right_children":[2,4,6,8,10,12,14,-1,-1,-1,-1,-1,-1,-1,-1],"split_conditions":[-1.2783856E1,-1.3687047E1,-1.1913423E1,-1.4501242E1,-1.3128756E1,-4.0532998E-4,-9.087815E-4,-3.994675E-3,-2.6575944E-3,-1.3992448E-3,-5.703727E-4,1.7910679E-3,3.9377593E-4,4.5450004E-3,2.332357E-3],"split_indices":[10,10,10,10,10,3,3,0,0,0,0,0,0,0,0],"split_type":[0,0,0,0,0,0,0,0,0,0,0,0,0,0,0],"sum_hessian":[4.151619E4,1.8404055E4,2.3112135E4,8.483122E3,9.920934E3,1.125136E4,1.1860774E4,3.5669739E3,4.9161484E3,5.579841E3,4.3410923E3,1.600091E3,9.65127E3,1.415547E3,1.0445228E4],"tree_param":{"num_deleted":"0","num_feature":"19","num_nodes":"15","size_leaf_vector":"1"}},{"base_weights":[-7.4824165E-3,7.060403E-1,-1.21945426E-1,4.3290528E-3,5.3359896E-1,2.985864E-1,-2.2294876E-1,2.7036846E-3,1.7172272E-3,2.2066724E-3,6.3544145E-4,-1.296807E-3,1.287472E-3],"categories":[],"categories_nodes":[],"categories_segments":[],"categories_sizes":[],"default_left":[0,0,0,0,0,0,0,0,0,0,0,0,0],"id":27,"left_children":[1,3,5,-1,7,9,11,-1,-1,-1,-1,-1,-1],"loss_changes":[3.3868557E3,3.3823193E2,1.5220117E3,0E0,4.089038E1,2.3708948E2,1.5977512E3,0E0,0E0,0E0,0E0,0E0,0E0],"parents":[2147483647,0,0,1,1,2,2,4,4,5,5,6,6],"right_children":[2,4,6,-1,8,10,12,-1,-1,-1,-1,-1,-1],"split_conditions":[-1.7566161E-4,-3.73603E-4,-2.1279575E-3,4.3290528E-3,-5.8492564E-4,-4.5828205E-3,3.2118086E-3,2.7036846E-3,1.7172272E-3,2.2066724E-3,6.3544145E-4,-1.296807E-3,1.287472E-3],"split_indices":[5,5,0,0,3,0,1,0,0,0,0,0,0],"split_type":[0,0,0,0,0,0,0,0,0,0,0,0,0],"sum_hessian":[4.1433336E4,5.6914277E3,3.5741906E4,1.7105999E3,3.9808276E3,6.8943545E3,2.8847553E4,1.5644016E3,2.416426E3,2.3939019E3,4.500452E3,2.4350242E4,4.49731E3],"tree_param":{"num_deleted":"0","num_feature":"19","num_nodes":"13","size_leaf_vector":"1"}},{"base_weights":[5.856181E-3,-5.2624965E-1,4.013603E-1,-8.037856E-1,-2.7110106E-1,1.751365E-1,6.9738334E-1,-3.8192982E-3,-2.4825432E-3,-1.5324076E-3,-7.3508604E-4,1.8188544E-4,1.2420085E-3,2.2882319E-3,3.832205E-3],"categories":[],"categories_nodes":[],"categories_segments":[],"categories_sizes":[],"default_left":[0,0,0,0,0,0,0,0,0,0,0,0,0,0,0],"id":28,"left_children":[1,3,5,7,9,11,13,-1,-1,-1,-1,-1,-1,-1,-1],"loss_changes":[8.755557E3,1.2400552E3,1.5882378E3,2.0012451E2,8.457916E1,2.3580292E2,3.0513232E2,0E0,0E0,0E0,0E0,0E0,0E0,0E0,0E0],"parents":[2147483647,0,0,1,1,2,2,3,3,4,4,5,5,6,6],"right_children":[2,4,6,8,10,12,14,-1,-1,-1,-1,-1,-1,-1,-1],"split_conditions":[-1.2831854E1,-1.3687047E1,-1.1761138E1,-1.4297438E1,-1.326578E1,-1.2312348E1,-1.0797306E1,-3.8192982E-3,-2.4825432E-3,-1.5324076E-3,-7.3508604E-4,1.8188544E-4,1.2420085E-3,2.2882319E-3,3.832205E-3],"split_indices":[10,10,10,10,10,10,10,0,0,0,0,0,0,0,0],"split_type":[0,0,0,0,0,0,0,0,0,0,0,0,0,0,0],"sum_hessian":[4.152768E4,1.769347E4,2.3834209E4,8.421529E3,9.271941E3,1.355838E4,1.0275829E4,4.503547E3,3.9179822E3,3.97021E3,5.3017314E3,6.97682E3,6.5815605E3,7.0425786E3,3.2332505E3],"tree_param":{"num_deleted":"0","num_feature":"19","num_nodes":"15","size_leaf_vector":"1"}},{"base_weights":[-4.1900445E-3,6.904598E-1,-1.1532826E-1,9.603206E-1,4.6014985E-1,-2.0004466E-1,3.5196328E-1,4.6158913E-3,3.0192342E-3,2.2084208E-3,1.4379029E-3,2.0889957E-4,-1.0179345E-3,8.4052386E-4,2.2218325E-3],"categories":[],"categories_nodes":[],"categories_segments":[],"categories_sizes":[],"default_left":[0,0,0,0,0,0,0,0,0,0,0,0,0,0,0],"id":29,"left_children":[1,3,5,7,9,11,13,-1,-1,-1,-1,-1,-1,-1,-1],"loss_changes":[3.2085498E3,3.2927344E2,1.4220885E3,5.5790283E1,1.5591614E1,4.1944788E2,1.4934766E2,0E0,0E0,0E0,0E0,0E0,0E0,0E0,0E0],"parents":[2147483647,0,0,1,1,2,2,3,3,4,4,5,5,6,6],"right_children":[2,4,6,8,10,12,14,-1,-1,-1,-1,-1,-1,-1,-1],"split_conditions":[-4.0532998E-4,-6.931622E-4,4.1934568E-4,-1.0259987E-3,-5.1994965E-4,-1.978891E-4,7.622671E-4,4.6158913E-3,3.0192342E-3,2.2084208E-3,1.4379029E-3,2.0889957E-4,-1.0179345E-3,8.4052386E-4,2.2218325E-3],"split_indices":[3,3,3,3,3,3,3,0,0,0,0,0,0,0,0],"split_type":[0,0,0,0,0,0,0,0,0,0,0,0,0,0,0],"sum_hessian":[4.152754E4,5.690856E3,3.5836684E4,2.54905E3,3.1418057E3,3.0367984E4,5.468698E3,1.2010651E3,1.3479851E3,1.5145209E3,1.6272847E3,5.369233E3,2.499875E4,3.2893354E3,2.179363E3],"tree_param":{"num_deleted":"0","num_feature":"19","num_nodes":"15","size_leaf_vector":"1"}},{"base_weights":[4.8220954E-3,5.998875E-1,-9.682422E-2,8.183424E-1,4.320797E-1,2.959992E-1,-2.2866346E-1,4.103962E-3,2.7522338E-3,1.8916684E-3,5.808307E-4,2.3252293E-3,6.77445E-4,2.4677196E-4,-1.1874624E-3],"categories":[],"categories_nodes":[],"categories_segments":[],"categories_sizes":[],"default_left":[0,0,0,0,0,0,0,0,0,0,0,0,0,0,0],"id":30,"left_children":[1,3,5,7,9,11,13,-1,-1,-1,-1,-1,-1,-1,-1],"loss_changes":[2.5231167E3,2.0087646E2,1.8446421E3,3.0498291E1,3.4756714E1,3.1434656E2,5.304043E2,0E0,0E0,0E0,0E0,0E0,0E0,0E0,0E0],"parents":[2147483647,0,0,1,1,2,2,3,3,4,4,5,5,6,6],"right_children":[2,4,6,8,10,12,14,-1,-1,-1,-1,-1,-1,-1,-1],"split_conditions":[-4.4226423E-3,-8.785929E-3,-2.6335453E-3,-1.526842E-2,1.1799036E0,-6.7265914E-3,-1.9906654E-3,4.103962E-3,2.7522338E-3,1.8916684E-3,5.808307E-4,2.3252293E-3,6.77445E-4,2.4677196E-4,-1.1874624E-3],"split_indices":[2,2,1,2,17,1,2,0,0,0,0,0,0,0,0],"split_type":[0,0,0,0,0,0,0,0,0,0,0,0,0,0,0],"sum_hessian":[4.158144E4,6.047222E3,3.553422E4,2.542958E3,3.5042642E3,8.9042705E3,2.662995E4,8.5513776E2,1.6878203E3,3.0250383E3,4.792257E2,2.6773699E3,6.226901E3,5.047933E3,2.1582016E4],"tree_param":{"num_deleted":"0","num_feature":"19","num_nodes":"15","size_leaf_vector":"1"}},{"base_weights":[1.9627067E-3,7.6742244E-1,-7.688147E-2,3.879446E-3,5.9190327E-1,4.78443E-1,-1.5669799E-1,3.2220713E-3,1.7392995E-3,3.1312173E-3,1.456743E-3,8.3322416E-4,-1.104887E-3],"categories":[],"categories_nodes":[],"categories_segments":[],"categories_sizes":[],"default_left":[0,0,0,0,0,0,0,0,0,0,0,0,0],"id":31,"left_children":[1,3,5,-1,7,9,11,-1,-1,-1,-1,-1,-1],"loss_changes":[2.5179995E3,1.0534985E2,1.6742078E3,0E0,5.198358E1,1.4610791E2,1.4445049E3,0E0,0E0,0E0,0E0,0E0,0E0],"parents":[2147483647,0,0,1,1,2,2,4,4,5,5,6,6],"right_children":[2,4,6,-1,8,10,12,-1,-1,-1,-1,-1,-1],"split_conditions":[-2.7787043E-3,-4.4486257E-3,-4.543517E-3,3.879446E-3,-1.9383286E-3,-1.097726E-2,-2.5173381E-3,3.2220713E-3,1.7392995E-3,3.1312173E-3,1.456743E-3,8.3322416E-4,-1.104887E-3],"split_indices":[6,6,2,0,2,2,1,0,0,0,0,0,0],"split_type":[0,0,0,0,0,0,0,0,0,0,0,0,0],"sum_hessian":[4.1568387E4,3.856884E3,3.7711504E4,1.6898256E3,2.1670583E3,4.703768E3,3.3007734E4,8.307698E2,1.3362887E3,1.2044326E3,3.4993354E3,8.121633E3,2.4886102E4],"tree_param":{"num_deleted":"0","num_feature":"19","num_nodes":"13","size_leaf_vector":"1"}},{"base_weights":[-1.8076146E-3,-1.1648184E-1,5.409558E-1,3.318136E-1,-2.3824671E-1,8.603889E-1,3.867924E-1,2.477272E-3,8.6605205E-4,1.4206893E-3,-1.2497223E-3,3.8360737E-3,2.6963006E-3,2.7887668E-3,1.1139148E-3],"categories":[],"categories_nodes":[],"categories_segments":[],"categories_sizes":[],"default_left":[0,0,0,0,0,0,0,0,0,0,0,0,0,0,0],"id":32,"left_children":[1,3,5,7,9,11,13,-1,-1,-1,-1,-1,-1,-1,-1],"loss_changes":[2.5819712E3,1.8745278E3,3.348025E2,2.3220319E2,1.1928988E3,5.9438477E0,1.5283069E2,0E0,0E0,0E0,0E0,0E0,0E0,0E0,0E0],"parents":[2147483647,0,0,1,1,2,2,3,3,4,4,5,5,6,6],"right_children":[2,4,6,8,10,12,14,-1,-1,-1,-1,-1,-1,-1,-1],"split_conditions":[2.0287968E-3,-2.1279575E-3,-1.4429021E-3,-5.1590307E-3,-1.8722551E-3,-2.8657706E-3,-9.525862E-3,2.477272E-3,8.6605205E-4,1.4206893E-3,-1.2497223E-3,3.8360737E-3,2.6963006E-3,2.7887668E-3,1.1139148E-3],"split_indices":[0,0,6,0,6,6,2,0,0,0,0,0,0,0,0],"split_type":[0,0,0,0,0,0,0,0,0,0,0,0,0,0,0],"sum_hessian":[4.1447297E4,3.4253633E4,7.193664E3,7.2904336E3,2.69632E4,2.2682825E3,4.925382E3,2.0206569E3,5.269777E3,2.9695718E3,2.3993627E4,1.3518624E3,9.1642017E2,1.2023304E3,3.7230513E3],"tree_param":{"num_deleted":"0","num_feature":"19","num_nodes":"15","size_leaf_vector":"1"}},{"base_weights":[-5.361826E-3,-6.0086286E-1,3.350005E-1,-8.9802504E-1,-3.8927984E-1,9.024584E-2,6.147885E-1,-4.0808767E-3,-3.1025335E-3,-2.0150063E-3,-1.0484005E-3,-1.238206E-4,8.959694E-4,3.8592878E-3,2.057256E-3],"categories":[],"categories_nodes":[],"categories_segments":[],"categories_sizes":[],"default_left":[0,0,0,0,0,0,0,0,0,0,0,0,0,0,0],"id":33,"left_children":[1,3,5,7,9,11,13,-1,-1,-1,-1,-1,-1,-1,-1],"loss_changes":[8.432712E3,9.292461E2,1.8052764E3,5.0162598E1,1.1965747E2,2.3129175E2,4.0410156E2,0E0,0E0,0E0,0E0,0E0,0E0,0E0,0E0],"parents":[2147483647,0,0,1,1,2,2,3,3,4,4,5,5,6,6],"right_children":[2,4,6,8,10,12,14,-1,-1,-1,-1,-1,-1,-1,-1],"split_conditions":[-1.2937583E1,-1.3859569E1,-1.1899107E1,-1.4522113E1,-1.3310665E1,-1.2400201E1,-2.4749807E-4,-4.0808767E-3,-3.1025335E-3,-2.0150063E-3,-1.0484005E-3,-1.238206E-4,8.959694E-4,3.8592878E-3,2.057256E-3],"split_indices":[13,13,13,13,13,13,5,0,0,0,0,0,0,0,0],"split_type":[0,0,0,0,0,0,0,0,0,0,0,0,0,0,0],"sum_hessian":[4.151653E4,1.5094878E4,2.6421654E4,6.2110903E3,8.883787E3,1.4133765E4,1.2287889E4,2.9346462E3,3.276444E3,4.5862544E3,4.2975327E3,7.4052627E3,6.728502E3,2.6493328E3,9.638557E3],"tree_param":{"num_deleted":"0","num_feature":"19","num_nodes":"15","size_leaf_vector":"1"}},{"base_weights":[-3.7736115E-3,-5.457331E-1,3.7227985E-1,-8.5241E-1,-3.036965E-1,1.9870876E-1,7.1976626E-1,-3.8993387E-3,-2.7417452E-3,-1.8663161E-3,-8.5264654E-4,7.2068266E-5,1.2856025E-3,3.9076456E-3,2.4136861E-3],"categories":[],"categories_nodes":[],"categories_segments":[],"categories_sizes":[],"default_left":[0,0,0,0,0,0,0,0,0,0,0,0,0,0,0],"id":34,"left_children":[1,3,5,7,9,11,13,-1,-1,-1,-1,-1,-1,-1,-1],"loss_changes":[8.468081E3,1.245852E3,1.4671543E3,1.1529785E2,1.3301306E2,3.6156842E2,2.0967627E2,0E0,0E0,0E0,0E0,0E0,0E0,0E0,0E0],"parents":[2147483647,0,0,1,1,2,2,3,3,4,4,5,5,6,6],"right_children":[2,4,6,8,10,12,14,-1,-1,-1,-1,-1,-1,-1,-1],"split_conditions":[-1.279673E1,-1.36865835E1,-1.1518326E1,-1.4227294E1,-1.3310665E1,-1.2319907E1,-4.2419194E-4,-3.8993387E-3,-2.7417452E-3,-1.8663161E-3,-8.5264654E-4,7.2068266E-5,1.2856025E-3,3.9076456E-3,2.4136861E-3],"split_indices":[13,13,13,13,13,13,3,0,0,0,0,0,0,0,0],"split_type":[0,0,0,0,0,0,0,0,0,0,0,0,0,0,0],"sum_hessian":[4.1464355E4,1.6985086E4,2.4479271E4,7.4357515E3,9.549334E3,1.637931E4,8.099963E3,4.156074E3,3.2796775E3,3.326552E3,6.2227817E3,6.6639614E3,9.715348E3,2.4136287E3,5.686334E3],"tree_param":{"num_deleted":"0","num_feature":"19","num_nodes":"15","size_leaf_vector":"1"}},{"base_weights":[4.7440422E-4,-1.1155583E-1,5.3166807E-1,3.4311065E-1,-2.3477098E-1,3.9770103E-1,7.8702486E-1,2.6508465E-3,9.6937135E-4,8.299568E-4,-1.1733326E-3,1.0872348E-3,1.961665E-3,3.61445E-3,2.2378648E-3],"categories":[],"categories_nodes":[],"categories_segments":[],"categories_sizes":[],"default_left":[0,0,0,0,0,0,0,0,0,0,0,0,0,0,0],"id":35,"left_children":[1,3,5,7,9,11,13,-1,-1,-1,-1,-1,-1,-1,-1],"loss_changes":[2.482064E3,1.9294601E3,2.2836108E2,2.2404706E2,7.04806E2,4.6482483E1,3.507837E1,0E0,0E0,0E0,0E0,0E0,0E0,0E0,0E0],"parents":[2147483647,0,0,1,1,2,2,3,3,4,4,5,5,6,6],"right_children":[2,4,6,8,10,12,14,-1,-1,-1,-1,-1,-1,-1,-1],"split_conditions":[2.0287968E-3,-2.1279575E-3,4.7016637E-3,-5.652713E-3,-2.8479688E-3,2.8207328E-3,2.4846332E-1,2.6508465E-3,9.6937135E-4,8.299568E-4,-1.1733326E-3,1.0872348E-3,1.961665E-3,3.61445E-3,2.2378648E-3],"split_indices":[0,0,0,0,2,0,18,0,0,0,0,0,0,0,0],"split_type":[0,0,0,0,0,0,0,0,0,0,0,0,0,0,0],"sum_hessian":[4.158277E4,3.4356293E4,7.2264756E3,7.298934E3,2.705736E4,4.8236245E3,2.402851E3,1.6807147E3,5.618219E3,3.1389968E3,2.3918361E4,2.142214E3,2.6814104E3,1.4913641E3,9.11487E2],"tree_param":{"num_deleted":"0","num_feature":"19","num_nodes":"15","size_leaf_vector":"1"}},{"base_weights":[8.4684085E-4,6.8240327E-1,-1.0871337E-1,8.7336E-1,3.8939074E-1,3.896813E-1,-1.9321719E-1,4.331078E-3,2.9468972E-3,2.803456E-3,1.0412053E-3,2.578773E-3,9.877932E-4,-1.2096305E-3,6.772641E-4],"categories":[],"categories_nodes":[],"categories_segments":[],"categories_sizes":[],"default_left":[0,0,0,0,0,0,0,0,0,0,0,0,0,0,0],"id":36,"left_children":[1,3,5,7,9,11,13,-1,-1,-1,-1,-1,-1,-1,-1],"loss_changes":[3.1080674E3,3.0079028E2,1.5098308E3,5.483911E1,8.1366394E1,1.7686316E2,1.2163837E3,0E0,0E0,0E0,0E0,0E0,0E0,0E0,0E0],"parents":[2147483647,0,0,1,1,2,2,3,3,4,4,5,5,6,6],"right_children":[2,4,6,8,10,12,14,-1,-1,-1,-1,-1,-1,-1,-1],"split_conditions":[-4.0532998E-4,-5.8492564E-4,-2.5290763E-3,-1.0259987E-3,-1.0942837E-3,-5.582725E-3,1.967575E-3,4.331078E-3,2.9468972E-3,2.803456E-3,1.0412053E-3,2.578773E-3,9.877932E-4,-1.2096305E-3,6.772641E-4],"split_indices":[3,3,4,3,4,4,4,0,0,0,0,0,0,0,0],"split_type":[0,0,0,0,0,0,0,0,0,0,0,0,0,0,0],"sum_hessian":[4.1493547E4,5.725613E3,3.5767934E4,3.405098E3,2.3205151E3,5.153247E3,3.0614686E4,1.2163517E3,2.1887463E3,6.132681E2,1.707247E3,1.7824491E3,3.3707979E3,2.3547146E4,7.0675396E3],"tree_param":{"num_deleted":"0","num_feature":"19","num_nodes":"15","size_leaf_vector":"1"}},{"base_weights":[1.2158775E-3,-5.329602E-1,3.8862377E-1,-8.7299615E-1,-3.2884124E-1,1.8472722E-1,6.900274E-1,-3.9184857E-3,-2.874264E-3,-1.8086145E-3,-7.680107E-4,2.1302935E-3,5.3679914E-4,2.302393E-3,3.6837014E-3],"categories":[],"categories_nodes":[],"categories_segments":[],"categories_sizes":[],"default_left":[0,0,0,0,0,0,0,0,0,0,0,0,0,0,0],"id":37,"left_children":[1,3,5,7,9,11,13,-1,-1,-1,-1,-1,-1,-1,-1],"loss_changes":[8.597694E3,1.19254E3,1.4697212E3,6.8052246E1,1.7772449E2,2.4655368E2,2.251875E2,0E0,0E0,0E0,0E0,0E0,0E0,0E0,0E0],"parents":[2147483647,0,0,1,1,2,2,3,3,4,4,5,5,6,6],"right_children":[2,4,6,8,10,12,14,-1,-1,-1,-1,-1,-1,-1,-1],"split_conditions":[-1.2844616E1,-1.3944066E1,-1.1698113E1,-1.4467172E1,-1.3280779E1,-1.932972E-4,-1.0755727E1,-3.9184857E-3,-2.874264E-3,-1.8086145E-3,-7.680107E-4,2.1302935E-3,5.3679914E-4,2.302393E-3,3.6837014E-3],"split_indices":[10,10,10,10,10,5,10,0,0,0,0,0,0,0,0],"split_type":[0,0,0,0,0,0,0,0,0,0,0,0,0,0,0],"sum_hessian":[4.1470484E4,1.741965E4,2.4050834E4,6.4732036E3,1.0946447E4,1.4397292E4,9.653542E3,3.6779563E3,2.7952476E3,5.6843296E3,5.2621177E3,1.7613529E3,1.2635939E4,6.566941E3,3.0866013E3],"tree_param":{"num_deleted":"0","num_feature":"19","num_nodes":"15","size_leaf_vector":"1"}},{"base_weights":[1.9387089E-4,-5.3473765E-1,3.6865082E-1,-8.409708E-1,-3.0291128E-1,1.5795979E-1,6.6397893E-1,-3.847502E-3,-2.612038E-3,-1.7941421E-3,-8.692939E-4,8.104644E-5,1.0983133E-3,2.076166E-3,3.4771005E-3],"categories":[],"categories_nodes":[],"categories_segments":[],"categories_sizes":[],"default_left":[0,0,0,0,0,0,0,0,0,0,0,0,0,0,0],"id":38,"left_children":[1,3,5,7,9,11,13,-1,-1,-1,-1,-1,-1,-1,-1],"loss_changes":[8.203209E3,1.1871318E3,1.5245747E3,1.2975342E2,1.1308197E2,2.2997809E2,2.776289E2,0E0,0E0,0E0,0E0,0E0,0E0,0E0,0E0],"parents":[2147483647,0,0,1,1,2,2,3,3,4,4,5,5,6,6],"right_children":[2,4,6,8,10,12,14,-1,-1,-1,-1,-1,-1,-1,-1],"split_conditions":[-1.279673E1,-1.3707008E1,-1.1714632E1,-1.4194512E1,-1.3310665E1,-1.2319907E1,-1.0979466E1,-3.847502E-3,-2.612038E-3,-1.7941421E-3,-8.692939E-4,8.104644E-5,1.0983133E-3,2.076166E-3,3.4771005E-3],"split_indices":[13,13,13,13,13,13,13,0,0,0,0,0,0,0,0],"split_type":[0,0,0,0,0,0,0,0,0,0,0,0,0,0,0],"sum_hessian":[4.154516E4,1.6930094E4,2.4615066E4,7.2370737E3,9.6930205E3,1.4414775E4,1.020029E4,4.2828726E3,2.954201E3,3.497165E3,6.1958555E3,6.6570737E3,7.7577017E3,6.0803813E3,4.119909E3],"tree_param":{"num_deleted":"0","num_feature":"19","num_nodes":"15","size_leaf_vector":"1"}},{"base_weights":[7.4518786E-4,6.6543156E-1,-1.0764822E-1,4.2803623E-3,5.2393025E-1,3.8169104E-1,-1.8561375E-1,2.6942862E-3,1.6013338E-3,2.824613E-3,1.03652E-3,-1.2460592E-3,5.9948594E-4],"categories":[],"categories_nodes":[],"categories_segments":[],"categories_sizes":[],"default_left":[0,0,0,0,0,0,0,0,0,0,0,0,0],"id":39,"left_children":[1,3,5,-1,7,9,11,-1,-1,-1,-1,-1,-1],"loss_changes":[3.002983E3,3.01917E2,1.366817E3,0E0,6.4004395E1,1.8204218E2,1.3083004E3,0E0,0E0,0E0,0E0,0E0,0E0],"parents":[2147483647,0,0,1,1,2,2,4,4,5,5,6,6],"right_children":[2,4,6,-1,8,10,12,-1,-1,-1,-1,-1,-1],"split_conditions":[-1.7566161E-4,-4.1548678E-4,-2.5290763E-3,4.2803623E-3,-2.6330026E-4,-6.3915714E-3,1.6838154E-3,2.6942862E-3,1.6013338E-3,2.824613E-3,1.03652E-3,-1.2460592E-3,5.9948594E-4],"split_indices":[5,5,4,0,5,4,4,0,0,0,0,0,0],"split_type":[0,0,0,0,0,0,0,0,0,0,0,0,0],"sum_hessian":[4.1550438E4,5.805367E3,3.574507E4,1.424167E3,4.3812E3,4.879625E3,3.0865445E4,1.8774963E3,2.5037039E3,1.2710931E3,3.6085317E3,2.2459186E4,8.40626E3],"tree_param":{"num_deleted":"0","num_feature":"19","num_nodes":"13","size_leaf_vector":"1"}},{"base_weights":[-7.2578056E-4,6.783774E-1,-1.0831083E-1,3.9274255E-3,5.304578E-1,3.3333674E-1,-2.042915E-1,2.7191772E-3,1.6762863E-3,2.6290545E-3,8.6056563E-4,-1.1584878E-3,1.3602506E-3],"categories":[],"categories_nodes":[],"categories_segments":[],"categories_sizes":[],"default_left":[0,0,0,0,0,0,0,0,0,0,0,0,0],"id":40,"left_children":[1,3,5,-1,7,9,11,-1,-1,-1,-1,-1,-1],"loss_changes":[3.0304224E3,2.2391284E2,1.5218591E3,0E0,4.6569336E1,2.338822E2,1.3735447E3,0E0,0E0,0E0,0E0,0E0,0E0],"parents":[2147483647,0,0,1,1,2,2,4,4,5,5,6,6],"right_children":[2,4,6,-1,8,10,12,-1,-1,-1,-1,-1,-1],"split_conditions":[-1.7971252E-4,-3.73603E-4,-2.3278682E-3,3.9274255E-3,-1.9128084E-3,-5.652713E-3,3.6505526E-3,2.7191772E-3,1.6762863E-3,2.6290545E-3,8.6056563E-4,-1.1584878E-3,1.3602506E-3],"split_indices":[5,5,0,0,6,0,1,0,0,0,0,0,0],"split_type":[0,0,0,0,0,0,0,0,0,0,0,0,0],"sum_hessian":[4.144827E4,5.6310522E3,3.5817215E4,1.7569523E3,3.8740999E3,6.3645576E3,2.9452658E4,1.5429612E3,2.3311387E3,1.6380049E3,4.7265527E3,2.5487947E4,3.9647126E3],"tree_param":{"num_deleted":"0","num_feature":"19","num_nodes":"13","size_leaf_vector":"1"}},{"base_weights":[3.7681442E-3,-4.733903E-1,4.2577818E-1,-8.438749E-1,-2.5176612E-1,2.76783E-1,7.765504E-1,-3.918451E-3,-2.7729655E-3,-1.5891416E-3,-4.919066E-4,2.234681E-3,8.656539E-4,2.516566E-3,3.7007034E-3],"categories":[],"categories_nodes":[],"categories_segments":[],"categories_sizes":[],"default_left":[0,0,0,0,0,0,0,0,0,0,0,0,0,0,0],"id":41,"left_children":[1,3,5,7,9,11,13,-1,-1,-1,-1,-1,-1,-1,-1],"loss_changes":[8.365688E3,1.5848359E3,1.1371868E3,1.1056445E2,2.2451172E2,2.5482129E2,1.09893555E2,0E0,0E0,0E0,0E0,0E0,0E0,0E0,0E0],"parents":[2147483647,0,0,1,1,2,2,3,3,4,4,5,5,6,6],"right_children":[2,4,6,8,10,12,14,-1,-1,-1,-1,-1,-1,-1,-1],"split_conditions":[-1.2605982E1,-1.3707008E1,-1.1331818E1,-1.4335673E1,-1.3107008E1,-1.8401818E-4,-1.0765306E1,-3.918451E-3,-2.7729655E-3,-1.5891416E-3,-4.919066E-4,2.234681E-3,8.656539E-4,2.516566E-3,3.7007034E-3],"split_indices":[13,13,13,13,13,5,13,0,0,0,0,0,0,0,0],"split_type":[0,0,0,0,0,0,0,0,0,0,0,0,0,0,0],"sum_hessian":[4.146626E4,1.9451998E4,2.2014264E4,7.227799E3,1.2224199E4,1.5514406E4,6.4998574E3,3.6633896E3,3.5644094E3,5.676481E3,6.547718E3,2.6593054E3,1.2855101E4,3.3903318E3,3.109526E3],"tree_param":{"num_deleted":"0","num_feature":"19","num_nodes":"15","size_leaf_vector":"1"}},{"base_weights":[-3.4482105E-4,-4.9108896E-1,4.0040666E-1,-7.971071E-1,-2.4268411E-1,2.3786776E-1,7.505466E-1,-3.7966822E-3,-2.5076126E-3,-1.6292405E-3,-5.721003E-4,1.8455404E-4,1.3789684E-3,2.535387E-3,3.762536E-3],"categories":[],"categories_nodes":[],"categories_segments":[],"categories_sizes":[],"default_left":[0,0,0,0,0,0,0,0,0,0,0,0,0,0,0],"id":42,"left_children":[1,3,5,7,9,11,13,-1,-1,-1,-1,-1,-1,-1,-1],"loss_changes":[8.184195E3,1.4079844E3,1.2896348E3,1.8219385E2,1.6468579E2,3.187401E2,1.2626929E2,0E0,0E0,0E0,0E0,0E0,0E0,0E0,0E0],"parents":[2147483647,0,0,1,1,2,2,3,3,4,4,5,5,6,6],"right_children":[2,4,6,8,10,12,14,-1,-1,-1,-1,-1,-1,-1,-1],"split_conditions":[-1.2747988E1,-1.3569062E1,-1.1408732E1,-1.4194512E1,-1.3295562E1,-1.2308083E1,-1.0632054E1,-3.7966822E-3,-2.5076126E-3,-1.6292405E-3,-5.721003E-4,1.8455404E-4,1.3789684E-3,2.535387E-3,3.762536E-3],"split_indices":[10,13,13,13,10,13,13,0,0,0,0,0,0,0,0],"split_type":[0,0,0,0,0,0,0,0,0,0,0,0,0,0,0],"sum_hessian":[4.15316E4,1.867282E4,2.2858781E4,8.314898E3,1.0357922E4,1.5670224E4,7.1885576E3,4.274619E3,4.0402795E3,3.8347026E3,6.5232197E3,5.650853E3,1.0019371E4,4.582692E3,2.605866E3],"tree_param":{"num_deleted":"0","num_feature":"19","num_nodes":"15","size_leaf_vector":"1"}},{"base_weights":[-0E0,-5.3651947E-1,3.5948595E-1,-8.5431236E-1,-3.348843E-1,1.0662099E-1,6.047332E-1,-3.8958075E-3,-2.7905062E-3,-1.943361E-3,-9.0530614E-4,1.5512047E-3,2.4568485E-4,3.7063358E-3,2.0640942E-3],"categories":[],"categories_nodes":[],"categories_segments":[],"categories_sizes":[],"default_left":[0,0,0,0,0,0,0,0,0,0,0,0,0,0,0],"id":43,"left_children":[1,3,5,7,9,11,13,-1,-1,-1,-1,-1,-1,-1,-1],"loss_changes":[8.001747E3,1.0472051E3,1.5338438E3,8.2339355E1,1.5910767E2,1.5240697E2,3.3105273E2,0E0,0E0,0E0,0E0,0E0,0E0,0E0,0E0],"parents":[2147483647,0,0,1,1,2,2,3,3,4,4,5,5,6,6],"right_children":[2,4,6,8,10,12,14,-1,-1,-1,-1,-1,-1,-1,-1],"split_conditions":[-1.2895127E1,-1.3944066E1,-1.1957301E1,-1.4501242E1,-1.3419126E1,-4.0532998E-4,-6.0331775E-4,-3.8958075E-3,-2.7905062E-3,-1.943361E-3,-9.0530614E-4,1.5512047E-3,2.4568485E-4,3.7063358E-3,2.0640942E-3],"split_indices":[10,10,10,10,10,3,3,0,0,0,0,0,0,0,0],"split_type":[0,0,0,0,0,0,0,0,0,0,0,0,0,0,0],"sum_hessian":[4.1411637E4,1.6601832E4,2.4809803E4,6.3818384E3,1.0219994E4,1.2256499E4,1.2553305E4,3.4768916E3,2.9049468E3,4.1919497E3,6.0280444E3,1.6354772E3,1.0621021E4,2.6149277E3,9.938377E3],"tree_param":{"num_deleted":"0","num_feature":"19","num_nodes":"15","size_leaf_vector":"1"}},{"base_weights":[-4.4814334E-3,-5.2767545E-1,3.7091774E-1,-8.2807726E-1,-2.9418746E-1,1.7006007E-1,6.7358476E-1,-3.9444347E-3,-2.709535E-3,-1.9053011E-3,-8.900814E-4,-6.439537E-5,1.1276656E-3,2.1935452E-3,3.6299292E-3],"categories":[],"categories_nodes":[],"categories_segments":[],"categories_sizes":[],"default_left":[0,0,0,0,0,0,0,0,0,0,0,0,0,0,0],"id":44,"left_children":[1,3,5,7,9,11,13,-1,-1,-1,-1,-1,-1,-1,-1],"loss_changes":[8.1611665E3,1.2008755E3,1.4601138E3,1.424961E2,1.1971893E2,3.0598743E2,2.5235107E2,0E0,0E0,0E0,0E0,0E0,0E0,0E0,0E0],"parents":[2147483647,0,0,1,1,2,2,3,3,4,4,5,5,6,6],"right_children":[2,4,6,8,10,12,14,-1,-1,-1,-1,-1,-1,-1,-1],"split_conditions":[-1.2844616E1,-1.3664895E1,-1.1681388E1,-1.4467172E1,-1.3502151E1,-1.2411255E1,-1.0802004E1,-3.9444347E-3,-2.709535E-3,-1.9053011E-3,-8.900814E-4,-6.439537E-5,1.1276656E-3,2.1935452E-3,3.6299292E-3],"split_indices":[10,13,10,10,10,13,13,0,0,0,0,0,0,0,0],"split_type":[0,0,0,0,0,0,0,0,0,0,0,0,0,0,0],"sum_hessian":[4.146736E4,1.7323992E4,2.4143367E4,7.5196426E3,9.80435E3,1.456296E4,9.580406E3,3.5411619E3,3.9784805E3,2.6790784E3,7.125271E3,5.457068E3,9.105893E3,6.345447E3,3.2349595E3],"tree_param":{"num_deleted":"0","num_feature":"19","num_nodes":"15","size_leaf_vector":"1"}},{"base_weights":[-1.9298695E-3,6.5655524E-1,-1.0912203E-1,8.953904E-1,4.2403254E-1,4.0195635E-1,-1.8576796E-1,4.2655477E-3,2.9275694E-3,2.6845497E-3,1.1905691E-3,1.0908836E-3,2.4697524E-3,-1.136724E-3,9.938421E-4],"categories":[],"categories_nodes":[],"categories_segments":[],"categories_sizes":[],"default_left":[0,0,0,0,0,0,0,0,0,0,0,0,0,0,0],"id":45,"left_children":[1,3,5,7,9,11,13,-1,-1,-1,-1,-1,-1,-1,-1],"loss_changes":[2.9365579E3,2.996106E2,1.4051312E3,3.6007812E1,8.066388E1,1.1764691E2,1.3361818E3,0E0,0E0,0E0,0E0,0E0,0E0,0E0,0E0],"parents":[2147483647,0,0,1,1,2,2,3,3,4,4,5,5,6,6],"right_children":[2,4,6,8,10,12,14,-1,-1,-1,-1,-1,-1,-1,-1],"split_conditions":[-4.0532998E-4,-6.686964E-4,-4.3042796E-3,-1.0259987E-3,-2.0448945E-3,7.176666E-3,1.4509716E-4,4.2655477E-3,2.9275694E-3,2.6845497E-3,1.1905691E-3,1.0908836E-3,2.4697524E-3,-1.136724E-3,9.938421E-4],"split_indices":[3,3,2,3,2,1,5,0,0,0,0,0,0,0,0],"split_type":[0,0,0,0,0,0,0,0,0,0,0,0,0,0,0],"sum_hessian":[4.1573277E4,5.782926E3,3.579035E4,2.7826987E3,3.000227E3,4.6342695E3,3.1156084E4,1.2327561E3,1.5499427E3,9.395293E2,2.0606978E3,2.972374E3,1.6618954E3,2.542303E4,5.733054E3],"tree_param":{"num_deleted":"0","num_feature":"19","num_nodes":"15","size_leaf_vector":"1"}},{"base_weights":[4.1660285E-3,5.738082E-1,-9.352916E-2,8.1431746E-1,3.6609235E-1,-1.6990408E-1,4.019666E-1,4.0676775E-3,2.7898569E-3,1.1167765E-3,2.8886227E-3,7.815006E-4,-1.1636168E-3,1.0549485E-3,2.4582623E-3],"categories":[],"categories_nodes":[],"categories_segments":[],"categories_sizes":[],"default_left":[0,0,0,0,0,0,0,0,0,0,0,0,0,0,0],"id":46,"left_children":[1,3,5,7,9,11,13,-1,-1,-1,-1,-1,-1,-1,-1],"loss_changes":[2.3155981E3,2.8478748E2,1.3432097E3,2.6215698E1,8.9280396E1,1.3626721E3,1.2700134E2,0E0,0E0,0E0,0E0,0E0,0E0,0E0,0E0],"parents":[2147483647,0,0,1,1,2,2,3,3,4,4,5,5,6,6],"right_children":[2,4,6,8,10,12,14,-1,-1,-1,-1,-1,-1,-1,-1],"split_conditions":[-2.0026013E-3,-3.4472886E-3,3.5530804E-3,-6.167428E-3,3.9576166E-3,-2.4610846E-3,6.89914E-3,4.0676775E-3,2.7898569E-3,1.1167765E-3,2.8886227E-3,7.815006E-4,-1.1636168E-3,1.0549485E-3,2.4582623E-3],"split_indices":[6,6,1,6,1,1,1,0,0,0,0,0,0,0,0],"split_type":[0,0,0,0,0,0,0,0,0,0,0,0,0,0,0],"sum_hessian":[4.1474383E4,6.052865E3,3.542152E4,2.736375E3,3.3164902E3,3.0725016E4,4.6965024E3,8.678897E2,1.8684854E3,2.7379146E3,5.785759E2,7.6257725E3,2.3099244E4,2.9188767E3,1.7776259E3],"tree_param":{"num_deleted":"0","num_feature":"19","num_nodes":"15","size_leaf_vector":"1"}},{"base_weights":[1.1956109E-3,-4.7034338E-1,4.0161407E-1,-8.183306E-1,-2.4369755E-1,2.1790087E-1,6.768224E-1,-3.877761E-3,-2.6627718E-3,-1.5306053E-3,-5.149704E-4,2.370257E-3,7.0043554E-4,4.022337E-3,2.4019708E-3],"categories":[],"categories_nodes":[],"categories_segments":[],"categories_sizes":[],"default_left":[0,0,0,0,0,0,0,0,0,0,0,0,0,0,0],"id":47,"left_children":[1,3,5,7,9,11,13,-1,-1,-1,-1,-1,-1,-1,-1],"loss_changes":[7.847403E3,1.4899248E3,1.1250903E3,1.3647803E2,1.8035693E2,2.0821027E2,1.904458E2,0E0,0E0,0E0,0E0,0E0,0E0,0E0,0E0],"parents":[2147483647,0,0,1,1,2,2,3,3,4,4,5,5,6,6],"right_children":[2,4,6,8,10,12,14,-1,-1,-1,-1,-1,-1,-1,-1],"split_conditions":[-1.2629228E1,-1.3664895E1,-1.1588931E1,-1.4335673E1,-1.3121028E1,-2.4023053E-4,-3.406653E-4,-3.877761E-3,-2.6627718E-3,-1.5306053E-3,-5.149704E-4,2.370257E-3,7.0043554E-4,4.022337E-3,2.4019708E-3],"split_indices":[13,13,13,13,13,5,5,0,0,0,0,0,0,0,0],"split_type":[0,0,0,0,0,0,0,0,0,0,0,0,0,0,0],"sum_hessian":[4.148414E4,1.9039596E4,2.2444543E4,7.457069E3,1.1582527E4,1.3516799E4,8.927744E3,3.6183274E3,3.8387412E3,5.176117E3,6.4064106E3,1.3173142E3,1.2199484E4,1.574415E3,7.3533296E3],"tree_param":{"num_deleted":"0","num_feature":"19","num_nodes":"15","size_leaf_vector":"1"}},{"base_weights":[-1.2216278E-3,6.3395613E-1,-1.0581157E-1,8.693594E-1,4.0474394E-1,3.4292462E-1,-1.9798973E-1,4.136929E-3,2.8472242E-3,3.0251963E-3,1.2505045E-3,2.6031523E-3,9.6545526E-4,9.862029E-4,-1.2543427E-3],"categories":[],"categories_nodes":[],"categories_segments":[],"categories_sizes":[],"default_left":[0,0,0,0,0,0,0,0,0,0,0,0,0,0,0],"id":48,"left_children":[1,3,5,7,9,11,13,-1,-1,-1,-1,-1,-1,-1,-1],"loss_changes":[2.7622302E3,2.9475415E2,1.4806606E3,3.325049E1,8.290231E1,1.7850214E2,1.5296149E3,0E0,0E0,0E0,0E0,0E0,0E0,0E0,0E0],"parents":[2147483647,0,0,1,1,2,2,3,3,4,4,5,5,6,6],"right_children":[2,4,6,8,10,12,14,-1,-1,-1,-1,-1,-1,-1,-1],"split_conditions":[-4.0532998E-4,-6.686964E-4,-2.1668037E-3,-1.0259987E-3,-2.2277394E-3,-6.3915714E-3,-2.1279575E-3,4.136929E-3,2.8472242E-3,3.0251963E-3,1.2505045E-3,2.6031523E-3,9.6545526E-4,9.862029E-4,-1.2543427E-3],"split_indices":[3,3,4,3,4,4,0,0,0,0,0,0,0,0,0],"split_type":[0,0,0,0,0,0,0,0,0,0,0,0,0,0,0],"sum_hessian":[4.1550344E4,5.837067E3,3.5713277E4,2.8105415E3,3.0265256E3,6.055403E3,2.9657875E4,1.2444502E3,1.5660912E3,5.538534E2,2.472672E3,1.4325547E3,4.622848E3,6.0995713E3,2.3558305E4],"tree_param":{"num_deleted":"0","num_feature":"19","num_nodes":"15","size_leaf_vector":"1"}},{"base_weights":[-2.0423564E-3,-4.795567E-1,3.908191E-1,-8.512456E-1,-2.7099246E-1,2.1829426E-1,6.7946815E-1,-3.8326273E-3,-2.6646017E-3,-1.6869962E-3,-6.2098727E-4,7.568867E-5,1.2250164E-3,2.202463E-3,3.5129027E-3],"categories":[],"categories_nodes":[],"categories_segments":[],"categories_sizes":[],"default_left":[0,0,0,0,0,0,0,0,0,0,0,0,0,0,0],"id":49,"left_children":[1,3,5,7,9,11,13,-1,-1,-1,-1,-1,-1,-1,-1],"loss_changes":[7.7858057E3,1.4361548E3,1.1216931E3,9.660742E1,2.0430591E2,2.4876196E2,1.885896E2,0E0,0E0,0E0,0E0,0E0,0E0,0E0,0E0],"parents":[2147483647,0,0,1,1,2,2,3,3,4,4,5,5,6,6],"right_children":[2,4,6,8,10,12,14,-1,-1,-1,-1,-1,-1,-1,-1],"split_conditions":[-1.2735898E1,-1.3770775E1,-1.1560531E1,-1.4297438E1,-1.3295562E1,-1.2400201E1,-1.0802004E1,-3.8326273E-3,-2.6646017E-3,-1.6869962E-3,-6.2098727E-4,7.568867E-5,1.2250164E-3,2.202463E-3,3.5129027E-3],"split_indices":[10,13,10,10,10,13,13,0,0,0,0,0,0,0,0],"split_type":[0,0,0,0,0,0,0,0,0,0,0,0,0,0,0],"sum_hessian":[4.141979E4,1.869913E4,2.2720658E4,6.665648E3,1.2033483E4,1.4278938E4,8.44172E3,4.097024E3,2.5686238E3,5.155991E3,6.8774917E3,4.408658E3,9.87028E3,5.2328394E3,3.2088806E3],"tree_param":{"num_deleted":"0","num_feature":"19","num_nodes":"15","size_leaf_vector":"1"}},{"base_weights":[-1.3874591E-3,-5.7519823E-1,3.1768104E-1,-8.6635333E-1,-3.6317733E-1,8.3560616E-2,5.8272713E-1,-3.8714462E-3,-2.899314E-3,-1.9157984E-3,-1.0260786E-3,-1.0618026E-4,8.883715E-4,1.8114423E-3,3.3215978E-3],"categories":[],"categories_nodes":[],"categories_segments":[],"categories_sizes":[],"default_left":[0,0,0,0,0,0,0,0,0,0,0,0,0,0,0],"id":50,"left_children":[1,3,5,7,9,11,13,-1,-1,-1,-1,-1,-1,-1,-1],"loss_changes":[7.6093945E3,8.965049E2,1.6503381E3,5.026367E1,9.74613E1,2.1863876E2,3.7872705E2,0E0,0E0,0E0,0E0,0E0,0E0,0E0,0E0],"parents":[2147483647,0,0,1,1,2,2,3,3,4,4,5,5,6,6],"right_children":[2,4,6,8,10,12,14,-1,-1,-1,-1,-1,-1,-1,-1],"split_conditions":[-1.2937583E1,-1.3836729E1,-1.1899107E1,-1.4372136E1,-1.3342858E1,-1.2365544E1,-1.0979466E1,-3.8714462E-3,-2.899314E-3,-1.9157984E-3,-1.0260786E-3,-1.0618026E-4,8.883715E-4,1.8114423E-3,3.3215978E-3],"split_indices":[13,13,13,13,13,13,13,0,0,0,0,0,0,0,0],"split_type":[0,0,0,0,0,0,0,0,0,0,0,0,0,0,0],"sum_hessian":[4.1473035E4,1.4816105E4,2.665693E4,6.178059E3,8.638046E3,1.4195181E4,1.2461748E4,3.4349045E3,2.7431548E3,4.045869E3,4.5921777E3,7.900926E3,6.294255E3,8.266568E3,4.1951797E3],"tree_param":{"num_deleted":"0","num_feature":"19","num_nodes":"15","size_leaf_vector":"1"}},{"base_weights":[-2.47643E-3,-5.174792E-1,3.5646197E-1,-8.4983325E-1,-3.168059E-1,1.8520434E-1,6.7725337E-1,-3.8626979E-3,-2.7958674E-3,-1.7878041E-3,-7.45601E-4,2.5727687E-4,1.3469772E-3,2.357063E-3,3.80265E-3],"categories":[],"categories_nodes":[],"categories_segments":[],"categories_sizes":[],"default_left":[0,0,0,0,0,0,0,0,0,0,0,0,0,0,0],"id":51,"left_children":[1,3,5,7,9,11,13,-1,-1,-1,-1,-1,-1,-1,-1],"loss_changes":[7.6802876E3,1.1200728E3,1.3338738E3,7.385986E1,1.7446985E2,2.9005884E2,1.718125E2,0E0,0E0,0E0,0E0,0E0,0E0,0E0,0E0],"parents":[2147483647,0,0,1,1,2,2,3,3,4,4,5,5,6,6],"right_children":[2,4,6,8,10,12,14,-1,-1,-1,-1,-1,-1,-1,-1],"split_conditions":[-1.2857447E1,-1.3944066E1,-1.1560531E1,-1.4501242E1,-1.3310679E1,-1.2186073E1,-1.0397526E1,-3.8626979E-3,-2.7958674E-3,-1.7878041E-3,-7.45601E-4,2.5727687E-4,1.3469772E-3,2.357063E-3,3.80265E-3],"split_indices":[10,10,10,10,10,10,10,0,0,0,0,0,0,0,0],"split_type":[0,0,0,0,0,0,0,0,0,0,0,0,0,0,0],"sum_hessian":[4.1462223E4,1.7029227E4,2.4432996E4,6.3502256E3,1.0679001E4,1.59834375E4,8.449558E3,3.4455103E3,2.9047153E3,5.2712974E3,5.407704E3,8.946547E3,7.036891E3,6.505849E3,1.9437086E3],"tree_param":{"num_deleted":"0","num_feature":"19","num_nodes":"15","size_leaf_vector":"1"}},{"base_weights":[2.5034687E-3,-5.163536E-1,3.6300603E-1,-7.9873466E-1,-2.6123077E-1,1.17938586E-1,5.888854E-1,-3.7671505E-3,-2.5327886E-3,-1.5405737E-3,-7.25307E-4,1.923685E-3,2.753624E-4,1.9717652E-3,3.379347E-3],"categories":[],"categories_nodes":[],"categories_segments":[],"categories_sizes":[],"default_left":[0,0,0,0,0,0,0,0,0,0,0,0,0,0,0],"id":52,"left_children":[1,3,5,7,9,11,13,-1,-1,-1,-1,-1,-1,-1,-1],"loss_changes":[7.78574E3,1.213731E3,1.3527278E3,1.5690381E2,8.296741E1,2.0626068E2,2.880381E2,0E0,0E0,0E0,0E0,0E0,0E0,0E0,0E0],"parents":[2147483647,0,0,1,1,2,2,3,3,4,4,5,5,6,6],"right_children":[2,4,6,8,10,12,14,-1,-1,-1,-1,-1,-1,-1,-1],"split_conditions":[-1.2857447E1,-1.3706986E1,-1.1957301E1,-1.4330574E1,-1.3325335E1,-1.8871624E-4,-1.0797306E1,-3.7671505E-3,-2.5327886E-3,-1.5405737E-3,-7.25307E-4,1.923685E-3,2.753624E-4,1.9717652E-3,3.379347E-3],"split_indices":[10,10,10,10,10,5,10,0,0,0,0,0,0,0,0],"split_type":[0,0,0,0,0,0,0,0,0,0,0,0,0,0,0],"sum_hessian":[4.1549246E4,1.701906E4,2.4530186E4,8.025443E3,8.993617E3,1.1808375E4,1.2721811E4,4.1834165E3,3.8420266E3,3.434051E3,5.5595664E3,1.3492373E3,1.0459138E4,9.3568125E3,3.3649985E3],"tree_param":{"num_deleted":"0","num_feature":"19","num_nodes":"15","size_leaf_vector":"1"}},{"base_weights":[-0E0,-5.1614887E-1,3.4660318E-1,-8.2469606E-1,-2.8618014E-1,1.5293823E-1,6.451098E-1,-3.8370322E-3,-2.7044427E-3,-1.7082748E-3,-8.205446E-4,6.400062E-5,1.0387766E-3,2.0396158E-3,3.2486003E-3],"categories":[],"categories_nodes":[],"categories_segments":[],"categories_sizes":[],"default_left":[0,0,0,0,0,0,0,0,0,0,0,0,0,0,0],"id":53,"left_children":[1,3,5,7,9,11,13,-1,-1,-1,-1,-1,-1,-1,-1],"loss_changes":[7.4412266E3,1.1687363E3,1.429979E3,1.0540137E2,1.02516785E2,2.197222E2,1.9549121E2,0E0,0E0,0E0,0E0,0E0,0E0,0E0,0E0],"parents":[2147483647,0,0,1,1,2,2,3,3,4,4,5,5,6,6],"right_children":[2,4,6,8,10,12,14,-1,-1,-1,-1,-1,-1,-1,-1],"split_conditions":[-1.279673E1,-1.3707008E1,-1.1651898E1,-1.4335673E1,-1.3310665E1,-1.2319907E1,-1.0979466E1,-3.8370322E-3,-2.7044427E-3,-1.7082748E-3,-8.205446E-4,6.400062E-5,1.0387766E-3,2.0396158E-3,3.2486003E-3],"split_indices":[13,13,13,13,13,13,13,0,0,0,0,0,0,0,0],"split_type":[0,0,0,0,0,0,0,0,0,0,0,0,0,0,0],"sum_hessian":[4.1519758E4,1.6666041E4,2.4853719E4,7.060848E3,9.605192E3,1.5123906E4,9.729812E3,3.5677964E3,3.4930515E3,3.4159133E3,6.1892793E3,6.6722056E3,8.4517E3,5.488403E3,4.241409E3],"tree_param":{"num_deleted":"0","num_feature":"19","num_nodes":"15","size_leaf_vector":"1"}},{"base_weights":[2.1306297E-3,-4.4967774E-1,3.9314872E-1,-8.2311875E-1,-2.3112553E-1,2.43816E-1,7.156212E-1,-3.8475571E-3,-2.6843017E-3,-1.5157688E-3,-4.5788634E-4,4.099761E-4,1.3269824E-3,2.365378E-3,3.4131103E-3],"categories":[],"categories_nodes":[],"categories_segments":[],"categories_sizes":[],"default_left":[0,0,0,0,0,0,0,0,0,0,0,0,0,0,0],"id":54,"left_children":[1,3,5,7,9,11,13,-1,-1,-1,-1,-1,-1,-1,-1],"loss_changes":[7.349943E3,1.5603142E3,1.0611843E3,1.13299805E2,2.0608539E2,1.8623553E2,9.0645996E1,0E0,0E0,0E0,0E0,0E0,0E0,0E0,0E0],"parents":[2147483647,0,0,1,1,2,2,3,3,4,4,5,5,6,6],"right_children":[2,4,6,8,10,12,14,-1,-1,-1,-1,-1,-1,-1,-1],"split_conditions":[-1.2605982E1,-1.3707008E1,-1.1371202E1,-1.4335673E1,-1.3135187E1,-1.21896305E1,-1.0765306E1,-3.8475571E-3,-2.6843017E-3,-1.5157688E-3,-4.5788634E-4,4.099761E-4,1.3269824E-3,2.365378E-3,3.4131103E-3],"split_indices":[13,13,13,13,13,13,13,0,0,0,0,0,0,0,0],"split_type":[0,0,0,0,0,0,0,0,0,0,0,0,0,0,0],"sum_hessian":[4.1525832E4,1.9254861E4,2.2270973E4,7.0566846E3,1.2198176E4,1.5283695E4,6.987278E3,3.5556362E3,3.5010483E3,5.316182E3,6.881994E3,5.92365E3,9.360045E3,3.8082375E3,3.17904E3],"tree_param":{"num_deleted":"0","num_feature":"19","num_nodes":"15","size_leaf_vector":"1"}},{"base_weights":[1.3654819E-3,6.393258E-1,-1.0099936E-1,8.481912E-1,4.226443E-1,-2.0011187E-1,2.680461E-1,4.0637264E-3,2.7801574E-3,2.6452898E-3,1.2047527E-3,1.4894878E-3,-1.0718418E-3,6.4561534E-4,2.2769158E-3],"categories":[],"categories_nodes":[],"categories_segments":[],"categories_sizes":[],"default_left":[0,0,0,0,0,0,0,0,0,0,0,0,0,0,0],"id":55,"left_children":[1,3,5,7,9,11,13,-1,-1,-1,-1,-1,-1,-1,-1],"loss_changes":[2.7197747E3,2.3808008E2,1.312418E3,3.4566162E1,7.0484436E1,1.1019547E3,2.3534528E2,0E0,0E0,0E0,0E0,0E0,0E0,0E0,0E0],"parents":[2147483647,0,0,1,1,2,2,3,3,4,4,5,5,6,6],"right_children":[2,4,6,8,10,12,14,-1,-1,-1,-1,-1,-1,-1,-1],"split_conditions":[-1.7971252E-4,-2.9144753E-4,1.3877031E-4,-1.0259987E-3,-1.2539111E-3,-2.5290763E-3,3.620981E-4,4.0637264E-3,2.7801574E-3,2.6452898E-3,1.2047527E-3,1.4894878E-3,-1.0718418E-3,6.4561534E-4,2.2769158E-3],"split_indices":[5,5,5,3,4,4,5,0,0,0,0,0,0,0,0],"split_type":[0,0,0,0,0,0,0,0,0,0,0,0,0,0,0],"sum_hessian":[4.1514316E4,5.719957E3,3.579436E4,2.837874E3,2.8820833E3,2.8244746E4,7.5496123E3,1.226625E3,1.611249E3,8.9397766E2,1.9881056E3,2.9635935E3,2.5281152E4,5.636772E3,1.9128405E3],"tree_param":{"num_deleted":"0","num_feature":"19","num_nodes":"15","size_leaf_vector":"1"}},{"base_weights":[1.3030315E-3,-5.0917614E-1,3.6066455E-1,-7.79521E-1,-2.6180682E-1,2.0181224E-1,6.926661E-1,-3.7291548E-3,-2.4414167E-3,-1.4999314E-3,-6.867729E-4,1.9411786E-4,1.3544414E-3,4.0207678E-3,2.5044037E-3],"categories":[],"categories_nodes":[],"categories_segments":[],"categories_sizes":[],"default_left":[0,0,0,0,0,0,0,0,0,0,0,0,0,0,0],"id":56,"left_children":[1,3,5,7,9,11,13,-1,-1,-1,-1,-1,-1,-1,-1],"loss_changes":[7.6280366E3,1.1335542E3,1.2761367E3,1.7842725E2,8.607446E1,3.4453705E2,1.2796753E2,0E0,0E0,0E0,0E0,0E0,0E0,0E0,0E0],"parents":[2147483647,0,0,1,1,2,2,3,3,4,4,5,5,6,6],"right_children":[2,4,6,8,10,12,14,-1,-1,-1,-1,-1,-1,-1,-1],"split_conditions":[-1.2844616E1,-1.3687047E1,-1.1483919E1,-1.4330574E1,-1.326578E1,-1.2262233E1,-4.1548678E-4,-3.7291548E-3,-2.4414167E-3,-1.4999314E-3,-6.867729E-4,1.9411786E-4,1.3544414E-3,4.0207678E-3,2.5044037E-3],"split_indices":[10,10,10,10,10,10,5,0,0,0,0,0,0,0,0],"split_type":[0,0,0,0,0,0,0,0,0,0,0,0,0,0,0],"sum_hessian":[4.1507004E4,1.7133629E4,2.4373377E4,8.13296E3,9.00067E3,1.6542299E4,7.8310776E3,4.1586167E3,3.974343E3,3.9017634E3,5.0989062E3,7.8490796E3,8.693219E3,1.2588853E3,6.5721924E3],"tree_param":{"num_deleted":"0","num_feature":"19","num_nodes":"15","size_leaf_vector":"1"}},{"base_weights":[5.408616E-4,5.0880104E-1,-9.170062E-2,3.1854552E-3,4.0555075E-1,-2.1214157E-1,2.613774E-1,1.885462E-3,7.3487445E-4,1.9295848E-4,-1.0973262E-3,7.08074E-4,1.9986397E-3],"categories":[],"categories_nodes":[],"categories_segments":[],"categories_sizes":[],"default_left":[0,0,0,0,0,0,0,0,0,0,0,0,0],"id":57,"left_children":[1,3,5,-1,7,9,11,-1,-1,-1,-1,-1,-1],"loss_changes":[1.9484093E3,1.6886768E2,1.4952029E3,0E0,6.2310608E1,4.265797E2,1.7168878E2,0E0,0E0,0E0,0E0,0E0,0E0],"parents":[2147483647,0,0,1,1,2,2,4,4,5,5,6,6],"right_children":[2,4,6,-1,8,10,12,-1,-1,-1,-1,-1,-1],"split_conditions":[-4.3042796E-3,-1.1614494E-2,3.294929E-3,3.1854552E-3,7.3264235E-1,-1.9383286E-3,9.299785E-3,1.885462E-3,7.3487445E-4,1.9295848E-4,-1.0973262E-3,7.08074E-4,1.9986397E-3],"split_indices":[2,2,2,0,18,2,2,0,0,0,0,0,0],"split_type":[0,0,0,0,0,0,0,0,0,0,0,0,0],"sum_hessian":[4.142163E4,6.345744E3,3.5075883E4,1.5889318E3,4.7568125E3,2.6179861E4,8.896022E3,3.6111382E3,1.1456742E3,5.0289146E3,2.1150945E4,6.641673E3,2.2543499E3],"tree_param":{"num_deleted":"0","num_feature":"19","num_nodes":"13","size_leaf_vector":"1"}},{"base_weights":[-1.5005488E-3,-5.1182693E-1,3.3945417E-1,-7.8889704E-1,-2.6227784E-1,1.4831926E-1,6.047506E-1,-3.7171592E-3,-2.424646E-3,6.828804E-4,-1.1698543E-3,2.2282505E-3,4.2996224E-4,1.943909E-3,3.178176E-3],"categories":[],"categories_nodes":[],"categories_segments":[],"categories_sizes":[],"default_left":[0,0,0,0,0,0,0,0,0,0,0,0,0,0,0],"id":58,"left_children":[1,3,5,7,9,11,13,-1,-1,-1,-1,-1,-1,-1,-1],"loss_changes":[7.2328223E3,1.1363887E3,1.2545391E3,1.6912256E2,1.18257385E2,2.3601572E2,2.107456E2,0E0,0E0,0E0,0E0,0E0,0E0,0E0,0E0],"parents":[2147483647,0,0,1,1,2,2,3,3,4,4,5,5,6,6],"right_children":[2,4,6,8,10,12,14,-1,-1,-1,-1,-1,-1,-1,-1],"split_conditions":[-1.279673E1,-1.3606866E1,-1.1714632E1,-1.4163628E1,-1.6766753E-4,-2.3284392E-4,-1.0913379E1,-3.7171592E-3,-2.424646E-3,6.828804E-4,-1.1698543E-3,2.2282505E-3,4.2996224E-4,1.943909E-3,3.178176E-3],"split_indices":[13,13,13,13,5,5,13,0,0,0,0,0,0,0,0],"split_type":[0,0,0,0,0,0,0,0,0,0,0,0,0,0,0],"sum_hessian":[4.1482E4,1.6613959E4,2.4868041E4,7.8195474E3,8.794411E3,1.4504804E4,1.0363237E4,4.30958E3,3.5099675E3,5.469629E2,8.247448E3,1.2568909E3,1.3247913E4,6.482891E3,3.880346E3],"tree_param":{"num_deleted":"0","num_feature":"19","num_nodes":"15","size_leaf_vector":"1"}},{"base_weights":[1.6055191E-3,6.362676E-1,-1.03789575E-1,8.474031E-1,4.2626086E-1,-1.8068327E-1,2.920049E-1,3.9678253E-3,2.8179295E-3,1.7628953E-3,1.9463954E-4,2.2269531E-4,-9.3029445E-4,5.444792E-4,1.6841587E-3],"categories":[],"categories_nodes":[],"categories_segments":[],"categories_sizes":[],"default_left":[0,0,0,0,0,0,0,0,0,0,0,0,0,0,0],"id":59,"left_children":[1,3,5,7,9,11,13,-1,-1,-1,-1,-1,-1,-1,-1],"loss_changes":[2.7859485E3,2.4033691E2,1.0868309E3,2.0986816E1,1.2728882E1,3.6840594E2,1.1081787E2,0E0,0E0,0E0,0E0,0E0,0E0,0E0,0E0],"parents":[2147483647,0,0,1,1,2,2,3,3,4,4,5,5,6,6],"right_children":[2,4,6,8,10,12,14,-1,-1,-1,-1,-1,-1,-1,-1],"split_conditions":[-4.0532998E-4,-6.686964E-4,4.0948886E-4,-1.0259987E-3,4.561782E0,-1.978891E-4,6.3372677E-4,3.9678253E-3,2.8179295E-3,1.7628953E-3,1.9463954E-4,2.2269531E-4,-9.3029445E-4,5.444792E-4,1.6841587E-3],"split_indices":[3,3,3,3,8,3,3,0,0,0,0,0,0,0,0],"split_type":[0,0,0,0,0,0,0,0,0,0,0,0,0,0,0],"sum_hessian":[4.1518297E4,5.892909E3,3.5625387E4,2.8625835E3,3.0303257E3,2.9862047E4,5.7633413E3,1.2824159E3,1.5801677E3,2.8955203E3,1.348055E2,5.3526934E3,2.4509354E4,2.670145E3,3.0931965E3],"tree_param":{"num_deleted":"0","num_feature":"19","num_nodes":"15","size_leaf_vector":"1"}},{"base_weights":[2.2091935E-3,-5.117009E-1,3.454275E-1,-8.282163E-1,-2.8328696E-1,1.9898878E-1,6.9045675E-1,-3.8392604E-3,-2.7076432E-3,-1.7328701E-3,-7.745427E-4,9.724503E-5,1.2360368E-3,2.1914204E-3,3.2767237E-3],"categories":[],"categories_nodes":[],"categories_segments":[],"categories_sizes":[],"default_left":[0,0,0,0,0,0,0,0,0,0,0,0,0,0,0],"id":60,"left_children":[1,3,5,7,9,11,13,-1,-1,-1,-1,-1,-1,-1,-1],"loss_changes":[7.322526E3,1.1848604E3,1.2469241E3,1.0142383E2,1.2329437E2,3.3484375E2,1.0882446E2,0E0,0E0,0E0,0E0,0E0,0E0,0E0,0E0],"parents":[2147483647,0,0,1,1,2,2,3,3,4,4,5,5,6,6],"right_children":[2,4,6,8,10,12,14,-1,-1,-1,-1,-1,-1,-1,-1],"split_conditions":[-1.279673E1,-1.372599E1,-1.1408732E1,-1.4335673E1,-1.3310665E1,-1.2308083E1,-1.0876564E1,-3.8392604E-3,-2.7076432E-3,-1.7328701E-3,-7.745427E-4,9.724503E-5,1.2360368E-3,2.1914204E-3,3.2767237E-3],"split_indices":[13,13,13,13,13,13,13,0,0,0,0,0,0,0,0],"split_type":[0,0,0,0,0,0,0,0,0,0,0,0,0,0,0],"sum_hessian":[4.1440875E4,1.6578645E4,2.486223E4,6.8931914E3,9.685453E3,1.7511734E4,7.350495E3,3.5493896E3,3.3438018E3,3.539796E3,6.1456567E3,6.8090464E3,1.0702688E4,3.6109712E3,3.739524E3],"tree_param":{"num_deleted":"0","num_feature":"19","num_nodes":"15","size_leaf_vector":"1"}},{"base_weights":[-4.5855134E-4,5.1425344E-1,-9.2007264E-2,7.9939216E-1,4.0726554E-1,2.408001E-1,-2.1539713E-1,4.1948166E-3,2.7759054E-3,2.025499E-3,1.1101186E-3,2.1869112E-3,4.9656327E-4,2.2438298E-4,-1.1242972E-3],"categories":[],"categories_nodes":[],"categories_segments":[],"categories_sizes":[],"default_left":[0,0,0,0,0,0,0,0,0,0,0,0,0,0,0],"id":61,"left_children":[1,3,5,7,9,11,13,-1,-1,-1,-1,-1,-1,-1,-1],"loss_changes":[1.9585964E3,1.7055066E2,1.4534983E3,3.0272217E0,4.9211792E1,3.343114E2,4.6253943E2,0E0,0E0,0E0,0E0,0E0,0E0,0E0,0E0],"parents":[2147483647,0,0,1,1,2,2,3,3,4,4,5,5,6,6],"right_children":[2,4,6,8,10,12,14,-1,-1,-1,-1,-1,-1,-1,-1],"split_conditions":[-4.4226423E-3,-1.1614494E-2,-2.4610846E-3,-2.174176E-2,1.4747758E-1,-6.9641536E-3,-1.9906654E-3,4.1948166E-3,2.7759054E-3,2.025499E-3,1.1101186E-3,2.1869112E-3,4.9656327E-4,2.2438298E-4,-1.1242972E-3],"split_indices":[2,2,1,2,18,1,2,0,0,0,0,0,0,0,0],"split_type":[0,0,0,0,0,0,0,0,0,0,0,0,0,0,0],"sum_hessian":[4.1543145E4,6.2346333E3,3.530851E4,1.6138517E3,4.6207817E3,9.525521E3,2.578299E4,3.5490305E2,1.2589486E3,2.5253582E3,2.0954233E3,2.5735242E3,6.951997E3,5.0041113E3,2.0778879E4],"tree_param":{"num_deleted":"0","num_feature":"19","num_nodes":"15","size_leaf_vector":"1"}},{"base_weights":[-2.58925E-4,-4.988376E-1,3.4614938E-1,-7.836819E-1,-2.4789765E-1,1.4491537E-1,5.979362E-1,-3.659722E-3,-2.3958203E-3,-1.7199774E-3,-6.643628E-4,1.4990201E-5,1.0239936E-3,1.9866542E-3,3.3015476E-3],"categories":[],"categories_nodes":[],"categories_segments":[],"categories_sizes":[],"default_left":[0,0,0,0,0,0,0,0,0,0,0,0,0,0,0],"id":62,"left_children":[1,3,5,7,9,11,13,-1,-1,-1,-1,-1,-1,-1,-1],"loss_changes":[7.1860293E3,1.2051274E3,1.2350437E3,1.6124805E2,1.2945074E2,2.1319781E2,2.2546729E2,0E0,0E0,0E0,0E0,0E0,0E0,0E0,0E0],"parents":[2147483647,0,0,1,1,2,2,3,3,4,4,5,5,6,6],"right_children":[2,4,6,8,10,12,14,-1,-1,-1,-1,-1,-1,-1,-1],"split_conditions":[-1.2844616E1,-1.3706986E1,-1.1777437E1,-1.41008005E1,-1.3342858E1,-1.2365544E1,-1.0755727E1,-3.659722E-3,-2.3958203E-3,-1.7199774E-3,-6.643628E-4,1.4990201E-5,1.0239936E-3,1.9866542E-3,3.3015476E-3],"split_indices":[10,10,10,13,13,13,10,0,0,0,0,0,0,0,0],"split_type":[0,0,0,0,0,0,0,0,0,0,0,0,0,0,0],"sum_hessian":[4.152133E4,1.7022436E4,2.4498893E4,7.920723E3,9.101711E3,1.3665744E4,1.0833148E4,4.5176367E3,3.4030867E3,2.744016E3,6.3576953E3,6.061923E3,7.603821E3,7.603571E3,3.2295776E3],"tree_param":{"num_deleted":"0","num_feature":"19","num_nodes":"15","size_leaf_vector":"1"}},{"base_weights":[-4.2923167E-3,-4.857913E-1,3.5746595E-1,-7.796443E-1,-2.4755524E-1,1.1874169E-1,5.5904114E-1,-3.6693919E-3,-2.4285747E-3,-1.4796993E-3,-6.410777E-4,1.3533691E-3,2.1525416E-4,1.7713626E-3,2.9852132E-3],"categories":[],"categories_nodes":[],"categories_segments":[],"categories_sizes":[],"default_left":[0,0,0,0,0,0,0,0,0,0,0,0,0,0,0],"id":63,"left_children":[1,3,5,7,9,11,13,-1,-1,-1,-1,-1,-1,-1,-1],"loss_changes":[7.2411074E3,1.2344849E3,1.1346973E3,1.5681299E2,1.0017035E2,1.525375E2,2.5842285E2,0E0,0E0,0E0,0E0,0E0,0E0,0E0,0E0],"parents":[2147483647,0,0,1,1,2,2,3,3,4,4,5,5,6,6],"right_children":[2,4,6,8,10,12,14,-1,-1,-1,-1,-1,-1,-1,-1],"split_conditions":[-1.2783856E1,-1.3706986E1,-1.1957301E1,-1.4297438E1,-1.326578E1,-2.9120166E-4,-1.1062131E1,-3.6693919E-3,-2.4285747E-3,-1.4796993E-3,-6.410777E-4,1.3533691E-3,2.1525416E-4,1.7713626E-3,2.9852132E-3],"split_indices":[10,10,10,10,10,3,10,0,0,0,0,0,0,0,0],"split_type":[0,0,0,0,0,0,0,0,0,0,0,0,0,0,0],"sum_hessian":[4.1486402E4,1.7799537E4,2.3686865E4,7.9165967E3,9.882939E3,1.0888038E4,1.2798827E4,4.2853193E3,3.631277E3,4.029636E3,5.853303E3,2.4233184E3,8.46472E3,8.0024336E3,4.796394E3],"tree_param":{"num_deleted":"0","num_feature":"19","num_nodes":"15","size_leaf_vector":"1"}},{"base_weights":[2.8599554E-3,-4.8720706E-1,3.6048317E-1,-8.2494897E-1,-2.8310835E-1,2.0973676E-1,6.8294156E-1,-3.8210524E-3,-2.6916538E-3,-1.6570301E-3,-6.664342E-4,2.1834631E-4,1.3322498E-3,2.3260037E-3,3.6837088E-3],"categories":[],"categories_nodes":[],"categories_segments":[],"categories_sizes":[],"default_left":[0,0,0,0,0,0,0,0,0,0,0,0,0,0,0],"id":64,"left_children":[1,3,5,7,9,11,13,-1,-1,-1,-1,-1,-1,-1,-1],"loss_changes":[7.2660957E3,1.1887544E3,1.1540525E3,9.354199E1,1.6110028E2,3.1076678E2,1.5246387E2,0E0,0E0,0E0,0E0,0E0,0E0,0E0,0E0],"parents":[2147483647,0,0,1,1,2,2,3,3,4,4,5,5,6,6],"right_children":[2,4,6,8,10,12,14,-1,-1,-1,-1,-1,-1,-1,-1],"split_conditions":[-1.2808084E1,-1.3896313E1,-1.1443984E1,-1.4501242E1,-1.3295562E1,-1.2262233E1,-1.0458709E1,-3.8210524E-3,-2.6916538E-3,-1.6570301E-3,-6.664342E-4,2.1834631E-4,1.3322498E-3,2.3260037E-3,3.6837088E-3],"split_indices":[10,10,10,10,10,10,10,0,0,0,0,0,0,0,0],"split_type":[0,0,0,0,0,0,0,0,0,0,0,0,0,0,0],"sum_hessian":[4.1383723E4,1.7445166E4,2.3938559E4,6.513358E3,1.0931809E4,1.6371298E4,7.5672603E3,3.370405E3,3.142953E3,5.068236E3,5.8635728E3,7.2990815E3,9.072216E3,5.421438E3,2.145822E3],"tree_param":{"num_deleted":"0","num_feature":"19","num_nodes":"15","size_leaf_vector":"1"}},{"base_weights":[1.1339109E-4,-5.5645454E-1,3.025351E-1,-8.5366285E-1,-3.5176703E-1,1.2511073E-1,5.9304714E-1,-3.7944154E-3,-2.8001003E-3,-1.8736989E-3,-9.0171146E-4,-7.7926015E-5,9.597418E-4,1.9595898E-3,3.2096712E-3],"categories":[],"categories_nodes":[],"categories_segments":[],"categories_sizes":[],"default_left":[0,0,0,0,0,0,0,0,0,0,0,0,0,0,0],"id":65,"left_children":[1,3,5,7,9,11,13,-1,-1,-1,-1,-1,-1,-1,-1],"loss_changes":[6.97589E3,8.675615E2,1.3772085E3,4.8899902E1,1.1977197E2,2.7962946E2,1.9535059E2,0E0,0E0,0E0,0E0,0E0,0E0,0E0,0E0],"parents":[2147483647,0,0,1,1,2,2,3,3,4,4,5,5,6,6],"right_children":[2,4,6,8,10,12,14,-1,-1,-1,-1,-1,-1,-1,-1],"split_conditions":[-1.2937583E1,-1.3859569E1,-1.1683196E1,-1.4335673E1,-1.3310665E1,-1.2400201E1,-1.0765306E1,-3.7944154E-3,-2.8001003E-3,-1.8736989E-3,-9.0171146E-4,-7.7926015E-5,9.597418E-4,1.9595898E-3,3.2096712E-3],"split_indices":[13,13,13,13,13,13,13,0,0,0,0,0,0,0,0],"split_type":[0,0,0,0,0,0,0,0,0,0,0,0,0,0,0],"sum_hessian":[4.1374453E4,1.4547173E4,2.682728E4,5.8680825E3,8.67909E3,1.6704775E4,1.0122504E4,3.472785E3,2.3952976E3,4.429381E3,4.249709E3,7.383615E3,9.321161E3,6.891794E3,3.2307097E3],"tree_param":{"num_deleted":"0","num_feature":"19","num_nodes":"15","size_leaf_vector":"1"}},{"base_weights":[2.7497073E-3,-4.5426378E-1,3.8428634E-1,-7.953959E-1,-2.3044671E-1,2.2220767E-1,6.4408296E-1,-3.6246856E-3,-2.3718067E-3,-1.5481461E-3,-5.358275E-4,1.8471327E-3,6.4185174E-4,2.2358934E-3,3.5203863E-3],"categories":[],"categories_nodes":[],"categories_segments":[],"categories_sizes":[],"default_left":[0,0,0,0,0,0,0,0,0,0,0,0,0,0,0],"id":66,"left_children":[1,3,5,7,9,11,13,-1,-1,-1,-1,-1,-1,-1,-1],"loss_changes":[7.2180137E3,1.4235625E3,9.389988E2,1.3541943E2,1.6734302E2,1.997201E2,1.4440918E2,0E0,0E0,0E0,0E0,0E0,0E0,0E0,0E0],"parents":[2147483647,0,0,1,1,2,2,3,3,4,4,5,5,6,6],"right_children":[2,4,6,8,10,12,14,-1,-1,-1,-1,-1,-1,-1,-1],"split_conditions":[-1.2700059E1,-1.3766298E1,-1.1560531E1,-1.4207777E1,-1.3280779E1,-3.5390165E-4,-1.0458709E1,-3.6246856E-3,-2.3718067E-3,-1.5481461E-3,-5.358275E-4,1.8471327E-3,6.4185174E-4,2.2358934E-3,3.5203863E-3],"split_indices":[10,10,10,10,10,3,10,0,0,0,0,0,0,0,0],"split_type":[0,0,0,0,0,0,0,0,0,0,0,0,0,0,0],"sum_hessian":[4.1317996E4,1.8788287E4,2.2529709E4,7.391419E3,1.1396867E4,1.3935215E4,8.594494E3,4.666696E3,2.724723E3,4.273596E3,7.1232715E3,2.7808445E3,1.115437E4,6.4359E3,2.1585947E3],"tree_param":{"num_deleted":"0","num_feature":"19","num_nodes":"15","size_leaf_vector":"1"}},{"base_weights":[-5.2179507E-4,-5.0230944E-1,3.349634E-1,-8.349663E-1,-3.01987E-1,1.0417006E-1,5.484106E-1,-3.8096807E-3,-2.73544E-3,-1.776912E-3,-7.702874E-4,1.4566368E-4,9.437796E-4,1.8096681E-3,3.2142617E-3],"categories":[],"categories_nodes":[],"categories_segments":[],"categories_sizes":[],"default_left":[0,0,0,0,0,0,0,0,0,0,0,0,0,0,0],"id":67,"left_children":[1,3,5,7,9,11,13,-1,-1,-1,-1,-1,-1,-1,-1],"loss_changes":[6.9963867E3,1.0925854E3,1.2199094E3,7.38125E1,1.5541559E2,1.052576E2,2.9350366E2,0E0,0E0,0E0,0E0,0E0,0E0,0E0,0E0],"parents":[2147483647,0,0,1,1,2,2,3,3,4,4,5,5,6,6],"right_children":[2,4,6,8,10,12,14,-1,-1,-1,-1,-1,-1,-1,-1],"split_conditions":[-1.2870116E1,-1.3944066E1,-1.1957301E1,-1.4501242E1,-1.3385969E1,-1.227467E1,-1.0797306E1,-3.8096807E-3,-2.73544E-3,-1.776912E-3,-7.702874E-4,1.4566368E-4,9.437796E-4,1.8096681E-3,3.2142617E-3],"split_indices":[10,10,10,10,10,10,10,0,0,0,0,0,0,0,0],"split_type":[0,0,0,0,0,0,0,0,0,0,0,0,0,0,0],"sum_hessian":[4.1474027E4,1.661794E4,2.485609E4,6.186095E3,1.0431845E4,1.1986001E4,1.2870088E4,3.3370752E3,2.84902E3,4.456515E3,5.97533E3,7.982203E3,4.0037976E3,9.450897E3,3.4191912E3],"tree_param":{"num_deleted":"0","num_feature":"19","num_nodes":"15","size_leaf_vector":"1"}},{"base_weights":[-6.1689486E-4,5.8371174E-1,-1.05632804E-1,7.999048E-1,3.9343962E-1,2.7637458E-1,-1.9690709E-1,3.9553894E-3,2.760112E-3,2.6490742E-3,1.2596516E-3,1.9996555E-3,6.986708E-4,8.971421E-4,-1.2634555E-3],"categories":[],"categories_nodes":[],"categories_segments":[],"categories_sizes":[],"default_left":[0,0,0,0,0,0,0,0,0,0,0,0,0,0,0],"id":68,"left_children":[1,3,5,7,9,11,13,-1,-1,-1,-1,-1,-1,-1,-1],"loss_changes":[2.5440269E3,2.3938794E2,1.2288014E3,2.2020142E1,5.82016E1,1.465033E2,1.4285872E3,0E0,0E0,0E0,0E0,0E0,0E0,0E0,0E0],"parents":[2147483647,0,0,1,1,2,2,3,3,4,4,5,5,6,6],"right_children":[2,4,6,8,10,12,14,-1,-1,-1,-1,-1,-1,-1,-1],"split_conditions":[-1.6766753E-4,-2.9144753E-4,-2.2283355E-3,-5.155425E-4,-4.9544265E-3,-5.1590307E-3,-2.7821013E-3,