{"learner":{"attributes":{"best_iteration":"2997","best_score":"0.2518581612926213","scikit_learn":"{\"_estimator_type\": \"classifier\"}"},"feature_names":["FEATURE_RelativeVWAPEMA10","FEATURE_RelativeVWAPEMA20","FEATURE_RelativeVWAPEMA50","FEATURE_MACD_10_20_9","FEATURE_MACD_10_20_9_slope","FEATURE_MACD_10_50_9","FEATURE_MACD_10_50_9_slope","FEATURE_MACD_20_50_9","FEATURE_MACD_20_50_9_slope","FEATURE_LogReturn0/1","FEATURE_LogReturn1/2"],"feature_types":["float","float","float","float","float","float","float","float","float","float","float"],"gradient_booster":{"model":{"cats":{"enc":[],"feature_segments":[],"sorted_idx":[]},"gbtree_model_param":{"num_parallel_tree":"1","num_trees":"3000"},"iteration_indptr":[0,1,2,3,4,5,6,7,8,9,10,11,12,13,14,15,16,17,18,19,20,21,22,23,24,25,26,27,28,29,30,31,32,33,34,35,36,37,38,39,40,41,42,43,44,45,46,47,48,49,50,51,52,53,54,55,56,57,58,59,60,61,62,63,64,65,66,67,68,69,70,71,72,73,74,75,76,77,78,79,80,81,82,83,84,85,86,87,88,89,90,91,92,93,94,95,96,97,98,99,100,101,102,103,104,105,106,107,108,109,110,111,112,113,114,115,116,117,118,119,120,121,122,123,124,125,126,127,128,129,130,131,132,133,134,135,136,137,138,139,140,141,142,143,144,145,146,147,148,149,150,151,152,153,154,155,156,157,158,159,160,161,162,163,164,165,166,167,168,169,170,171,172,173,174,175,176,177,178,179,180,181,182,183,184,185,186,187,188,189,190,191,192,193,194,195,196,197,198,199,200,201,202,203,204,205,206,207,208,209,210,211,212,213,214,215,216,217,218,219,220,221,222,223,224,225,226,227,228,229,230,231,232,233,234,235,236,237,238,239,240,241,242,243,244,245,246,247,248,249,250,251,252,253,254,255,256,257,258,259,260,261,262,263,264,265,266,267,268,269,270,271,272,273,274,275,276,277,278,279,280,281,282,283,284,285,286,287,288,289,290,291,292,293,294,295,296,297,298,299,300,301,302,303,304,305,306,307,308,309,310,311,312,313,314,315,316,317,318,319,320,321,322,323,324,325,326,327,328,329,330,331,332,333,334,335,336,337,338,339,340,341,342,343,344,345,346,347,348,349,350,351,352,353,354,355,356,357,358,359,360,361,362,363,364,365,366,367,368,369,370,371,372,373,374,375,376,377,378,379,380,381,382,383,384,385,386,387,388,389,390,391,392,393,394,395,396,397,398,399,400,401,402,403,404,405,406,407,408,409,410,411,412,413,414,415,416,417,418,419,420,421,422,423,424,425,426,427,428,429,430,431,432,433,434,435,436,437,438,439,440,441,442,443,444,445,446,447,448,449,450,451,452,453,454,455,456,457,458,459,460,461,462,463,464,465,466,467,468,469,470,471,472,473,474,475,476,477,478,479,480,481,482,483,484,485,486,487,488,489,490,491,492,493,494,495,496,497,498,499,500,501,502,503,504,505,506,507,508,509,510,511,512,513,514,515,516,517,518,519,520,521,522,523,524,525,526,527,528,529,530,531,532,533,534,535,536,537,538,539,540,541,542,543,544,545,546,547,548,549,550,551,552,553,554,555,556,557,558,559,560,561,562,563,564,565,566,567,568,569,570,571,572,573,574,575,576,577,578,579,580,581,582,583,584,585,586,587,588,589,590,591,592,593,594,595,596,597,598,599,600,601,602,603,604,605,606,607,608,609,610,611,612,613,614,615,616,617,618,619,620,621,622,623,624,625,626,627,628,629,630,631,632,633,634,635,636,637,638,639,640,641,642,643,644,645,646,647,648,649,650,651,652,653,654,655,656,657,658,659,660,661,662,663,664,665,666,667,668,669,670,671,672,673,674,675,676,677,678,679,680,681,682,683,684,685,686,687,688,689,690,691,692,693,694,695,696,697,698,699,700,701,702,703,704,705,706,707,708,709,710,711,712,713,714,715,716,717,718,719,720,721,722,723,724,725,726,727,728,729,730,731,732,733,734,735,736,737,738,739,740,741,742,743,744,745,746,747,748,749,750,751,752,753,754,755,756,757,758,759,760,761,762,763,764,765,766,767,768,769,770,771,772,773,774,775,776,777,778,779,780,781,782,783,784,785,786,787,788,789,790,791,792,793,794,795,796,797,798,799,800,801,802,803,804,805,806,807,808,809,810,811,812,813,814,815,816,817,818,819,820,821,822,823,824,825,826,827,828,829,830,831,832,833,834,835,836,837,838,839,840,841,842,843,844,845,846,847,848,849,850,851,852,853,854,855,856,857,858,859,860,861,862,863,864,865,866,867,868,869,870,871,872,873,874,875,876,877,878,879,880,881,882,883,884,885,886,887,888,889,890,891,892,893,894,895,896,897,898,899,900,901,902,903,904,905,906,907,908,909,910,911,912,913,914,915,916,917,918,919,920,921,922,923,924,925,926,927,928,929,930,931,932,933,934,935,936,937,938,939,940,941,942,943,944,945,946,947,948,949,950,951,952,953,954,955,956,957,958,959,960,961,962,963,964,965,966,967,968,969,970,971,972,973,974,975,976,977,978,979,980,981,982,983,984,985,986,987,988,989,990,991,992,993,994,995,996,997,998,999,1000,1001,1002,1003,1004,1005,1006,1007,1008,1009,1010,1011,1012,1013,1014,1015,1016,1017,1018,1019,1020,1021,1022,1023,1024,1025,1026,1027,1028,1029,1030,1031,1032,1033,1034,1035,1036,1037,1038,1039,1040,1041,1042,1043,1044,1045,1046,1047,1048,1049,1050,1051,1052,1053,1054,1055,1056,1057,1058,1059,1060,1061,1062,1063,1064,1065,1066,1067,1068,1069,1070,1071,1072,1073,1074,1075,1076,1077,1078,1079,1080,1081,1082,1083,1084,1085,1086,1087,1088,1089,1090,1091,1092,1093,1094,1095,1096,1097,1098,1099,1100,1101,1102,1103,1104,1105,1106,1107,1108,1109,1110,1111,1112,1113,1114,1115,1116,1117,1118,1119,1120,1121,1122,1123,1124,1125,1126,1127,1128,1129,1130,1131,1132,1133,1134,1135,1136,1137,1138,1139,1140,1141,1142,1143,1144,1145,1146,1147,1148,1149,1150,1151,1152,1153,1154,1155,1156,1157,1158,1159,1160,1161,1162,1163,1164,1165,1166,1167,1168,1169,1170,1171,1172,1173,1174,1175,1176,1177,1178,1179,1180,1181,1182,1183,1184,1185,1186,1187,1188,1189,1190,1191,1192,1193,1194,1195,1196,1197,1198,1199,1200,1201,1202,1203,1204,1205,1206,1207,1208,1209,1210,1211,1212,1213,1214,1215,1216,1217,1218,1219,1220,1221,1222,1223,1224,1225,1226,1227,1228,1229,1230,1231,1232,1233,1234,1235,1236,1237,1238,1239,1240,1241,1242,1243,1244,1245,1246,1247,1248,1249,1250,1251,1252,1253,1254,1255,1256,1257,1258,1259,1260,1261,1262,1263,1264,1265,1266,1267,1268,1269,1270,1271,1272,1273,1274,1275,1276,1277,1278,1279,1280,1281,1282,1283,1284,1285,1286,1287,1288,1289,1290,1291,1292,1293,1294,1295,1296,1297,1298,1299,1300,1301,1302,1303,1304,1305,1306,1307,1308,1309,1310,1311,1312,1313,1314,1315,1316,1317,1318,1319,1320,1321,1322,1323,1324,1325,1326,1327,1328,1329,1330,1331,1332,1333,1334,1335,1336,1337,1338,1339,1340,1341,1342,1343,1344,1345,1346,1347,1348,1349,1350,1351,1352,1353,1354,1355,1356,1357,1358,1359,1360,1361,1362,1363,1364,1365,1366,1367,1368,1369,1370,1371,1372,1373,1374,1375,1376,1377,1378,1379,1380,1381,1382,1383,1384,1385,1386,1387,1388,1389,1390,1391,1392,1393,1394,1395,1396,1397,1398,1399,1400,1401,1402,1403,1404,1405,1406,1407,1408,1409,1410,1411,1412,1413,1414,1415,1416,1417,1418,1419,1420,1421,1422,1423,1424,1425,1426,1427,1428,1429,1430,1431,1432,1433,1434,1435,1436,1437,1438,1439,1440,1441,1442,1443,1444,1445,1446,1447,1448,1449,1450,1451,1452,1453,1454,1455,1456,1457,1458,1459,1460,1461,1462,1463,1464,1465,1466,1467,1468,1469,1470,1471,1472,1473,1474,1475,1476,1477,1478,1479,1480,1481,1482,1483,1484,1485,1486,1487,1488,1489,1490,1491,1492,1493,1494,1495,1496,1497,1498,1499,1500,1501,1502,1503,1504,1505,1506,1507,1508,1509,1510,1511,1512,1513,1514,1515,1516,1517,1518,1519,1520,1521,1522,1523,1524,1525,1526,1527,1528,1529,1530,1531,1532,1533,1534,1535,1536,1537,1538,1539,1540,1541,1542,1543,1544,1545,1546,1547,1548,1549,1550,1551,1552,1553,1554,1555,1556,1557,1558,1559,1560,1561,1562,1563,1564,1565,1566,1567,1568,1569,1570,1571,1572,1573,1574,1575,1576,1577,1578,1579,1580,1581,1582,1583,1584,1585,1586,1587,1588,1589,1590,1591,1592,1593,1594,1595,1596,1597,1598,1599,1600,1601,1602,1603,1604,1605,1606,1607,1608,1609,1610,1611,1612,1613,1614,1615,1616,1617,1618,1619,1620,1621,1622,1623,1624,1625,1626,1627,1628,1629,1630,1631,1632,1633,1634,1635,1636,1637,1638,1639,1640,1641,1642,1643,1644,1645,1646,1647,1648,1649,1650,1651,1652,1653,1654,1655,1656,1657,1658,1659,1660,1661,1662,1663,1664,1665,1666,1667,1668,1669,1670,1671,1672,1673,1674,1675,1676,1677,1678,1679,1680,1681,1682,1683,1684,1685,1686,1687,1688,1689,1690,1691,1692,1693,1694,1695,1696,1697,1698,1699,1700,1701,1702,1703,1704,1705,1706,1707,1708,1709,1710,1711,1712,1713,1714,1715,1716,1717,1718,1719,1720,1721,1722,1723,1724,1725,1726,1727,1728,1729,1730,1731,1732,1733,1734,1735,1736,1737,1738,1739,1740,1741,1742,1743,1744,1745,1746,1747,1748,1749,1750,1751,1752,1753,1754,1755,1756,1757,1758,1759,1760,1761,1762,1763,1764,1765,1766,1767,1768,1769,1770,1771,1772,1773,1774,1775,1776,1777,1778,1779,1780,1781,1782,1783,1784,1785,1786,1787,1788,1789,1790,1791,1792,1793,1794,1795,1796,1797,1798,1799,1800,1801,1802,1803,1804,1805,1806,1807,1808,1809,1810,1811,1812,1813,1814,1815,1816,1817,1818,1819,1820,1821,1822,1823,1824,1825,1826,1827,1828,1829,1830,1831,1832,1833,1834,1835,1836,1837,1838,1839,1840,1841,1842,1843,1844,1845,1846,1847,1848,1849,1850,1851,1852,1853,1854,1855,1856,1857,1858,1859,1860,1861,1862,1863,1864,1865,1866,1867,1868,1869,1870,1871,1872,1873,1874,1875,1876,1877,1878,1879,1880,1881,1882,1883,1884,1885,1886,1887,1888,1889,1890,1891,1892,1893,1894,1895,1896,1897,1898,1899,1900,1901,1902,1903,1904,1905,1906,1907,1908,1909,1910,1911,1912,1913,1914,1915,1916,1917,1918,1919,1920,1921,1922,1923,1924,1925,1926,1927,1928,1929,1930,1931,1932,1933,1934,1935,1936,1937,1938,1939,1940,1941,1942,1943,1944,1945,1946,1947,1948,1949,1950,1951,1952,1953,1954,1955,1956,1957,1958,1959,1960,1961,1962,1963,1964,1965,1966,1967,1968,1969,1970,1971,1972,1973,1974,1975,1976,1977,1978,1979,1980,1981,1982,1983,1984,1985,1986,1987,1988,1989,1990,1991,1992,1993,1994,1995,1996,1997,1998,1999,2000,2001,2002,2003,2004,2005,2006,2007,2008,2009,2010,2011,2012,2013,2014,2015,2016,2017,2018,2019,2020,2021,2022,2023,2024,2025,2026,2027,2028,2029,2030,2031,2032,2033,2034,2035,2036,2037,2038,2039,2040,2041,2042,2043,2044,2045,2046,2047,2048,2049,2050,2051,2052,2053,2054,2055,2056,2057,2058,2059,2060,2061,2062,2063,2064,2065,2066,2067,2068,2069,2070,2071,2072,2073,2074,2075,2076,2077,2078,2079,2080,2081,2082,2083,2084,2085,2086,2087,2088,2089,2090,2091,2092,2093,2094,2095,2096,2097,2098,2099,2100,2101,2102,2103,2104,2105,2106,2107,2108,2109,2110,2111,2112,2113,2114,2115,2116,2117,2118,2119,2120,2121,2122,2123,2124,2125,2126,2127,2128,2129,2130,2131,2132,2133,2134,2135,2136,2137,2138,2139,2140,2141,2142,2143,2144,2145,2146,2147,2148,2149,2150,2151,2152,2153,2154,2155,2156,2157,2158,2159,2160,2161,2162,2163,2164,2165,2166,2167,2168,2169,2170,2171,2172,2173,2174,2175,2176,2177,2178,2179,2180,2181,2182,2183,2184,2185,2186,2187,2188,2189,2190,2191,2192,2193,2194,2195,2196,2197,2198,2199,2200,2201,2202,2203,2204,2205,2206,2207,2208,2209,2210,2211,2212,2213,2214,2215,2216,2217,2218,2219,2220,2221,2222,2223,2224,2225,2226,2227,2228,2229,2230,2231,2232,2233,2234,2235,2236,2237,2238,2239,2240,2241,2242,2243,2244,2245,2246,2247,2248,2249,2250,2251,2252,2253,2254,2255,2256,2257,2258,2259,2260,2261,2262,2263,2264,2265,2266,2267,2268,2269,2270,2271,2272,2273,2274,2275,2276,2277,2278,2279,2280,2281,2282,2283,2284,2285,2286,2287,2288,2289,2290,2291,2292,2293,2294,2295,2296,2297,2298,2299,2300,2301,2302,2303,2304,2305,2306,2307,2308,2309,2310,2311,2312,2313,2314,2315,2316,2317,2318,2319,2320,2321,2322,2323,2324,2325,2326,2327,2328,2329,2330,2331,2332,2333,2334,2335,2336,2337,2338,2339,2340,2341,2342,2343,2344,2345,2346,2347,2348,2349,2350,2351,2352,2353,2354,2355,2356,2357,2358,2359,2360,2361,2362,2363,2364,2365,2366,2367,2368,2369,2370,2371,2372,2373,2374,2375,2376,2377,2378,2379,2380,2381,2382,2383,2384,2385,2386,2387,2388,2389,2390,2391,2392,2393,2394,2395,2396,2397,2398,2399,2400,2401,2402,2403,2404,2405,2406,2407,2408,2409,2410,2411,2412,2413,2414,2415,2416,2417,2418,2419,2420,2421,2422,2423,2424,2425,2426,2427,2428,2429,2430,2431,2432,2433,2434,2435,2436,2437,2438,2439,2440,2441,2442,2443,2444,2445,2446,2447,2448,2449,2450,2451,2452,2453,2454,2455,2456,2457,2458,2459,2460,2461,2462,2463,2464,2465,2466,2467,2468,2469,2470,2471,2472,2473,2474,2475,2476,2477,2478,2479,2480,2481,2482,2483,2484,2485,2486,2487,2488,2489,2490,2491,2492,2493,2494,2495,2496,2497,2498,2499,2500,2501,2502,2503,2504,2505,2506,2507,2508,2509,2510,2511,2512,2513,2514,2515,2516,2517,2518,2519,2520,2521,2522,2523,2524,2525,2526,2527,2528,2529,2530,2531,2532,2533,2534,2535,2536,2537,2538,2539,2540,2541,2542,2543,2544,2545,2546,2547,2548,2549,2550,2551,2552,2553,2554,2555,2556,2557,2558,2559,2560,2561,2562,2563,2564,2565,2566,2567,2568,2569,2570,2571,2572,2573,2574,2575,2576,2577,2578,2579,2580,2581,2582,2583,2584,2585,2586,2587,2588,2589,2590,2591,2592,2593,2594,2595,2596,2597,2598,2599,2600,2601,2602,2603,2604,2605,2606,2607,2608,2609,2610,2611,2612,2613,2614,2615,2616,2617,2618,2619,2620,2621,2622,2623,2624,2625,2626,2627,2628,2629,2630,2631,2632,2633,2634,2635,2636,2637,2638,2639,2640,2641,2642,2643,2644,2645,2646,2647,2648,2649,2650,2651,2652,2653,2654,2655,2656,2657,2658,2659,2660,2661,2662,2663,2664,2665,2666,2667,2668,2669,2670,2671,2672,2673,2674,2675,2676,2677,2678,2679,2680,2681,2682,2683,2684,2685,2686,2687,2688,2689,2690,2691,2692,2693,2694,2695,2696,2697,2698,2699,2700,2701,2702,2703,2704,2705,2706,2707,2708,2709,2710,2711,2712,2713,2714,2715,2716,2717,2718,2719,2720,2721,2722,2723,2724,2725,2726,2727,2728,2729,2730,2731,2732,2733,2734,2735,2736,2737,2738,2739,2740,2741,2742,2743,2744,2745,2746,2747,2748,2749,2750,2751,2752,2753,2754,2755,2756,2757,2758,2759,2760,2761,2762,2763,2764,2765,2766,2767,2768,2769,2770,2771,2772,2773,2774,2775,2776,2777,2778,2779,2780,2781,2782,2783,2784,2785,2786,2787,2788,2789,2790,2791,2792,2793,2794,2795,2796,2797,2798,2799,2800,2801,2802,2803,2804,2805,2806,2807,2808,2809,2810,2811,2812,2813,2814,2815,2816,2817,2818,2819,2820,2821,2822,2823,2824,2825,2826,2827,2828,2829,2830,2831,2832,2833,2834,2835,2836,2837,2838,2839,2840,2841,2842,2843,2844,2845,2846,2847,2848,2849,2850,2851,2852,2853,2854,2855,2856,2857,2858,2859,2860,2861,2862,2863,2864,2865,2866,2867,2868,2869,2870,2871,2872,2873,2874,2875,2876,2877,2878,2879,2880,2881,2882,2883,2884,2885,2886,2887,2888,2889,2890,2891,2892,2893,2894,2895,2896,2897,2898,2899,2900,2901,2902,2903,2904,2905,2906,2907,2908,2909,2910,2911,2912,2913,2914,2915,2916,2917,2918,2919,2920,2921,2922,2923,2924,2925,2926,2927,2928,2929,2930,2931,2932,2933,2934,2935,2936,2937,2938,2939,2940,2941,2942,2943,2944,2945,2946,2947,2948,2949,2950,2951,2952,2953,2954,2955,2956,2957,2958,2959,2960,2961,2962,2963,2964,2965,2966,2967,2968,2969,2970,2971,2972,2973,2974,2975,2976,2977,2978,2979,2980,2981,2982,2983,2984,2985,2986,2987,2988,2989,2990,2991,2992,2993,2994,2995,2996,2997,2998,2999,3000],"tree_info":[0,0,0,0,0,0,0,0,0,0,0,0,0,0,0,0,0,0,0,0,0,0,0,0,0,0,0,0,0,0,0,0,0,0,0,0,0,0,0,0,0,0,0,0,0,0,0,0,0,0,0,0,0,0,0,0,0,0,0,0,0,0,0,0,0,0,0,0,0,0,0,0,0,0,0,0,0,0,0,0,0,0,0,0,0,0,0,0,0,0,0,0,0,0,0,0,0,0,0,0,0,0,0,0,0,0,0,0,0,0,0,0,0,0,0,0,0,0,0,0,0,0,0,0,0,0,0,0,0,0,0,0,0,0,0,0,0,0,0,0,0,0,0,0,0,0,0,0,0,0,0,0,0,0,0,0,0,0,0,0,0,0,0,0,0,0,0,0,0,0,0,0,0,0,0,0,0,0,0,0,0,0,0,0,0,0,0,0,0,0,0,0,0,0,0,0,0,0,0,0,0,0,0,0,0,0,0,0,0,0,0,0,0,0,0,0,0,0,0,0,0,0,0,0,0,0,0,0,0,0,0,0,0,0,0,0,0,0,0,0,0,0,0,0,0,0,0,0,0,0,0,0,0,0,0,0,0,0,0,0,0,0,0,0,0,0,0,0,0,0,0,0,0,0,0,0,0,0,0,0,0,0,0,0,0,0,0,0,0,0,0,0,0,0,0,0,0,0,0,0,0,0,0,0,0,0,0,0,0,0,0,0,0,0,0,0,0,0,0,0,0,0,0,0,0,0,0,0,0,0,0,0,0,0,0,0,0,0,0,0,0,0,0,0,0,0,0,0,0,0,0,0,0,0,0,0,0,0,0,0,0,0,0,0,0,0,0,0,0,0,0,0,0,0,0,0,0,0,0,0,0,0,0,0,0,0,0,0,0,0,0,0,0,0,0,0,0,0,0,0,0,0,0,0,0,0,0,0,0,0,0,0,0,0,0,0,0,0,0,0,0,0,0,0,0,0,0,0,0,0,0,0,0,0,0,0,0,0,0,0,0,0,0,0,0,0,0,0,0,0,0,0,0,0,0,0,0,0,0,0,0,0,0,0,0,0,0,0,0,0,0,0,0,0,0,0,0,0,0,0,0,0,0,0,0,0,0,0,0,0,0,0,0,0,0,0,0,0,0,0,0,0,0,0,0,0,0,0,0,0,0,0,0,0,0,0,0,0,0,0,0,0,0,0,0,0,0,0,0,0,0,0,0,0,0,0,0,0,0,0,0,0,0,0,0,0,0,0,0,0,0,0,0,0,0,0,0,0,0,0,0,0,0,0,0,0,0,0,0,0,0,0,0,0,0,0,0,0,0,0,0,0,0,0,0,0,0,0,0,0,0,0,0,0,0,0,0,0,0,0,0,0,0,0,0,0,0,0,0,0,0,0,0,0,0,0,0,0,0,0,0,0,0,0,0,0,0,0,0,0,0,0,0,0,0,0,0,0,0,0,0,0,0,0,0,0,0,0,0,0,0,0,0,0,0,0,0,0,0,0,0,0,0,0,0,0,0,0,0,0,0,0,0,0,0,0,0,0,0,0,0,0,0,0,0,0,0,0,0,0,0,0,0,0,0,0,0,0,0,0,0,0,0,0,0,0,0,0,0,0,0,0,0,0,0,0,0,0,0,0,0,0,0,0,0,0,0,0,0,0,0,0,0,0,0,0,0,0,0,0,0,0,0,0,0,0,0,0,0,0,0,0,0,0,0,0,0,0,0,0,0,0,0,0,0,0,0,0,0,0,0,0,0,0,0,0,0,0,0,0,0,0,0,0,0,0,0,0,0,0,0,0,0,0,0,0,0,0,0,0,0,0,0,0,0,0,0,0,0,0,0,0,0,0,0,0,0,0,0,0,0,0,0,0,0,0,0,0,0,0,0,0,0,0,0,0,0,0,0,0,0,0,0,0,0,0,0,0,0,0,0,0,0,0,0,0,0,0,0,0,0,0,0,0,0,0,0,0,0,0,0,0,0,0,0,0,0,0,0,0,0,0,0,0,0,0,0,0,0,0,0,0,0,0,0,0,0,0,0,0,0,0,0,0,0,0,0,0,0,0,0,0,0,0,0,0,0,0,0,0,0,0,0,0,0,0,0,0,0,0,0,0,0,0,0,0,0,0,0,0,0,0,0,0,0,0,0,0,0,0,0,0,0,0,0,0,0,0,0,0,0,0,0,0,0,0,0,0,0,0,0,0,0,0,0,0,0,0,0,0,0,0,0,0,0,0,0,0,0,0,0,0,0,0,0,0,0,0,0,0,0,0,0,0,0,0,0,0,0,0,0,0,0,0,0,0,0,0,0,0,0,0,0,0,0,0,0,0,0,0,0,0,0,0,0,0,0,0,0,0,0,0,0,0,0,0,0,0,0,0,0,0,0,0,0,0,0,0,0,0,0,0,0,0,0,0,0,0,0,0,0,0,0,0,0,0,0,0,0,0,0,0,0,0,0,0,0,0,0,0,0,0,0,0,0,0,0,0,0,0,0,0,0,0,0,0,0,0,0,0,0,0,0,0,0,0,0,0,0,0,0,0,0,0,0,0,0,0,0,0,0,0,0,0,0,0,0,0,0,0,0,0,0,0,0,0,0,0,0,0,0,0,0,0,0,0,0,0,0,0,0,0,0,0,0,0,0,0,0,0,0,0,0,0,0,0,0,0,0,0,0,0,0,0,0,0,0,0,0,0,0,0,0,0,0,0,0,0,0,0,0,0,0,0,0,0,0,0,0,0,0,0,0,0,0,0,0,0,0,0,0,0,0,0,0,0,0,0,0,0,0,0,0,0,0,0,0,0,0,0,0,0,0,0,0,0,0,0,0,0,0,0,0,0,0,0,0,0,0,0,0,0,0,0,0,0,0,0,0,0,0,0,0,0,0,0,0,0,0,0,0,0,0,0,0,0,0,0,0,0,0,0,0,0,0,0,0,0,0,0,0,0,0,0,0,0,0,0,0,0,0,0,0,0,0,0,0,0,0,0,0,0,0,0,0,0,0,0,0,0,0,0,0,0,0,0,0,0,0,0,0,0,0,0,0,0,0,0,0,0,0,0,0,0,0,0,0,0,0,0,0,0,0,0,0,0,0,0,0,0,0,0,0,0,0,0,0,0,0,0,0,0,0,0,0,0,0,0,0,0,0,0,0,0,0,0,0,0,0,0,0,0,0,0,0,0,0,0,0,0,0,0,0,0,0,0,0,0,0,0,0,0,0,0,0,0,0,0,0,0,0,0,0,0,0,0,0,0,0,0,0,0,0,0,0,0,0,0,0,0,0,0,0,0,0,0,0,0,0,0,0,0,0,0,0,0,0,0,0,0,0,0,0,0,0,0,0,0,0,0,0,0,0,0,0,0,0,0,0,0,0,0,0,0,0,0,0,0,0,0,0,0,0,0,0,0,0,0,0,0,0,0,0,0,0,0,0,0,0,0,0,0,0,0,0,0,0,0,0,0,0,0,0,0,0,0,0,0,0,0,0,0,0,0,0,0,0,0,0,0,0,0,0,0,0,0,0,0,0,0,0,0,0,0,0,0,0,0,0,0,0,0,0,0,0,0,0,0,0,0,0,0,0,0,0,0,0,0,0,0,0,0,0,0,0,0,0,0,0,0,0,0,0,0,0,0,0,0,0,0,0,0,0,0,0,0,0,0,0,0,0,0,0,0,0,0,0,0,0,0,0,0,0,0,0,0,0,0,0,0,0,0,0,0,0,0,0,0,0,0,0,0,0,0,0,0,0,0,0,0,0,0,0,0,0,0,0,0,0,0,0,0,0,0,0,0,0,0,0,0,0,0,0,0,0,0,0,0,0,0,0,0,0,0,0,0,0,0,0,0,0,0,0,0,0,0,0,0,0,0,0,0,0,0,0,0,0,0,0,0,0,0,0,0,0,0,0,0,0,0,0,0,0,0,0,0,0,0,0,0,0,0,0,0,0,0,0,0,0,0,0,0,0,0,0,0,0,0,0,0,0,0,0,0,0,0,0,0,0,0,0,0,0,0,0,0,0,0,0,0,0,0,0,0,0,0,0,0,0,0,0,0,0,0,0,0,0,0,0,0,0,0,0,0,0,0,0,0,0,0,0,0,0,0,0,0,0,0,0,0,0,0,0,0,0,0,0,0,0,0,0,0,0,0,0,0,0,0,0,0,0,0,0,0,0,0,0,0,0,0,0,0,0,0,0,0,0,0,0,0,0,0,0,0,0,0,0,0,0,0,0,0,0,0,0,0,0,0,0,0,0,0,0,0,0,0,0,0,0,0,0,0,0,0,0,0,0,0,0,0,0,0,0,0,0,0,0,0,0,0,0,0,0,0,0,0,0,0,0,0,0,0,0,0,0,0,0,0,0,0,0,0,0,0,0,0,0,0,0,0,0,0,0,0,0,0,0,0,0,0,0,0,0,0,0,0,0,0,0,0,0,0,0,0,0,0,0,0,0,0,0,0,0,0,0,0,0,0,0,0,0,0,0,0,0,0,0,0,0,0,0,0,0,0,0,0,0,0,0,0,0,0,0,0,0,0,0,0,0,0,0,0,0,0,0,0,0,0,0,0,0,0,0,0,0,0,0,0,0,0,0,0,0,0,0,0,0,0,0,0,0,0,0,0,0,0,0,0,0,0,0,0,0,0,0,0,0,0,0,0,0,0,0,0,0,0,0,0,0,0,0,0,0,0,0,0,0,0,0,0,0,0,0,0,0,0,0,0,0,0,0,0,0,0,0,0,0,0,0,0,0,0,0,0,0,0,0,0,0,0,0,0,0,0,0,0,0,0,0,0,0,0,0,0,0,0,0,0,0,0,0,0,0,0,0,0,0,0,0,0,0,0,0,0,0,0,0,0,0,0,0,0,0,0,0,0,0,0,0,0,0,0,0,0,0,0,0,0,0,0,0,0,0,0,0,0,0,0,0,0,0,0,0,0,0,0,0,0,0,0,0,0,0,0,0,0,0,0,0,0,0,0,0,0,0,0,0,0,0,0,0,0,0,0,0,0,0,0,0,0,0,0,0,0,0,0,0,0,0,0,0,0,0,0,0,0,0,0,0,0,0,0,0,0,0,0,0,0,0,0,0,0,0,0,0,0,0,0,0,0,0,0,0,0,0,0,0,0,0,0,0,0,0,0,0,0,0,0,0,0,0,0,0,0,0,0,0,0,0,0,0,0,0,0,0,0,0,0,0,0,0,0,0,0,0,0,0,0,0,0,0,0,0,0,0,0,0,0,0,0,0,0,0,0,0,0,0,0,0,0,0,0,0,0,0,0,0,0,0,0,0,0,0,0,0,0,0,0,0,0,0,0,0,0,0,0,0,0,0,0,0,0,0,0,0,0,0,0,0,0,0,0,0,0,0,0,0,0,0,0,0,0,0,0,0,0,0,0,0,0,0,0,0,0,0,0,0,0,0,0,0,0,0,0,0,0,0,0,0,0,0,0,0,0,0,0,0,0,0,0,0,0,0,0,0,0,0,0,0,0,0,0,0,0,0,0,0,0,0,0,0,0,0,0,0,0,0,0,0,0,0,0,0,0,0,0,0,0,0,0,0,0,0,0,0,0,0,0,0,0,0,0,0,0,0,0,0,0,0,0,0,0,0,0,0,0,0,0,0,0,0,0,0,0,0,0,0,0,0,0,0,0,0,0,0,0,0,0,0,0,0,0,0,0,0,0,0,0,0,0,0,0,0,0,0,0,0,0,0,0,0,0,0,0,0,0,0,0,0,0,0,0,0,0,0,0,0,0,0,0,0,0,0,0,0,0,0,0,0,0,0,0,0,0,0,0,0,0,0,0,0,0,0,0,0,0,0,0,0,0,0,0,0,0,0,0,0,0,0,0,0,0,0,0,0,0,0,0,0,0,0,0,0,0,0,0,0,0,0,0,0,0,0,0,0,0,0,0,0,0,0,0,0,0,0,0,0,0,0,0,0,0,0,0,0,0,0,0,0,0,0,0,0,0,0,0,0,0,0,0,0,0,0,0,0,0,0,0,0,0,0,0,0,0,0,0,0,0,0,0,0,0,0,0,0,0,0,0,0,0,0,0,0,0,0,0,0,0,0,0,0,0,0,0,0,0,0,0,0,0,0,0,0,0,0,0,0,0,0,0,0,0,0,0,0,0,0,0,0,0,0,0,0,0,0,0,0,0,0,0,0,0,0,0,0,0,0,0,0,0,0,0,0,0,0,0,0,0,0,0,0,0,0,0,0,0,0,0,0,0,0,0,0,0,0,0,0,0,0,0,0,0,0,0,0,0,0,0,0,0,0,0,0,0,0,0,0,0,0,0,0,0,0,0,0,0,0,0,0,0,0,0,0,0,0,0,0,0,0,0,0,0,0,0,0,0,0,0,0,0,0,0,0,0,0,0,0,0,0,0,0,0,0,0,0,0,0,0,0,0,0,0,0,0,0,0,0,0,0,0,0,0,0,0,0,0,0,0,0,0,0,0,0,0,0,0,0,0,0,0,0,0,0,0,0,0,0,0,0,0,0,0,0,0,0,0,0,0,0,0,0,0,0,0,0,0,0,0,0,0,0,0,0,0,0,0,0,0,0,0,0,0,0,0,0,0,0,0,0,0,0,0,0,0,0,0,0,0,0,0,0,0,0,0,0,0,0,0,0,0,0,0,0,0,0,0,0,0,0,0,0,0,0,0,0,0,0,0,0,0,0,0,0,0,0,0,0,0,0,0,0,0,0,0,0,0,0,0,0,0,0,0,0,0,0,0,0,0,0,0,0,0,0,0,0,0,0,0,0,0],"trees":[{"base_weights":[3.913032E-3,1.2502978E0,-1.14961304E-1,7.2781746E-3,8.9910656E-1,5.676693E-1,-2.4409738E-1,5.101118E-3,2.7835863E-3,3.990674E-3,1.4242326E-3,-1.6558992E-3,1.3654315E-3],"categories":[],"categories_nodes":[],"categories_segments":[],"categories_sizes":[],"default_left":[0,0,0,0,0,0,0,0,0,0,0,0,0],"id":0,"left_children":[1,3,5,-1,7,9,11,-1,-1,-1,-1,-1,-1],"loss_changes":[5.104031E3,5.424419E2,2.773543E3,0E0,1.1405664E2,4.4067566E2,2.6352795E3,0E0,0E0,0E0,0E0,0E0,0E0],"parents":[2147483647,0,0,1,1,2,2,4,4,5,5,6,6],"right_children":[2,4,6,-1,8,10,12,-1,-1,-1,-1,-1,-1],"split_conditions":[-4.8562395E-4,-8.676508E-4,-2.0319019E-3,7.2781746E-3,-1.1642063E-3,-5.055533E-3,1.7978391E-3,5.101118E-3,2.7835863E-3,3.990674E-3,1.4242326E-3,-1.6558992E-3,1.3654315E-3],"split_indices":[6,6,7,0,7,7,7,0,0,0,0,0,0],"split_type":[0,0,0,0,0,0,0,0,0,0,0,0,0],"sum_hessian":[3.436663E4,2.9696687E3,3.1396959E4,1.0819546E3,1.887714E3,4.9747354E3,2.6422223E4,6.013992E2,1.2863148E3,1.5993003E3,3.3754353E3,2.049054E4,5.931684E3],"tree_param":{"num_deleted":"0","num_feature":"11","num_nodes":"13","size_leaf_vector":"1"}},{"base_weights":[-6.2748087E-3,1.2164851E0,-1.2885407E-1,6.6225748E-3,8.57293E-1,6.620238E-1,-2.4272475E-1,2.9220288E-3,4.4722552E-3,4.3270565E-3,1.8823886E-3,-1.5272113E-3,2.0594103E-3],"categories":[],"categories_nodes":[],"categories_segments":[],"categories_sizes":[],"default_left":[0,0,0,0,0,0,0,0,0,0,0,0,0],"id":1,"left_children":[1,3,5,-1,7,9,11,-1,-1,-1,-1,-1,-1],"loss_changes":[5.164498E3,4.4506982E2,2.8257551E3,0E0,2.9225586E1,2.9735852E2,2.894401E3,0E0,0E0,0E0,0E0,0E0,0E0],"parents":[2147483647,0,0,1,1,2,2,4,4,5,5,6,6],"right_children":[2,4,6,-1,8,10,12,-1,-1,-1,-1,-1,-1],"split_conditions":[-2.3385E-4,-3.8216484E-4,-1.8652463E-3,6.6225748E-3,2.4316334E-3,-3.977027E-3,1.9836694E-3,2.9220288E-3,4.4722552E-3,4.3270565E-3,1.8823886E-3,-1.5272113E-3,2.0594103E-3],"split_indices":[8,8,0,0,1,0,1,0,0,0,0,0,0],"split_type":[0,0,0,0,0,0,0,0,0,0,0,0,0],"sum_hessian":[3.44168E4,3.10923E3,3.1307572E4,1.3464226E3,1.7628073E3,3.9188455E3,2.7388727E4,1.2705935E3,4.922138E2,1.1788289E3,2.7400166E3,2.3156445E4,4.2322812E3],"tree_param":{"num_deleted":"0","num_feature":"11","num_nodes":"13","size_leaf_vector":"1"}},{"base_weights":[6.337727E-6,-1.4805529E-1,9.002737E-1,5.9221816E-1,-3.0196452E-1,1.5046444E0,6.7832834E-1,4.4445787E-3,1.7086718E-3,-1.5767491E-3,1.4853437E-3,4.6653003E-3,7.2490647E-3,1.6274889E-3,4.06212E-3],"categories":[],"categories_nodes":[],"categories_segments":[],"categories_sizes":[],"default_left":[0,0,0,0,0,0,0,0,0,0,0,0,0,0,0],"id":2,"left_children":[1,3,5,7,9,11,13,-1,-1,-1,-1,-1,-1,-1,-1],"loss_changes":[4.589987E3,3.3717227E3,6.152615E2,4.1741455E2,1.5251492E3,6.067798E1,3.1430432E2,0E0,0E0,0E0,0E0,0E0,0E0,0E0,0E0],"parents":[2147483647,0,0,1,1,2,2,3,3,4,4,5,5,6,6],"right_children":[2,4,6,8,10,12,14,-1,-1,-1,-1,-1,-1,-1,-1],"split_conditions":[1.5491408E-3,-2.303167E-3,-1.5970371E-3,-6.1000558E-3,1.7980693E-3,3.219026E-3,2.7345554E-3,4.4445787E-3,1.7086718E-3,-1.5767491E-3,1.4853437E-3,4.6653003E-3,7.2490647E-3,1.6274889E-3,4.06212E-3],"split_indices":[0,1,9,1,1,0,0,0,0,0,0,0,0,0,0],"split_type":[0,0,0,0,0,0,0,0,0,0,0,0,0,0,0],"sum_hessian":[3.435786E4,2.9523963E4,4.833897E3,5.063687E3,2.4460275E4,1.2481664E3,3.5857307E3,1.176034E3,3.887653E3,2.1528398E4,2.9318774E3,6.675246E2,5.8064185E2,2.0281287E3,1.5576019E3],"tree_param":{"num_deleted":"0","num_feature":"11","num_nodes":"15","size_leaf_vector":"1"}},{"base_weights":[-1.9342125E-3,8.100761E-1,-1.5306462E-1,1.2113907E0,5.3360707E-1,-3.1973964E-1,5.738722E-1,6.0157436E-3,4.0094634E-3,3.2227854E-3,1.8453792E-3,8.249545E-4,-1.5424063E-3,1.7232137E-3,4.1587516E-3],"categories":[],"categories_nodes":[],"categories_segments":[],"categories_sizes":[],"default_left":[0,0,0,0,0,0,0,0,0,0,0,0,0,0,0],"id":3,"left_children":[1,3,5,7,9,11,13,-1,-1,-1,-1,-1,-1,-1,-1],"loss_changes":[4.2232334E3,5.7444385E2,3.5220876E3,8.0218506E1,4.9047546E1,8.217915E2,3.434945E2,0E0,0E0,0E0,0E0,0E0,0E0,0E0,0E0],"parents":[2147483647,0,0,1,1,2,2,3,3,4,4,5,5,6,6],"right_children":[2,4,6,8,10,12,14,-1,-1,-1,-1,-1,-1,-1,-1],"split_conditions":[-3.210156E-3,-6.904852E-3,3.428795E-3,-1.1644297E-2,9.095076E-4,-3.019602E-3,9.385299E-3,6.0157436E-3,4.0094634E-3,3.2227854E-3,1.8453792E-3,8.249545E-4,-1.5424063E-3,1.7232137E-3,4.1587516E-3],"split_indices":[5,5,5,5,2,2,5,0,0,0,0,0,0,0,0],"split_type":[0,0,0,0,0,0,0,0,0,0,0,0,0,0,0],"sum_hessian":[3.4369477E4,5.3694175E3,2.9000059E4,2.1443862E3,3.2250315E3,2.3608043E4,5.3920156E3,8.102216E2,1.3341646E3,6.041653E2,2.6208662E3,2.6149966E3,2.0993047E4,4.1741646E3,1.2178511E3],"tree_param":{"num_deleted":"0","num_feature":"11","num_nodes":"15","size_leaf_vector":"1"}},{"base_weights":[-0E0,1.2240896E0,-1.227694E-1,6.9317925E-3,9.4278854E-1,6.0682124E-1,-2.3051292E-1,5.111962E-3,3.0187387E-3,3.683276E-3,1.5185687E-3,-1.5582107E-3,1.4898867E-3],"categories":[],"categories_nodes":[],"categories_segments":[],"categories_sizes":[],"default_left":[0,0,0,0,0,0,0,0,0,0,0,0,0],"id":4,"left_children":[1,3,5,-1,7,9,11,-1,-1,-1,-1,-1,-1],"loss_changes":[5.1871973E3,3.933418E2,2.4681284E3,0E0,9.711719E1,2.7378015E2,2.6271243E3,0E0,0E0,0E0,0E0,0E0,0E0],"parents":[2147483647,0,0,1,1,2,2,4,4,5,5,6,6],"right_children":[2,4,6,-1,8,10,12,-1,-1,-1,-1,-1,-1],"split_conditions":[-2.3385E-4,-8.676508E-4,-2.4314488E-3,6.9317925E-3,-1.8753303E-3,-4.852646E-3,1.9336564E-3,5.111962E-3,3.0187387E-3,3.683276E-3,1.5185687E-3,-1.5582107E-3,1.4898867E-3],"split_indices":[8,6,7,0,7,7,7,0,0,0,0,0,0],"split_type":[0,0,0,0,0,0,0,0,0,0,0,0,0],"sum_hessian":[3.4445043E4,3.1163987E3,3.1328645E4,1.0505436E3,2.0658552E3,4.0097324E3,2.7318912E4,6.743644E2,1.3914907E3,1.6392388E3,2.3704937E3,2.1629605E4,5.6893066E3],"tree_param":{"num_deleted":"0","num_feature":"11","num_nodes":"13","size_leaf_vector":"1"}},{"base_weights":[1.0853795E-3,9.653106E-1,-1.4856562E-1,1.4675988E0,6.934908E-1,-3.0341154E-1,5.2687234E-1,7.612154E-3,5.1212017E-3,3.9349645E-3,1.659371E-3,2.2876223E-3,-1.5468341E-3,1.1844875E-3,3.4905358E-3],"categories":[],"categories_nodes":[],"categories_segments":[],"categories_sizes":[],"default_left":[0,0,0,0,0,0,0,0,0,0,0,0,0,0,0],"id":5,"left_children":[1,3,5,7,9,11,13,-1,-1,-1,-1,-1,-1,-1,-1],"loss_changes":[4.976318E3,5.9563574E2,3.1246423E3,4.754883E1,2.3164514E2,1.7774106E3,4.332777E2,0E0,0E0,0E0,0E0,0E0,0E0,0E0,0E0],"parents":[2147483647,0,0,1,1,2,2,3,3,4,4,5,5,6,6],"right_children":[2,4,6,8,10,12,14,-1,-1,-1,-1,-1,-1,-1,-1],"split_conditions":[-1.307539E-3,-3.8962034E-4,1.1422314E-3,-1.1873282E-3,-2.1944558E-3,-3.6164833E-4,2.3747662E-3,7.612154E-3,5.1212017E-3,3.9349645E-3,1.659371E-3,2.2876223E-3,-1.5468341E-3,1.1844875E-3,3.4905358E-3],"split_indices":[3,6,3,6,3,6,3,0,0,0,0,0,0,0,0],"split_type":[0,0,0,0,0,0,0,0,0,0,0,0,0,0,0],"sum_hessian":[3.4409777E4,4.603732E3,2.9806045E4,1.5663345E3,3.0373975E3,2.4264346E4,5.5416997E3,3.8362827E2,1.1827062E3,1.4452708E3,1.5921268E3,2.0899844E3,2.2174361E4,3.3622246E3,2.1794749E3],"tree_param":{"num_deleted":"0","num_feature":"11","num_nodes":"15","size_leaf_vector":"1"}},{"base_weights":[3.311635E-3,8.489641E-1,-1.6197447E-1,1.1380304E0,5.0057465E-1,5.99515E-1,-3.33147E-1,5.7077585E-3,3.6662286E-3,3.2013874E-3,1.7455546E-3,4.621199E-3,1.6916797E-3,8.399958E-4,-1.5693585E-3],"categories":[],"categories_nodes":[],"categories_segments":[],"categories_sizes":[],"default_left":[0,0,0,0,0,0,0,0,0,0,0,0,0,0,0],"id":6,"left_children":[1,3,5,7,9,11,13,-1,-1,-1,-1,-1,-1,-1,-1],"loss_changes":[4.8178857E3,5.455957E2,3.76158E3,1.4902124E2,3.6109802E1,5.004629E2,7.6022E2,0E0,0E0,0E0,0E0,0E0,0E0,0E0,0E0],"parents":[2147483647,0,0,1,1,2,2,3,3,4,4,5,5,6,6],"right_children":[2,4,6,8,10,12,14,-1,-1,-1,-1,-1,-1,-1,-1],"split_conditions":[-1.0839683E-3,-1.8928768E-3,-2.303167E-3,-3.3568628E-3,-5.6937044E-3,-6.1000558E-3,-2.2837508E-3,5.7077585E-3,3.6662286E-3,3.2013874E-3,1.7455546E-3,4.621199E-3,1.6916797E-3,8.399958E-4,-1.5693585E-3],"split_indices":[3,3,1,3,5,1,5,0,0,0,0,0,0,0,0],"split_type":[0,0,0,0,0,0,0,0,0,0,0,0,0,0,0],"sum_hessian":[3.4394703E4,5.606133E3,2.878857E4,3.0220586E3,2.5840745E3,5.2666045E3,2.3521965E4,1.2346449E3,1.7874137E3,3.8679337E2,2.197281E3,1.225724E3,4.0408804E3,2.2990437E3,2.1222922E4],"tree_param":{"num_deleted":"0","num_feature":"11","num_nodes":"15","size_leaf_vector":"1"}},{"base_weights":[2.5468785E-3,1.2062064E0,-1.203536E-1,1.5837145E0,8.334691E-1,-2.2591548E-1,6.1039054E-1,7.269864E-3,5.310019E-3,2.6594934E-3,4.205607E-3,1.8998277E-3,-1.4765676E-3,1.7492884E-3,4.1342434E-3],"categories":[],"categories_nodes":[],"categories_segments":[],"categories_sizes":[],"default_left":[0,0,0,0,0,0,0,0,0,0,0,0,0,0,0],"id":7,"left_children":[1,3,5,7,9,11,13,-1,-1,-1,-1,-1,-1,-1,-1],"loss_changes":[5.108277E3,4.033457E2,2.4182546E3,1.1145508E1,3.550476E1,2.7538481E3,2.7180457E2,0E0,0E0,0E0,0E0,0E0,0E0,0E0,0E0],"parents":[2147483647,0,0,1,1,2,2,3,3,4,4,5,5,6,6],"right_children":[2,4,6,8,10,12,14,-1,-1,-1,-1,-1,-1,-1,-1],"split_conditions":[-2.3385E-4,-3.6240704E-4,4.2213146E-3,-5.3146237E-4,-4.35017E-4,-2.2000615E-3,9.504079E-3,7.269864E-3,5.310019E-3,2.6594934E-3,4.205607E-3,1.8998277E-3,-1.4765676E-3,1.7492884E-3,4.1342434E-3],"split_indices":[8,8,2,8,2,1,2,0,0,0,0,0,0,0,0],"split_type":[0,0,0,0,0,0,0,0,0,0,0,0,0,0,0],"sum_hessian":[3.445018E4,3.1694338E3,3.1280744E4,1.5222181E3,1.6472157E3,2.735406E4,3.9266836E3,6.942783E2,8.2793976E2,1.00501306E3,6.422027E2,4.6260835E3,2.2727977E4,2.835224E3,1.0914596E3],"tree_param":{"num_deleted":"0","num_feature":"11","num_nodes":"15","size_leaf_vector":"1"}},{"base_weights":[1.5706684E-3,1.0024886E0,-1.18975826E-1,1.494902E0,6.946052E-1,5.9700227E-1,-2.3935394E-1,6.9876015E-3,4.718058E-3,4.6348036E-3,2.065563E-3,3.7907779E-3,1.4825119E-3,1.7059222E-3,-1.6162142E-3],"categories":[],"categories_nodes":[],"categories_segments":[],"categories_sizes":[],"default_left":[0,0,0,0,0,0,0,0,0,0,0,0,0,0,0],"id":8,"left_children":[1,3,5,7,9,11,13,-1,-1,-1,-1,-1,-1,-1,-1],"loss_changes":[4.1628076E3,5.24563E2,2.6552783E3,4.0439453E1,1.7071094E2,3.3750256E2,2.8965542E3,0E0,0E0,0E0,0E0,0E0,0E0,0E0,0E0],"parents":[2147483647,0,0,1,1,2,2,3,3,4,4,5,5,6,6],"right_children":[2,4,6,8,10,12,14,-1,-1,-1,-1,-1,-1,-1,-1],"split_conditions":[-1.8568956E-3,-3.3485447E-3,-3.1250487E-3,-4.7292947E-3,-3.2923557E-3,-6.6167316E-3,-1.957019E-3,6.9876015E-3,4.718058E-3,4.6348036E-3,2.065563E-3,3.7907779E-3,1.4825119E-3,1.7059222E-3,-1.6162142E-3],"split_indices":[9,9,5,9,5,5,1,0,0,0,0,0,0,0,0],"split_type":[0,0,0,0,0,0,0,0,0,0,0,0,0,0,0],"sum_hessian":[3.4419504E4,3.6788438E3,3.074066E4,1.3670482E3,2.3117957E3,4.40387E3,2.633679E4,6.789113E2,6.8813684E2,5.9096185E2,1.7208337E3,1.6848726E3,2.7189976E3,5.209665E3,2.1127125E4],"tree_param":{"num_deleted":"0","num_feature":"11","num_nodes":"15","size_leaf_vector":"1"}},{"base_weights":[4.024846E-3,1.168803E0,-1.1992003E-1,6.8954094E-3,8.668346E-1,-2.1782427E-1,7.312151E-1,2.8500436E-3,4.7270427E-3,1.685351E-3,-1.4681198E-3,2.1044658E-3,4.059771E-3],"categories":[],"categories_nodes":[],"categories_segments":[],"categories_sizes":[],"default_left":[0,0,0,0,0,0,0,0,0,0,0,0,0],"id":9,"left_children":[1,3,5,-1,7,9,11,-1,-1,-1,-1,-1,-1],"loss_changes":[4.9723394E3,5.0263818E2,2.5954924E3,0E0,7.643201E1,2.6676343E3,1.6632361E2,0E0,0E0,0E0,0E0,0E0,0E0],"parents":[2147483647,0,0,1,1,2,2,4,4,5,5,6,6],"right_children":[2,4,6,-1,8,10,12,-1,-1,-1,-1,-1,-1],"split_conditions":[-4.5851152E-4,-8.676508E-4,2.780059E-3,6.8954094E-3,1.6769996E-3,-1.957019E-3,4.990412E-3,2.8500436E-3,4.7270427E-3,1.685351E-3,-1.4681198E-3,2.1044658E-3,4.059771E-3],"split_indices":[6,6,1,0,1,1,1,0,0,0,0,0,0],"split_type":[0,0,0,0,0,0,0,0,0,0,0,0,0],"sum_hessian":[3.436113E4,3.2827383E3,3.107839E4,1.1033922E3,2.179346E3,2.789548E4,3.1829102E3,1.5346968E3,6.446493E2,5.2653096E3,2.2630172E4,1.9032833E3,1.2796268E3],"tree_param":{"num_deleted":"0","num_feature":"11","num_nodes":"13","size_leaf_vector":"1"}},{"base_weights":[-3.7335884E-3,1.1838505E0,-1.2530655E-1,1.5221357E0,7.804099E-1,6.4235634E-1,-2.3773715E-1,7.044735E-3,5.2056136E-3,4.369612E-3,2.4570115E-3,4.2572366E-3,1.8946732E-3,2.1863482E-3,-1.506817E-3],"categories":[],"categories_nodes":[],"categories_segments":[],"categories_sizes":[],"default_left":[0,0,0,0,0,0,0,0,0,0,0,0,0,0,0],"id":10,"left_children":[1,3,5,7,9,11,13,-1,-1,-1,-1,-1,-1,-1,-1],"loss_changes":[4.9793096E3,3.9451758E2,2.7054126E3,1.20842285E1,5.386615E1,2.652661E2,2.9847944E3,0E0,0E0,0E0,0E0,0E0,0E0,0E0,0E0],"parents":[2147483647,0,0,1,1,2,2,3,3,4,4,5,5,6,6],"right_children":[2,4,6,8,10,12,14,-1,-1,-1,-1,-1,-1,-1,-1],"split_conditions":[-2.3385E-4,-3.4574245E-4,-1.8652463E-3,-5.3146237E-4,-3.210156E-3,-4.1990355E-3,-3.1250487E-3,7.044735E-3,5.2056136E-3,4.369612E-3,2.4570115E-3,4.2572366E-3,1.8946732E-3,2.1863482E-3,-1.506817E-3],"split_indices":[8,8,0,8,5,0,5,0,0,0,0,0,0,0,0],"split_type":[0,0,0,0,0,0,0,0,0,0,0,0,0,0,0],"sum_hessian":[3.444915E4,3.1724358E3,3.1276713E4,1.6762643E3,1.4961714E3,3.97408E3,2.7302633E4,6.977081E2,9.7855615E2,4.5553067E2,1.0406407E3,1.0844342E3,2.889646E3,4.0928994E3,2.3209734E4],"tree_param":{"num_deleted":"0","num_feature":"11","num_nodes":"15","size_leaf_vector":"1"}},{"base_weights":[-5.5367583E-3,1.1731546E0,-1.2658669E-1,1.5537796E0,8.5632986E-1,5.568784E-1,-2.4615368E-1,6.900074E-3,4.8459494E-3,3.9934274E-3,2.768838E-3,3.7934543E-3,1.5656004E-3,-1.5029166E-3,1.679985E-3],"categories":[],"categories_nodes":[],"categories_segments":[],"categories_sizes":[],"default_left":[0,0,0,0,0,0,0,0,0,0,0,0,0,0,0],"id":11,"left_children":[1,3,5,7,9,11,13,-1,-1,-1,-1,-1,-1,-1,-1],"loss_changes":[4.9190176E3,3.4002588E2,2.5598608E3,1.1569824E1,1.6696167E1,2.8697412E2,2.3051265E3,0E0,0E0,0E0,0E0,0E0,0E0,0E0,0E0],"parents":[2147483647,0,0,1,1,2,2,3,3,4,4,5,5,6,6],"right_children":[2,4,6,8,10,12,14,-1,-1,-1,-1,-1,-1,-1,-1],"split_conditions":[-2.3385E-4,-3.8216484E-4,-1.6410903E-3,-1.7641332E-3,-1.2729856E-3,-3.7627225E-3,1.1708398E-3,6.900074E-3,4.8459494E-3,3.9934274E-3,2.768838E-3,3.7934543E-3,1.5656004E-3,-1.5029166E-3,1.679985E-3],"split_indices":[8,8,0,9,9,0,0,0,0,0,0,0,0,0,0],"split_type":[0,0,0,0,0,0,0,0,0,0,0,0,0,0,0],"sum_hessian":[3.443653E4,3.180615E3,3.1255918E4,1.3873239E3,1.7932913E3,4.633759E3,2.6622158E4,8.380962E2,5.492276E2,8.698055E2,9.234858E2,1.3291715E3,3.3045872E3,2.2301742E4,4.320417E3],"tree_param":{"num_deleted":"0","num_feature":"11","num_nodes":"15","size_leaf_vector":"1"}},{"base_weights":[7.2854767E-3,1.1848471E0,-1.1438451E-1,1.5187992E0,8.5073256E-1,5.494592E-1,-2.379681E-1,6.8175145E-3,4.6533523E-3,4.0086643E-3,2.7050474E-3,3.4678741E-3,1.2874218E-3,-1.4732726E-3,1.6931546E-3],"categories":[],"categories_nodes":[],"categories_segments":[],"categories_sizes":[],"default_left":[0,0,0,0,0,0,0,0,0,0,0,0,0,0,0],"id":12,"left_children":[1,3,5,7,9,11,13,-1,-1,-1,-1,-1,-1,-1,-1],"loss_changes":[4.9454023E3,3.148208E2,2.5678667E3,3.5746094E1,1.9247437E1,3.4303223E2,2.2784795E3,0E0,0E0,0E0,0E0,0E0,0E0,0E0,0E0],"parents":[2147483647,0,0,1,1,2,2,3,3,4,4,5,5,6,6],"right_children":[2,4,6,8,10,12,14,-1,-1,-1,-1,-1,-1,-1,-1],"split_conditions":[-2.3385E-4,-3.6240704E-4,-1.5653982E-3,-1.6359127E-3,-1.2729856E-3,-3.0001593E-3,1.1708398E-3,6.8175145E-3,4.6533523E-3,4.0086643E-3,2.7050474E-3,3.4678741E-3,1.2874218E-3,-1.4732726E-3,1.6931546E-3],"split_indices":[8,8,0,9,9,0,0,0,0,0,0,0,0,0,0],"split_type":[0,0,0,0,0,0,0,0,0,0,0,0,0,0,0],"sum_hessian":[3.4436324E4,3.2026401E3,3.1233684E4,1.5440203E3,1.65862E3,4.8819673E3,2.6351715E4,9.3407355E2,6.099467E2,8.025358E2,8.5608417E2,1.9977018E3,2.8842656E3,2.2027398E4,4.324317E3],"tree_param":{"num_deleted":"0","num_feature":"11","num_nodes":"15","size_leaf_vector":"1"}},{"base_weights":[-2.4909424E-3,1.1407759E0,-1.2152222E-1,1.4413085E0,7.855619E-1,-2.3163475E-1,5.526848E-1,6.7908447E-3,4.832378E-3,2.5981683E-3,3.9593615E-3,-1.3278209E-3,1.9071356E-3,1.5566659E-3,3.7650322E-3],"categories":[],"categories_nodes":[],"categories_segments":[],"categories_sizes":[],"default_left":[0,0,0,0,0,0,0,0,0,0,0,0,0,0,0],"id":13,"left_children":[1,3,5,7,9,11,13,-1,-1,-1,-1,-1,-1,-1,-1],"loss_changes":[4.6893135E3,3.0620703E2,2.3214702E3,3.257422E1,1.9128601E1,1.9140698E3,2.63937E2,0E0,0E0,0E0,0E0,0E0,0E0,0E0,0E0],"parents":[2147483647,0,0,1,1,2,2,3,3,4,4,5,5,6,6],"right_children":[2,4,6,8,10,12,14,-1,-1,-1,-1,-1,-1,-1,-1],"split_conditions":[-2.3385E-4,-3.4574245E-4,1.852285E-4,-5.3146237E-4,1.7980693E-3,2.0338325E-3,4.0582925E-4,6.7908447E-3,4.832378E-3,2.5981683E-3,3.9593615E-3,-1.3278209E-3,1.9071356E-3,1.5566659E-3,3.7650322E-3],"split_indices":[8,8,8,8,1,1,8,0,0,0,0,0,0,0,0],"split_type":[0,0,0,0,0,0,0,0,0,0,0,0,0,0,0],"sum_hessian":[3.442074E4,3.2191223E3,3.1201617E4,1.6895164E3,1.529606E3,2.68419E4,4.359718E3,7.0888916E2,9.8062726E2,1.00229736E3,5.2730865E2,2.3529957E4,3.3119436E3,3.116153E3,1.2435648E3],"tree_param":{"num_deleted":"0","num_feature":"11","num_nodes":"15","size_leaf_vector":"1"}},{"base_weights":[-9.1490505E-4,8.3587295E-1,-1.5632679E-1,1.334736E0,5.9895265E-1,-3.184246E-1,5.242649E-1,6.2376508E-3,4.3646414E-3,3.408302E-3,1.1834677E-3,2.072295E-3,-1.5681384E-3,1.1716433E-3,3.2309694E-3],"categories":[],"categories_nodes":[],"categories_segments":[],"categories_sizes":[],"default_left":[0,0,0,0,0,0,0,0,0,0,0,0,0,0,0],"id":14,"left_children":[1,3,5,7,9,11,13,-1,-1,-1,-1,-1,-1,-1,-1],"loss_changes":[4.48044E3,6.0795654E2,3.211706E3,3.4525146E1,2.741466E2,1.4528511E3,3.568711E2,0E0,0E0,0E0,0E0,0E0,0E0,0E0,0E0],"parents":[2147483647,0,0,1,1,2,2,3,3,4,4,5,5,6,6],"right_children":[2,4,6,8,10,12,14,-1,-1,-1,-1,-1,-1,-1,-1],"split_conditions":[-1.1432136E-3,-1.2460767E-3,1.1422314E-3,-2.481235E-3,-1.8928768E-3,-1.6776562E-3,2.193359E-3,6.2376508E-3,4.3646414E-3,3.408302E-3,1.1834677E-3,2.072295E-3,-1.5681384E-3,1.1716433E-3,3.2309694E-3],"split_indices":[3,9,3,3,3,9,3,0,0,0,0,0,0,0,0],"split_type":[0,0,0,0,0,0,0,0,0,0,0,0,0,0,0],"sum_hessian":[3.440806E4,5.3658623E3,2.9042197E4,1.678955E3,3.6869077E3,2.347216E4,5.5700376E3,7.8264984E2,8.9630505E2,1.9740428E3,1.7128647E3,1.8804915E3,2.1591668E4,3.1063984E3,2.4636392E3],"tree_param":{"num_deleted":"0","num_feature":"11","num_nodes":"15","size_leaf_vector":"1"}},{"base_weights":[2.254749E-3,1.1409166E0,-1.16717875E-1,6.4737685E-3,8.6964226E-1,6.26467E-1,-2.2036839E-1,4.8685805E-3,2.6767214E-3,3.719385E-3,1.6400923E-3,-1.5417007E-3,1.307317E-3],"categories":[],"categories_nodes":[],"categories_segments":[],"categories_sizes":[],"default_left":[0,0,0,0,0,0,0,0,0,0,0,0,0],"id":15,"left_children":[1,3,5,-1,7,9,11,-1,-1,-1,-1,-1,-1],"loss_changes":[4.66634E3,3.7245898E2,2.4035854E3,0E0,1.1947266E2,2.352987E2,2.4765137E3,0E0,0E0,0E0,0E0,0E0,0E0],"parents":[2147483647,0,0,1,1,2,2,4,4,5,5,6,6],"right_children":[2,4,6,-1,8,10,12,-1,-1,-1,-1,-1,-1],"split_conditions":[-2.3385E-4,-8.676508E-4,-2.5687483E-3,6.4737685E-3,-1.8753303E-3,-5.055533E-3,1.7136758E-3,4.8685805E-3,2.6767214E-3,3.719385E-3,1.6400923E-3,-1.5417007E-3,1.307317E-3],"split_indices":[8,6,7,0,7,7,7,0,0,0,0,0,0],"split_type":[0,0,0,0,0,0,0,0,0,0,0,0,0],"sum_hessian":[3.4363492E4,3.228805E3,3.1134688E4,1.1117484E3,2.1170566E3,3.7887434E3,2.7345945E4,7.1334656E2,1.4037101E3,1.5306135E3,2.25813E3,2.1019863E4,6.326082E3],"tree_param":{"num_deleted":"0","num_feature":"11","num_nodes":"13","size_leaf_vector":"1"}},{"base_weights":[1.497292E-3,1.1443495E0,-1.1116154E-1,6.459527E-3,8.4667337E-1,5.9442097E-1,-2.1987727E-1,4.681889E-3,2.6887315E-3,4.3719322E-3,1.8497702E-3,-1.583871E-3,1.5340068E-3],"categories":[],"categories_nodes":[],"categories_segments":[],"categories_sizes":[],"default_left":[0,0,0,0,0,0,0,0,0,0,0,0,0],"id":16,"left_children":[1,3,5,-1,7,9,11,-1,-1,-1,-1,-1,-1],"loss_changes":[4.4426494E3,3.853042E2,2.410292E3,0E0,8.1809814E1,2.5617334E2,2.8967632E3,0E0,0E0,0E0,0E0,0E0,0E0],"parents":[2147483647,0,0,1,1,2,2,4,4,5,5,6,6],"right_children":[2,4,6,-1,8,10,12,-1,-1,-1,-1,-1,-1],"split_conditions":[-4.8562395E-4,-8.676508E-4,-1.0839683E-3,6.459527E-3,-1.465919E-3,-3.1727E-3,9.480138E-4,4.681889E-3,2.6887315E-3,4.3719322E-3,1.8497702E-3,-1.583871E-3,1.5340068E-3],"split_indices":[6,6,3,0,3,3,3,0,0,0,0,0,0],"split_type":[0,0,0,0,0,0,0,0,0,0,0,0,0],"sum_hessian":[3.442166E4,3.066443E3,3.1355215E4,1.1328837E3,1.9335594E3,4.1646094E3,2.7190605E4,6.111075E2,1.322452E3,8.212136E2,3.3433958E3,2.105979E4,6.130817E3],"tree_param":{"num_deleted":"0","num_feature":"11","num_nodes":"13","size_leaf_vector":"1"}},{"base_weights":[-2.8072067E-3,8.778173E-1,-1.4402197E-1,1.1776067E0,6.2230647E-1,5.6340414E-1,-3.0824274E-1,6.057122E-3,4.1072485E-3,2.9509594E-3,1.7843321E-3,4.3391455E-3,1.6382711E-3,7.3752477E-4,-1.5447903E-3],"categories":[],"categories_nodes":[],"categories_segments":[],"categories_sizes":[],"default_left":[0,0,0,0,0,0,0,0,0,0,0,0,0,0,0],"id":17,"left_children":[1,3,5,7,9,11,13,-1,-1,-1,-1,-1,-1,-1,-1],"loss_changes":[4.2812026E3,3.3701245E2,3.4532686E3,5.4877686E1,4.022351E1,4.3136853E2,9.288721E2,0E0,0E0,0E0,0E0,0E0,0E0,0E0,0E0],"parents":[2147483647,0,0,1,1,2,2,3,3,4,4,5,5,6,6],"right_children":[2,4,6,8,10,12,14,-1,-1,-1,-1,-1,-1,-1,-1],"split_conditions":[-1.307539E-3,-2.481235E-3,-2.2000615E-3,-4.9378057E-3,-1.6566666E-3,-6.1000558E-3,-1.0830871E-3,6.057122E-3,4.1072485E-3,2.9509594E-3,1.7843321E-3,4.3391455E-3,1.6382711E-3,7.3752477E-4,-1.5447903E-3],"split_indices":[3,3,1,3,3,1,0,0,0,0,0,0,0,0,0],"split_type":[0,0,0,0,0,0,0,0,0,0,0,0,0,0,0],"sum_hessian":[3.4383867E4,4.727174E3,2.9656693E4,2.1199001E3,2.6072737E3,5.570225E3,2.4086467E4,5.6570874E2,1.5541914E3,1.5073103E3,1.0999634E3,1.2232705E3,4.3469546E3,3.2799392E3,2.080653E4],"tree_param":{"num_deleted":"0","num_feature":"11","num_nodes":"15","size_leaf_vector":"1"}},{"base_weights":[-4.5740562E-3,1.1048441E0,-1.2563291E-1,6.504305E-3,8.1928647E-1,5.6482095E-1,-2.3082945E-1,4.4957106E-3,2.5581506E-3,3.3143675E-3,1.2166455E-3,1.7752525E-3,-1.5610344E-3],"categories":[],"categories_nodes":[],"categories_segments":[],"categories_sizes":[],"default_left":[0,0,0,0,0,0,0,0,0,0,0,0,0],"id":18,"left_children":[1,3,5,-1,7,9,11,-1,-1,-1,-1,-1,-1],"loss_changes":[4.630556E3,4.575376E2,2.2623164E3,0E0,9.6653076E1,2.721532E2,2.9111672E3,0E0,0E0,0E0,0E0,0E0,0E0],"parents":[2147483647,0,0,1,1,2,2,4,4,5,5,6,6],"right_children":[2,4,6,-1,8,10,12,-1,-1,-1,-1,-1,-1],"split_conditions":[-4.5851152E-4,-8.676508E-4,-1.0839683E-3,6.504305E-3,-1.2716163E-3,-1.8928768E-3,-1.4233021E-3,4.4957106E-3,2.5581506E-3,3.3143675E-3,1.2166455E-3,1.7752525E-3,-1.5610344E-3],"split_indices":[6,6,3,0,3,3,0,0,0,0,0,0,0],"split_type":[0,0,0,0,0,0,0,0,0,0,0,0,0],"sum_hessian":[3.443881E4,3.361793E3,3.1077016E4,1.1363186E3,2.2254746E3,4.087732E3,2.6989283E4,7.6116565E2,1.4643088E3,1.9935314E3,2.0942007E3,5.1450576E3,2.1844225E4],"tree_param":{"num_deleted":"0","num_feature":"11","num_nodes":"13","size_leaf_vector":"1"}},{"base_weights":[-4.006728E-3,-1.3460371E-1,7.856753E-1,5.522165E-1,-2.91768E-1,4.9933136E-1,1.0404655E0,3.758108E-3,1.4246327E-3,1.2337054E-3,-1.4708205E-3,3.3618822E-3,1.4145573E-3,3.5185984E-3,5.60221E-3],"categories":[],"categories_nodes":[],"categories_segments":[],"categories_sizes":[],"default_left":[0,0,0,0,0,0,0,0,0,0,0,0,0,0,0],"id":19,"left_children":[1,3,5,7,9,11,13,-1,-1,-1,-1,-1,-1,-1,-1],"loss_changes":[3.5490432E3,3.1936135E3,3.3605005E2,4.044203E2,1.1005806E3,1.0491431E2,1.039021E2,0E0,0E0,0E0,0E0,0E0,0E0,0E0,0E0],"parents":[2147483647,0,0,1,1,2,2,3,3,4,4,5,5,6,6],"right_children":[2,4,6,8,10,12,14,-1,-1,-1,-1,-1,-1,-1,-1],"split_conditions":[2.4316334E-3,-2.2504744E-3,4.0665013E-3,-5.028099E-3,-1.3922264E-3,-1.1426056E-3,7.888391E-3,3.758108E-3,1.4246327E-3,1.2337054E-3,-1.4708205E-3,3.3618822E-3,1.4145573E-3,3.5185984E-3,5.60221E-3],"split_indices":[1,1,1,1,10,10,1,0,0,0,0,0,0,0,0],"split_type":[0,0,0,0,0,0,0,0,0,0,0,0,0,0,0],"sum_hessian":[3.4371445E4,2.95184E4,4.8530444E3,5.4792324E3,2.4039168E4,2.3323823E3,2.5206619E3,1.7980817E3,3.681151E3,2.6851133E3,2.1354055E4,6.490262E2,1.6833562E3,1.8196283E3,7.0103357E2],"tree_param":{"num_deleted":"0","num_feature":"11","num_nodes":"15","size_leaf_vector":"1"}},{"base_weights":[-2.2895252E-3,8.875178E-1,-1.4617951E-1,5.6546787E-3,6.709567E-1,-2.9385144E-1,4.984939E-1,3.5907826E-3,1.7130552E-3,1.9688911E-3,-1.4925735E-3,1.144198E-3,3.1990672E-3],"categories":[],"categories_nodes":[],"categories_segments":[],"categories_sizes":[],"default_left":[0,0,0,0,0,0,0,0,0,0,0,0,0],"id":20,"left_children":[1,3,5,-1,7,9,11,-1,-1,-1,-1,-1,-1],"loss_changes":[4.4103184E3,5.1158862E2,2.8282654E3,0E0,1.7475378E2,1.5111589E3,3.4425684E2,0E0,0E0,0E0,0E0,0E0,0E0],"parents":[2147483647,0,0,1,1,2,2,4,4,5,5,6,6],"right_children":[2,4,6,-1,8,10,12,-1,-1,-1,-1,-1,-1],"split_conditions":[-1.307539E-3,-1.5578782E-3,1.1704884E-3,5.6546787E-3,-2.1944558E-3,-1.5970371E-3,2.3747662E-3,3.5907826E-3,1.7130552E-3,1.9688911E-3,-1.4925735E-3,1.144198E-3,3.1990672E-3],"split_indices":[3,9,3,0,3,9,3,0,0,0,0,0,0],"split_type":[0,0,0,0,0,0,0,0,0,0,0,0,0],"sum_hessian":[3.440334E4,4.7644385E3,2.9638902E4,1.3368273E3,3.4276108E3,2.4132074E4,5.5068276E3,1.7238004E3,1.7038105E3,2.1933962E3,2.1938678E4,3.2696536E3,2.2371743E3],"tree_param":{"num_deleted":"0","num_feature":"11","num_nodes":"13","size_leaf_vector":"1"}},{"base_weights":[-8.265296E-4,9.3988204E-1,-1.3803223E-1,1.53158E0,6.728247E-1,5.478054E-1,-2.5009832E-1,7.071184E-3,5.0799586E-3,4.675814E-3,2.021879E-3,3.5924786E-3,1.306663E-3,1.5114218E-3,-1.6027446E-3],"categories":[],"categories_nodes":[],"categories_segments":[],"categories_sizes":[],"default_left":[0,0,0,0,0,0,0,0,0,0,0,0,0,0,0],"id":21,"left_children":[1,3,5,7,9,11,13,-1,-1,-1,-1,-1,-1,-1,-1],"loss_changes":[4.4323896E3,6.531301E2,2.3081104E3,5.8549805E0,2.3203015E2,3.142511E2,2.4444072E3,0E0,0E0,0E0,0E0,0E0,0E0,0E0,0E0],"parents":[2147483647,0,0,1,1,2,2,3,3,4,4,5,5,6,6],"right_children":[2,4,6,8,10,12,14,-1,-1,-1,-1,-1,-1,-1,-1],"split_conditions":[-3.8015668E-4,-8.1604853E-4,-3.210156E-3,-1.1873282E-3,-3.2923557E-3,-6.904852E-3,-1.957019E-3,7.071184E-3,5.0799586E-3,4.675814E-3,2.021879E-3,3.5924786E-3,1.306663E-3,1.5114218E-3,-1.6027446E-3],"split_indices":[6,6,5,6,5,5,1,0,0,0,0,0,0,0,0],"split_type":[0,0,0,0,0,0,0,0,0,0,0,0,0,0,0],"sum_hessian":[3.4299305E4,4.340772E3,2.9958535E4,1.3022329E3,3.0385388E3,4.1875527E3,2.5770982E4,5.875087E2,7.1472424E2,7.166213E2,2.3219175E3,1.5796985E3,2.607854E3,4.972088E3,2.0798895E4],"tree_param":{"num_deleted":"0","num_feature":"11","num_nodes":"15","size_leaf_vector":"1"}},{"base_weights":[2.6982923E-3,9.476698E-1,-1.2977481E-1,6.3475445E-3,6.913474E-1,-2.4547866E-1,5.5008894E-1,4.4332184E-3,2.0393394E-3,1.8198873E-3,-1.3982018E-3,1.3723859E-3,3.3418066E-3],"categories":[],"categories_nodes":[],"categories_segments":[],"categories_sizes":[],"default_left":[0,0,0,0,0,0,0,0,0,0,0,0,0],"id":22,"left_children":[1,3,5,-1,7,9,11,-1,-1,-1,-1,-1,-1],"loss_changes":[4.3178125E3,6.551516E2,2.3812458E3,0E0,2.1158337E2,1.8895321E3,2.478966E2,0E0,0E0,0E0,0E0,0E0,0E0],"parents":[2147483647,0,0,1,1,2,2,4,4,5,5,6,6],"right_children":[2,4,6,-1,8,10,12,-1,-1,-1,-1,-1,-1],"split_conditions":[-3.8962034E-4,-8.676508E-4,3.7305042E-4,6.3475445E-3,-1.2993168E-3,-2.0319019E-3,6.746266E-4,4.4332184E-3,2.0393394E-3,1.8198873E-3,-1.3982018E-3,1.3723859E-3,3.3418066E-3],"split_indices":[6,6,6,0,7,7,6,0,0,0,0,0,0],"split_type":[0,0,0,0,0,0,0,0,0,0,0,0,0],"sum_hessian":[3.4412848E4,4.211187E3,3.020166E4,1.157409E3,3.053778E3,2.5829416E4,4.3722456E3,8.747234E2,2.1790547E3,3.3244404E3,2.2504975E4,2.5784832E3,1.7937625E3],"tree_param":{"num_deleted":"0","num_feature":"11","num_nodes":"13","size_leaf_vector":"1"}},{"base_weights":[2.7842675E-3,9.047899E-1,-1.382838E-1,6.388059E-3,6.603646E-1,-2.6165426E-1,5.053485E-1,2.1589522E-3,4.6198685E-3,-1.387575E-3,1.9833194E-3,1.3117478E-3,3.150223E-3],"categories":[],"categories_nodes":[],"categories_segments":[],"categories_sizes":[],"default_left":[0,0,0,0,0,0,0,0,0,0,0,0,0],"id":23,"left_children":[1,3,5,-1,7,9,11,-1,-1,-1,-1,-1,-1],"loss_changes":[4.384491E3,7.5013574E2,2.3678604E3,0E0,1.8495349E2,1.6197399E3,2.2903784E2,0E0,0E0,0E0,0E0,0E0,0E0],"parents":[2147483647,0,0,1,1,2,2,4,4,5,5,6,6],"right_children":[2,4,6,-1,8,10,12,-1,-1,-1,-1,-1,-1],"split_conditions":[-3.6164833E-4,-8.676508E-4,3.46634E-4,6.388059E-3,3.1034302E-3,3.9032188E-3,6.746266E-4,2.1589522E-3,4.6198685E-3,-1.387575E-3,1.9833194E-3,1.3117478E-3,3.150223E-3],"split_indices":[6,6,6,0,2,2,6,0,0,0,0,0,0],"split_type":[0,0,0,0,0,0,0,0,0,0,0,0,0],"sum_hessian":[3.4379727E4,4.6305166E3,2.974921E4,1.1618402E3,3.4686765E3,2.4982977E4,4.766234E3,2.8438936E3,6.247829E2,2.2474186E4,2.508792E3,2.972833E3,1.7934005E3],"tree_param":{"num_deleted":"0","num_feature":"11","num_nodes":"13","size_leaf_vector":"1"}},{"base_weights":[2.6841355E-3,9.6257895E-1,-1.3222021E-1,1.4356775E0,6.5755296E-1,5.285009E-1,-2.6061752E-1,6.7419806E-3,4.671352E-3,3.0792963E-3,1.7601345E-3,3.867476E-3,1.5029217E-3,-1.5037941E-3,1.7369487E-3],"categories":[],"categories_nodes":[],"categories_segments":[],"categories_sizes":[],"default_left":[0,0,0,0,0,0,0,0,0,0,0,0,0,0,0],"id":24,"left_children":[1,3,5,7,9,11,13,-1,-1,-1,-1,-1,-1,-1,-1],"loss_changes":[4.461655E3,5.781211E2,2.5644802E3,4.1802002E1,5.0697876E1,3.1445032E2,2.0323469E3,0E0,0E0,0E0,0E0,0E0,0E0,0E0,0E0],"parents":[2147483647,0,0,1,1,2,2,3,3,4,4,5,5,6,6],"right_children":[2,4,6,8,10,12,14,-1,-1,-1,-1,-1,-1,-1,-1],"split_conditions":[-1.934233E-4,-3.6240704E-4,-1.5653982E-3,-5.3146237E-4,-2.3385E-4,-3.977027E-3,1.2559855E-3,6.7419806E-3,4.671352E-3,3.0792963E-3,1.7601345E-3,3.867476E-3,1.5029217E-3,-1.5037941E-3,1.7369487E-3],"split_indices":[8,8,0,8,8,0,0,0,0,0,0,0,0,0,0],"split_type":[0,0,0,0,0,0,0,0,0,0,0,0,0,0,0],"sum_hessian":[3.4375816E4,4.2159487E3,3.0159867E4,1.6052113E3,2.6107373E3,4.888294E3,2.5271574E4,7.425946E2,8.6261676E2,1.6626216E3,9.481156E2,1.2169132E3,3.6713806E3,2.1689645E4,3.58193E3],"tree_param":{"num_deleted":"0","num_feature":"11","num_nodes":"15","size_leaf_vector":"1"}},{"base_weights":[-2.857998E-3,9.6473384E-1,-1.3569665E-1,1.3699044E0,6.433934E-1,-2.7169877E-1,4.024466E-1,6.583678E-3,4.7056996E-3,4.048497E-3,2.0005968E-3,1.9003709E-3,-1.501534E-3,8.537497E-4,3.1798205E-3],"categories":[],"categories_nodes":[],"categories_segments":[],"categories_sizes":[],"default_left":[0,0,0,0,0,0,0,0,0,0,0,0,0,0,0],"id":25,"left_children":[1,3,5,7,9,11,13,-1,-1,-1,-1,-1,-1,-1,-1],"loss_changes":[4.4177197E3,5.0765918E2,2.216136E3,2.9798096E1,1.0568683E2,1.8759366E3,4.4504736E2,0E0,0E0,0E0,0E0,0E0,0E0,0E0,0E0],"parents":[2147483647,0,0,1,1,2,2,3,3,4,4,5,5,6,6],"right_children":[2,4,6,8,10,12,14,-1,-1,-1,-1,-1,-1,-1,-1],"split_conditions":[-1.987709E-4,-3.4574245E-4,1.36411E-4,-6.019687E-4,-1.8753303E-3,-2.0319019E-3,3.2079982E-4,6.583678E-3,4.7056996E-3,4.048497E-3,2.0005968E-3,1.9003709E-3,-1.501534E-3,8.537497E-4,3.1798205E-3],"split_indices":[8,8,8,4,7,7,8,0,0,0,0,0,0,0,0],"split_type":[0,0,0,0,0,0,0,0,0,0,0,0,0,0,0],"sum_hessian":[3.432895E4,4.1186196E3,3.021033E4,1.7742639E3,2.3443557E3,2.4132004E4,6.0783257E3,6.319785E2,1.1422853E3,5.991483E2,1.7452074E3,2.9253948E3,2.120661E4,4.139122E3,1.9392035E3],"tree_param":{"num_deleted":"0","num_feature":"11","num_nodes":"15","size_leaf_vector":"1"}},{"base_weights":[2.3111957E-4,1.0840234E0,-1.16524756E-1,5.959512E-3,8.3927906E-1,4.9657035E-1,-2.392399E-1,2.9696918E-3,4.1438974E-3,3.2872069E-3,1.0283798E-3,-1.5212448E-3,1.8743974E-3],"categories":[],"categories_nodes":[],"categories_segments":[],"categories_sizes":[],"default_left":[0,0,0,0,0,0,0,0,0,0,0,0,0],"id":26,"left_children":[1,3,5,-1,7,9,11,-1,-1,-1,-1,-1,-1],"loss_changes":[4.3615786E3,2.884934E2,2.3421038E3,0E0,1.2828613E1,3.9474268E2,2.5945156E3,0E0,0E0,0E0,0E0,0E0,0E0],"parents":[2147483647,0,0,1,1,2,2,4,4,5,5,6,6],"right_children":[2,4,6,-1,8,10,12,-1,-1,-1,-1,-1,-1],"split_conditions":[-2.3385E-4,-4.2754578E-4,-1.4918188E-3,5.959512E-3,2.6316177E-3,-2.877922E-3,1.9836694E-3,2.9696918E-3,4.1438974E-3,3.2872069E-3,1.0283798E-3,-1.5212448E-3,1.8743974E-3],"split_indices":[8,8,0,0,1,0,1,0,0,0,0,0,0],"split_type":[0,0,0,0,0,0,0,0,0,0,0,0,0],"sum_hessian":[3.438534E4,3.322376E3,3.1062963E4,1.1877959E3,2.13458E3,5.161222E3,2.5901742E4,1.536478E3,5.981021E2,2.1524734E3,3.008749E3,2.161252E4,4.289222E3],"tree_param":{"num_deleted":"0","num_feature":"11","num_nodes":"13","size_leaf_vector":"1"}},{"base_weights":[2.8767163E-4,9.1094315E-1,-1.3398491E-1,1.3309919E0,6.1752033E-1,-2.7631086E-1,4.0140066E-1,6.2634298E-3,4.1122776E-3,3.2411944E-3,1.9600305E-3,1.1454187E-3,-1.4381688E-3,1.003362E-3,3.4056406E-3],"categories":[],"categories_nodes":[],"categories_segments":[],"categories_sizes":[],"default_left":[0,0,0,0,0,0,0,0,0,0,0,0,0,0,0],"id":27,"left_children":[1,3,5,7,9,11,13,-1,-1,-1,-1,-1,-1,-1,-1],"loss_changes":[4.211552E3,5.1504956E2,2.288751E3,7.1289795E1,4.972522E1,1.1141519E3,4.176482E2,0E0,0E0,0E0,0E0,0E0,0E0,0E0,0E0],"parents":[2147483647,0,0,1,1,2,2,3,3,4,4,5,5,6,6],"right_children":[2,4,6,8,10,12,14,-1,-1,-1,-1,-1,-1,-1,-1],"split_conditions":[-1.8866757E-4,-3.4574245E-4,1.3311768E-4,-2.270184E-3,-1.5970371E-3,-1.2460767E-3,3.6637628E-4,6.2634298E-3,4.1122776E-3,3.2411944E-3,1.9600305E-3,1.1454187E-3,-1.4381688E-3,1.003362E-3,3.4056406E-3],"split_indices":[8,8,8,9,9,9,8,0,0,0,0,0,0,0,0],"split_type":[0,0,0,0,0,0,0,0,0,0,0,0,0,0,0],"sum_hessian":[3.4363977E4,4.3963213E3,2.9967654E4,1.7602017E3,2.6361196E3,2.3690053E4,6.2776016E3,9.154473E2,8.447544E2,9.761602E2,1.6599594E3,3.0386606E3,2.0651393E4,4.743839E3,1.5337625E3],"tree_param":{"num_deleted":"0","num_feature":"11","num_nodes":"15","size_leaf_vector":"1"}},{"base_weights":[-6.536026E-4,1.0503312E0,-1.13829345E-1,6.560355E-3,8.840077E-1,-2.2805215E-1,5.093305E-1,4.4825603E-3,2.7333344E-3,-1.3076507E-3,1.6665083E-3,1.4101651E-3,3.706754E-3],"categories":[],"categories_nodes":[],"categories_segments":[],"categories_sizes":[],"default_left":[0,0,0,0,0,0,0,0,0,0,0,0,0],"id":28,"left_children":[1,3,5,-1,7,9,11,-1,-1,-1,-1,-1,-1],"loss_changes":[4.0972373E3,2.7738525E2,2.217819E3,0E0,9.892041E1,1.6816107E3,3.0216003E2,0E0,0E0,0E0,0E0,0E0,0E0],"parents":[2147483647,0,0,1,1,2,2,4,4,5,5,6,6],"right_children":[2,4,6,-1,8,10,12,-1,-1,-1,-1,-1,-1],"split_conditions":[-2.3385E-4,-6.019687E-4,1.723749E-4,6.560355E-3,-3.4574245E-4,1.9340331E-3,4.0582925E-4,4.4825603E-3,2.7333344E-3,-1.3076507E-3,1.6665083E-3,1.4101651E-3,3.706754E-3],"split_indices":[8,4,8,0,8,1,8,0,0,0,0,0,0],"split_type":[0,0,0,0,0,0,0,0,0,0,0,0,0],"sum_hessian":[3.4409664E4,3.3184636E3,3.1091201E4,6.6755505E2,2.6509084E3,2.6295223E4,4.795978E3,1.1464954E3,1.5044132E3,2.2815885E4,3.4793386E3,3.5317363E3,1.264242E3],"tree_param":{"num_deleted":"0","num_feature":"11","num_nodes":"13","size_leaf_vector":"1"}},{"base_weights":[-5.1912945E-4,8.9191884E-1,-1.3734831E-1,6.0913176E-3,6.5959585E-1,-2.536026E-1,5.0728697E-1,4.3948176E-3,2.061788E-3,1.8425089E-3,-1.3913184E-3,1.26397E-3,3.1392104E-3],"categories":[],"categories_nodes":[],"categories_segments":[],"categories_sizes":[],"default_left":[0,0,0,0,0,0,0,0,0,0,0,0,0],"id":29,"left_children":[1,3,5,-1,7,9,11,-1,-1,-1,-1,-1,-1],"loss_changes":[4.197745E3,6.330918E2,2.238252E3,0E0,1.9313037E2,1.706632E3,2.3149365E2,0E0,0E0,0E0,0E0,0E0,0E0],"parents":[2147483647,0,0,1,1,2,2,4,4,5,5,6,6],"right_children":[2,4,6,-1,8,10,12,-1,-1,-1,-1,-1,-1],"split_conditions":[-3.7027194E-4,-8.676508E-4,3.636825E-4,6.0913176E-3,-1.6566666E-3,-1.0839683E-3,6.746266E-4,4.3948176E-3,2.061788E-3,1.8425089E-3,-1.3913184E-3,1.26397E-3,3.1392104E-3],"split_indices":[6,6,6,0,3,3,6,0,0,0,0,0,0],"split_type":[0,0,0,0,0,0,0,0,0,0,0,0,0],"sum_hessian":[3.4334754E4,4.539486E3,2.979527E4,1.1733925E3,3.3660935E3,2.5262291E4,4.5329795E3,7.776703E2,2.588423E3,2.927055E3,2.2335236E4,2.7277097E3,1.8052697E3],"tree_param":{"num_deleted":"0","num_feature":"11","num_nodes":"13","size_leaf_vector":"1"}},{"base_weights":[-1.8681203E-3,-1.3886759E-1,7.642574E-1,5.1015496E-1,-2.9557735E-1,5.102007E-1,1.1054043E0,3.237819E-3,1.3029184E-3,1.2216583E-3,-1.516986E-3,3.1582438E-3,1.7116086E-3,3.6518935E-3,5.3785094E-3],"categories":[],"categories_nodes":[],"categories_segments":[],"categories_sizes":[],"default_left":[0,0,0,0,0,0,0,0,0,0,0,0,0,0,0],"id":30,"left_children":[1,3,5,7,9,11,13,-1,-1,-1,-1,-1,-1,-1,-1],"loss_changes":[3.6091165E3,2.9725366E3,4.3027246E2,3.0244128E2,1.1870825E3,5.6337097E1,5.74646E1,0E0,0E0,0E0,0E0,0E0,0E0,0E0,0E0],"parents":[2147483647,0,0,1,1,2,2,3,3,4,4,5,5,6,6],"right_children":[2,4,6,8,10,12,14,-1,-1,-1,-1,-1,-1,-1,-1],"split_conditions":[1.5126416E-3,-1.4233021E-3,2.9503577E-3,-3.0001593E-3,-2.4725136E-3,-5.9004906E-3,4.794923E-3,3.237819E-3,1.3029184E-3,1.2216583E-3,-1.516986E-3,3.1582438E-3,1.7116086E-3,3.6518935E-3,5.3785094E-3],"split_indices":[0,0,0,0,5,5,0,0,0,0,0,0,0,0,0],"split_type":[0,0,0,0,0,0,0,0,0,0,0,0,0,0,0],"sum_hessian":[3.4343574E4,2.9157986E4,5.1855874E3,5.654158E3,2.3503828E4,3.0201218E3,2.1654658E3,2.110743E3,3.5434153E3,2.858192E3,2.0645637E4,6.202909E2,2.3998308E3,1.2871312E3,8.783346E2],"tree_param":{"num_deleted":"0","num_feature":"11","num_nodes":"15","size_leaf_vector":"1"}},{"base_weights":[-1.0882901E-3,8.527524E-1,-1.2698506E-1,1.374952E0,5.78778E-1,-2.4009357E-1,6.001481E-1,6.570322E-3,4.5338743E-3,4.1071954E-3,1.7328135E-3,1.542399E-3,-1.5108002E-3,3.708318E-3,1.6697247E-3],"categories":[],"categories_nodes":[],"categories_segments":[],"categories_sizes":[],"default_left":[0,0,0,0,0,0,0,0,0,0,0,0,0,0,0],"id":31,"left_children":[1,3,5,7,9,11,13,-1,-1,-1,-1,-1,-1,-1,-1],"loss_changes":[3.7067117E3,6.041406E2,2.4765027E3,3.2697266E1,1.7542694E2,2.2471301E3,2.2647266E2,0E0,0E0,0E0,0E0,0E0,0E0,0E0,0E0],"parents":[2147483647,0,0,1,1,2,2,3,3,4,4,5,5,6,6],"right_children":[2,4,6,8,10,12,14,-1,-1,-1,-1,-1,-1,-1,-1],"split_conditions":[-2.1580214E-4,-4.3143533E-4,2.4316334E-3,-6.610157E-4,-1.4826561E-3,-1.957019E-3,-5.50805E-3,6.570322E-3,4.5338743E-3,4.1071954E-3,1.7328135E-3,1.542399E-3,-1.5108002E-3,3.708318E-3,1.6697247E-3],"split_indices":[4,4,1,4,7,1,7,0,0,0,0,0,0,0,0],"split_type":[0,0,0,0,0,0,0,0,0,0,0,0,0,0,0],"sum_hessian":[3.4442426E4,4.400551E3,3.0041877E4,1.469037E3,2.9315137E3,2.6018771E4,4.0231055E3,6.083438E2,8.606932E2,6.693403E2,2.2621733E3,4.676945E3,2.1341826E4,1.392644E3,2.6304614E3],"tree_param":{"num_deleted":"0","num_feature":"11","num_nodes":"15","size_leaf_vector":"1"}},{"base_weights":[-9.5886487E-4,8.188327E-1,-1.411835E-1,1.30281E0,6.2317973E-1,-2.9418275E-1,5.164027E-1,6.0898163E-3,4.2122905E-3,3.2101695E-3,1.329516E-3,1.4397543E-3,-1.4953549E-3,1.5464532E-3,3.709738E-3],"categories":[],"categories_nodes":[],"categories_segments":[],"categories_sizes":[],"default_left":[0,0,0,0,0,0,0,0,0,0,0,0,0,0,0],"id":32,"left_children":[1,3,5,7,9,11,13,-1,-1,-1,-1,-1,-1,-1,-1],"loss_changes":[3.9579548E3,4.4602686E2,2.9637878E3,2.1832031E1,1.7859912E2,1.2488223E3,2.8192175E2,0E0,0E0,0E0,0E0,0E0,0E0,0E0,0E0],"parents":[2147483647,0,0,1,1,2,2,3,3,4,4,5,5,6,6],"right_children":[2,4,6,8,10,12,14,-1,-1,-1,-1,-1,-1,-1,-1],"split_conditions":[-1.2716163E-3,-1.5970371E-3,3.428795E-3,-2.7183287E-3,-1.8928768E-3,-1.4250053E-3,9.385299E-3,6.0898163E-3,4.2122905E-3,3.2101695E-3,1.329516E-3,1.4397543E-3,-1.4953549E-3,1.5464532E-3,3.709738E-3],"split_indices":[3,9,5,3,3,9,5,0,0,0,0,0,0,0,0],"split_type":[0,0,0,0,0,0,0,0,0,0,0,0,0,0,0],"sum_hessian":[3.4388E4,4.9985474E3,2.9389453E4,1.3857036E3,3.6128435E3,2.3859299E4,5.5301533E3,6.4953674E2,7.3616693E2,2.1955461E3,1.4172974E3,2.5745242E3,2.1284775E4,4.252788E3,1.2773651E3],"tree_param":{"num_deleted":"0","num_feature":"11","num_nodes":"15","size_leaf_vector":"1"}},{"base_weights":[-3.525602E-3,1.0161438E0,-1.1523258E-1,5.771597E-3,7.689938E-1,-2.2176264E-1,5.2362543E-1,4.0341597E-3,2.3847562E-3,2.0864573E-3,-1.2770814E-3,1.4528875E-3,3.608013E-3],"categories":[],"categories_nodes":[],"categories_segments":[],"categories_sizes":[],"default_left":[0,0,0,0,0,0,0,0,0,0,0,0,0],"id":33,"left_children":[1,3,5,-1,7,9,11,-1,-1,-1,-1,-1,-1],"loss_changes":[3.9148325E3,3.1796558E2,2.1123096E3,0E0,6.893799E1,1.9320507E3,2.555664E2,0E0,0E0,0E0,0E0,0E0,0E0],"parents":[2147483647,0,0,1,1,2,2,4,4,5,5,6,6],"right_children":[2,4,6,-1,8,10,12,-1,-1,-1,-1,-1,-1],"split_conditions":[-2.3385E-4,-8.676508E-4,1.852285E-4,5.771597E-3,-3.210156E-3,-3.2923557E-3,4.0582925E-4,4.0341597E-3,2.3847562E-3,2.0864573E-3,-1.2770814E-3,1.4528875E-3,3.608013E-3],"split_indices":[8,6,8,0,5,5,8,0,0,0,0,0,0],"split_type":[0,0,0,0,0,0,0,0,0,0,0,0,0],"sum_hessian":[3.433241E4,3.3631924E3,3.0969217E4,1.1757448E3,2.1874478E3,2.6563941E4,4.4052754E3,8.486201E2,1.3388276E3,3.0616157E3,2.3502326E4,3.1406177E3,1.2646573E3],"tree_param":{"num_deleted":"0","num_feature":"11","num_nodes":"13","size_leaf_vector":"1"}},{"base_weights":[2.6859148E-4,-1.3547103E-1,7.7212495E-1,5.457161E-1,-2.8075573E-1,5.1435375E-1,1.0115428E0,3.3581995E-3,1.331775E-3,-1.4981973E-3,7.358201E-4,3.2537573E-3,1.6359241E-3,3.6215505E-3,5.676733E-3],"categories":[],"categories_nodes":[],"categories_segments":[],"categories_sizes":[],"default_left":[0,0,0,0,0,0,0,0,0,0,0,0,0,0,0],"id":34,"left_children":[1,3,5,7,9,11,13,-1,-1,-1,-1,-1,-1,-1,-1],"loss_changes":[3.6058342E3,2.8985737E3,2.9751294E2,3.0997437E2,1.0544662E3,6.659003E1,6.8368164E1,0E0,0E0,0E0,0E0,0E0,0E0,0E0,0E0],"parents":[2147483647,0,0,1,1,2,2,3,3,4,4,5,5,6,6],"right_children":[2,4,6,8,10,12,14,-1,-1,-1,-1,-1,-1,-1,-1],"split_conditions":[1.5491408E-3,-1.5653982E-3,2.6339223E-3,-3.0001593E-3,2.4691634E-3,-1.524116E-3,6.424317E-3,3.3581995E-3,1.331775E-3,-1.4981973E-3,7.358201E-4,3.2537573E-3,1.6359241E-3,3.6215505E-3,5.676733E-3],"split_indices":[0,0,0,0,2,10,0,0,0,0,0,0,0,0,0],"split_type":[0,0,0,0,0,0,0,0,0,0,0,0,0,0,0],"sum_hessian":[3.4337996E4,2.922015E4,5.117844E3,5.118417E3,2.4101734E4,2.5159778E3,2.6018667E3,2.106675E3,3.0117422E3,2.0064373E4,4.0373606E3,5.9554626E2,1.9204315E3,2.1468005E3,4.55066E2],"tree_param":{"num_deleted":"0","num_feature":"11","num_nodes":"15","size_leaf_vector":"1"}},{"base_weights":[3.7010752E-3,8.6092293E-1,-1.2879969E-1,5.692443E-3,6.130856E-1,-2.4555565E-1,4.9299675E-1,1.9419129E-3,3.5125338E-3,-1.3935168E-3,1.4653609E-3,1.249464E-3,3.05529E-3],"categories":[],"categories_nodes":[],"categories_segments":[],"categories_sizes":[],"default_left":[0,0,0,0,0,0,0,0,0,0,0,0,0],"id":35,"left_children":[1,3,5,-1,7,9,11,-1,-1,-1,-1,-1,-1],"loss_changes":[3.9078071E3,6.095386E2,2.1648652E3,0E0,9.315845E1,1.5827579E3,2.2020776E2,0E0,0E0,0E0,0E0,0E0,0E0],"parents":[2147483647,0,0,1,1,2,2,4,4,5,5,6,6],"right_children":[2,4,6,-1,8,10,12,-1,-1,-1,-1,-1,-1],"split_conditions":[-3.7027194E-4,-8.1604853E-4,3.5551874E-4,5.692443E-3,1.7112475E-3,1.1708398E-3,6.746266E-4,1.9419129E-3,3.5125338E-3,-1.3935168E-3,1.4653609E-3,1.249464E-3,3.05529E-3],"split_indices":[6,6,6,0,0,0,6,0,0,0,0,0,0],"split_type":[0,0,0,0,0,0,0,0,0,0,0,0,0],"sum_hessian":[3.432637E4,4.5764517E3,2.974992E4,1.3529921E3,3.2234597E3,2.5066172E4,4.683748E3,2.2408633E3,9.825964E2,2.1475271E4,3.590901E3,2.8551482E3,1.8286E3],"tree_param":{"num_deleted":"0","num_feature":"11","num_nodes":"13","size_leaf_vector":"1"}},{"base_weights":[3.6091967E-3,7.436709E-1,-1.4910112E-1,5.349408E-3,5.8961374E-1,-3.2943767E-1,4.3247783E-1,3.217534E-3,1.3221316E-3,1.5485347E-3,-1.6169461E-3,9.131306E-4,2.9251592E-3],"categories":[],"categories_nodes":[],"categories_segments":[],"categories_sizes":[],"default_left":[0,0,0,0,0,0,0,0,0,0,0,0,0],"id":36,"left_children":[1,3,5,-1,7,9,11,-1,-1,-1,-1,-1,-1],"loss_changes":[3.8912185E3,5.0927832E2,2.9957324E3,0E0,2.5204492E2,1.1729253E3,4.04625E2,0E0,0E0,0E0,0E0,0E0,0E0],"parents":[2147483647,0,0,1,1,2,2,4,4,5,5,6,6],"right_children":[2,4,6,-1,8,10,12,-1,-1,-1,-1,-1,-1],"split_conditions":[-1.0839683E-3,-2.270184E-3,9.480138E-4,5.349408E-3,-1.8293689E-3,-1.5238068E-3,2.117182E-3,3.217534E-3,1.3221316E-3,1.5485347E-3,-1.6169461E-3,9.131306E-4,2.9251592E-3],"split_indices":[3,9,3,0,3,9,3,0,0,0,0,0,0],"split_type":[0,0,0,0,0,0,0,0,0,0,0,0,0],"sum_hessian":[3.4355758E4,5.8601187E3,2.849564E4,1.1558785E3,4.70424E3,2.1764918E4,6.730722E3,2.5312188E3,2.1730215E3,2.0415479E3,1.972337E4,4.0357932E3,2.6949287E3],"tree_param":{"num_deleted":"0","num_feature":"11","num_nodes":"13","size_leaf_vector":"1"}},{"base_weights":[-1.9410973E-3,8.854508E-1,-1.1417894E-1,1.2742915E0,6.2706536E-1,-2.3159765E-1,4.9246535E-1,5.8487854E-3,4.0999292E-3,2.0315137E-3,3.8691016E-3,1.5124963E-3,-1.5638352E-3,1.191527E-3,3.159408E-3],"categories":[],"categories_nodes":[],"categories_segments":[],"categories_sizes":[],"default_left":[0,0,0,0,0,0,0,0,0,0,0,0,0,0,0],"id":37,"left_children":[1,3,5,7,9,11,13,-1,-1,-1,-1,-1,-1,-1,-1],"loss_changes":[3.4345989E3,3.5929565E2,2.1848535E3,1.8402588E1,7.773224E1,2.5008667E3,2.7747864E2,0E0,0E0,0E0,0E0,0E0,0E0,0E0,0E0],"parents":[2147483647,0,0,1,1,2,2,3,3,4,4,5,5,6,6],"right_children":[2,4,6,8,10,12,14,-1,-1,-1,-1,-1,-1,-1,-1],"split_conditions":[-1.8568956E-3,-3.3485447E-3,1.9340331E-3,-4.7292947E-3,2.3695244E-3,-1.957019E-3,4.0665013E-3,5.8487854E-3,4.0999292E-3,2.0315137E-3,3.8691016E-3,1.5124963E-3,-1.5638352E-3,1.191527E-3,3.159408E-3],"split_indices":[9,9,1,9,1,1,1,0,0,0,0,0,0,0,0],"split_type":[0,0,0,0,0,0,0,0,0,0,0,0,0,0,0],"sum_hessian":[3.4447066E4,3.8414905E3,3.0605576E4,1.4818745E3,2.359616E3,2.5662062E4,4.9435146E3,7.5491296E2,7.2696155E2,1.8093452E3,5.502708E2,5.304984E3,2.0357078E4,3.0306572E3,1.9128573E3],"tree_param":{"num_deleted":"0","num_feature":"11","num_nodes":"15","size_leaf_vector":"1"}},{"base_weights":[-4.6591973E-3,7.1953887E-1,-1.546563E-1,1.1832708E0,5.5377114E-1,-3.3272398E-1,4.1459998E-1,5.539755E-3,3.7344499E-3,3.878353E-3,1.5719808E-3,2.8637727E-3,-1.573445E-3,3.1175383E-3,9.308018E-4],"categories":[],"categories_nodes":[],"categories_segments":[],"categories_sizes":[],"default_left":[0,0,0,0,0,0,0,0,0,0,0,0,0,0,0],"id":38,"left_children":[1,3,5,7,9,11,13,-1,-1,-1,-1,-1,-1,-1,-1],"loss_changes":[3.7391382E3,4.2909326E2,2.8959739E3,3.0981934E1,2.7940503E2,1.3907493E3,4.4323132E2,0E0,0E0,0E0,0E0,0E0,0E0,0E0,0E0],"parents":[2147483647,0,0,1,1,2,2,3,3,4,4,5,5,6,6],"right_children":[2,4,6,8,10,12,14,-1,-1,-1,-1,-1,-1,-1,-1],"split_conditions":[-1.0839683E-3,-3.1727E-3,9.480138E-4,-8.356163E-6,-1.7538288E-4,-2.5914173E-4,-2.877922E-3,5.539755E-3,3.7344499E-3,3.878353E-3,1.5719808E-3,2.8637727E-3,-1.573445E-3,3.1175383E-3,9.308018E-4],"split_indices":[3,3,3,4,4,4,0,0,0,0,0,0,0,0,0],"split_type":[0,0,0,0,0,0,0,0,0,0,0,0,0,0,0],"sum_hessian":[3.4376484E4,5.8754463E3,2.8501037E4,1.4939393E3,4.381507E3,2.1723498E4,6.7775396E3,7.44287E2,7.4965234E2,1.1744447E3,3.2070623E3,1.1670328E3,2.0556467E4,2.216832E3,4.5607075E3],"tree_param":{"num_deleted":"0","num_feature":"11","num_nodes":"15","size_leaf_vector":"1"}},{"base_weights":[-1.5026882E-3,8.846786E-1,-1.2566619E-1,1.284405E0,6.06072E-1,-2.576863E-1,3.840603E-1,6.3443994E-3,4.5166723E-3,3.9360817E-3,1.8815958E-3,1.405479E-3,-1.4889311E-3,8.4355613E-4,2.9610812E-3],"categories":[],"categories_nodes":[],"categories_segments":[],"categories_sizes":[],"default_left":[0,0,0,0,0,0,0,0,0,0,0,0,0,0,0],"id":39,"left_children":[1,3,5,7,9,11,13,-1,-1,-1,-1,-1,-1,-1,-1],"loss_changes":[3.7766162E3,4.4067676E2,2.0298833E3,1.7791992E1,1.1233209E2,1.674932E3,3.7521204E2,0E0,0E0,0E0,0E0,0E0,0E0,0E0,0E0],"parents":[2147483647,0,0,1,1,2,2,3,3,4,4,5,5,6,6],"right_children":[2,4,6,8,10,12,14,-1,-1,-1,-1,-1,-1,-1,-1],"split_conditions":[-1.987709E-4,-3.6240704E-4,1.36411E-4,-6.5931247E-4,-2.0852098E-3,-1.604877E-3,3.2079982E-4,6.3443994E-3,4.5166723E-3,3.9360817E-3,1.8815958E-3,1.405479E-3,-1.4889311E-3,8.4355613E-4,2.9610812E-3],"split_indices":[8,8,8,8,7,7,8,0,0,0,0,0,0,0,0],"split_type":[0,0,0,0,0,0,0,0,0,0,0,0,0,0,0],"sum_hessian":[3.4283473E4,4.18762E3,3.0095852E4,1.6710447E3,2.5165754E3,2.392099E4,6.174862E3,4.6720764E2,1.203837E3,6.0936127E2,1.9072142E3,3.7727344E3,2.0148256E4,4.1927446E3,1.9821173E3],"tree_param":{"num_deleted":"0","num_feature":"11","num_nodes":"15","size_leaf_vector":"1"}},{"base_weights":[1.5097567E-3,1.0019463E0,-1.09236486E-1,1.2812994E0,7.1267176E-1,5.1032436E-1,-2.284888E-1,6.3199913E-3,4.5164903E-3,3.3627898E-3,2.3701987E-3,3.7699058E-3,1.511425E-3,1.7694443E-3,-1.4587571E-3],"categories":[],"categories_nodes":[],"categories_segments":[],"categories_sizes":[],"default_left":[0,0,0,0,0,0,0,0,0,0,0,0,0,0,0],"id":40,"left_children":[1,3,5,7,9,11,13,-1,-1,-1,-1,-1,-1,-1,-1],"loss_changes":[3.8152263E3,2.4398413E2,2.291511E3,1.57717285E1,7.8078003E0,2.7190588E2,2.380547E3,0E0,0E0,0E0,0E0,0E0,0E0,0E0,0E0],"parents":[2147483647,0,0,1,1,2,2,3,3,4,4,5,5,6,6],"right_children":[2,4,6,8,10,12,14,-1,-1,-1,-1,-1,-1,-1,-1],"split_conditions":[-2.3385E-4,-3.6240704E-4,-1.5653982E-3,-6.5931247E-4,-1.2716163E-3,-4.1990355E-3,-9.5373724E-4,6.3199913E-3,4.5164903E-3,3.3627898E-3,2.3701987E-3,3.7699058E-3,1.511425E-3,1.7694443E-3,-1.4587571E-3],"split_indices":[8,8,0,8,3,0,3,0,0,0,0,0,0,0,0],"split_type":[0,0,0,0,0,0,0,0,0,0,0,0,0,0,0],"sum_hessian":[3.4351324E4,3.4022703E3,3.0949055E4,1.6732031E3,1.7290671E3,4.9755664E3,2.5973488E4,4.6307318E2,1.2101299E3,7.3779376E2,9.912734E2,1.1189891E3,3.8565771E3,4.3682734E3,2.1605215E4],"tree_param":{"num_deleted":"0","num_feature":"11","num_nodes":"15","size_leaf_vector":"1"}},{"base_weights":[3.6472762E-3,8.2265204E-1,-1.18870005E-1,1.310734E0,5.6321645E-1,-2.303917E-1,4.9342313E-1,6.0077645E-3,4.2247754E-3,1.5589349E-3,3.4360194E-3,1.3742469E-3,-1.5946061E-3,9.056689E-4,2.967422E-3],"categories":[],"categories_nodes":[],"categories_segments":[],"categories_sizes":[],"default_left":[0,0,0,0,0,0,0,0,0,0,0,0,0,0,0],"id":41,"left_children":[1,3,5,7,9,11,13,-1,-1,-1,-1,-1,-1,-1,-1],"loss_changes":[3.4580886E3,5.4014624E2,2.048251E3,1.9198242E1,1.3938464E2,2.4540054E3,2.985891E2,0E0,0E0,0E0,0E0,0E0,0E0,0E0,0E0],"parents":[2147483647,0,0,1,1,2,2,3,3,4,4,5,5,6,6],"right_children":[2,4,6,8,10,12,14,-1,-1,-1,-1,-1,-1,-1,-1],"split_conditions":[-2.1580214E-4,-4.3143533E-4,1.2859547E-3,-6.019687E-4,9.3293097E-4,-1.1608385E-3,2.1531004E-3,6.0077645E-3,4.2247754E-3,1.5589349E-3,3.4360194E-3,1.3742469E-3,-1.5946061E-3,9.056689E-4,2.967422E-3],"split_indices":[4,4,0,4,0,0,0,0,0,0,0,0,0,0,0],"split_type":[0,0,0,0,0,0,0,0,0,0,0,0,0,0,0],"sum_hessian":[3.4382664E4,4.454985E3,2.992768E4,1.4999547E3,2.95503E3,2.5336549E4,4.591131E3,7.658527E2,7.3410205E2,1.9128156E3,1.0422145E3,5.7326704E3,1.9603877E4,2.2463037E3,2.3448271E3],"tree_param":{"num_deleted":"0","num_feature":"11","num_nodes":"15","size_leaf_vector":"1"}},{"base_weights":[1.6655856E-3,8.3090585E-1,-1.2837271E-1,5.2353847E-3,5.851827E-1,5.1497906E-1,-2.4056871E-1,4.1677146E-3,1.76085E-3,3.3434408E-3,1.270137E-3,-1.6426882E-3,1.2207392E-3],"categories":[],"categories_nodes":[],"categories_segments":[],"categories_sizes":[],"default_left":[0,0,0,0,0,0,0,0,0,0,0,0,0],"id":42,"left_children":[1,3,5,-1,7,9,11,-1,-1,-1,-1,-1,-1],"loss_changes":[3.716559E3,5.200967E2,2.152029E3,0E0,1.8999927E2,2.6905066E2,2.3599492E3,0E0,0E0,0E0,0E0,0E0,0E0],"parents":[2147483647,0,0,1,1,2,2,4,4,5,5,6,6],"right_children":[2,4,6,-1,8,10,12,-1,-1,-1,-1,-1,-1],"split_conditions":[-3.7027194E-4,-7.7360746E-4,-3.1250487E-3,5.2353847E-3,-3.3882484E-3,-6.904852E-3,2.4428125E-3,4.1677146E-3,1.76085E-3,3.3434408E-3,1.270137E-3,-1.6426882E-3,1.2207392E-3],"split_indices":[6,6,5,0,5,5,5,0,0,0,0,0,0],"split_type":[0,0,0,0,0,0,0,0,0,0,0,0,0],"sum_hessian":[3.4386664E4,4.642611E3,2.9744053E4,1.528201E3,3.1144097E3,4.3969165E3,2.5347135E4,7.006425E2,2.413767E3,1.6321697E3,2.7647466E3,1.9333951E4,6.013185E3],"tree_param":{"num_deleted":"0","num_feature":"11","num_nodes":"13","size_leaf_vector":"1"}},{"base_weights":[2.2022622E-3,9.979189E-1,-1.08033E-1,1.2355818E0,7.0044553E-1,4.6425092E-1,-2.2174092E-1,6.107284E-3,4.412764E-3,4.031091E-3,2.3224058E-3,3.227305E-3,1.1313742E-3,-1.5914853E-3,1.1955383E-3],"categories":[],"categories_nodes":[],"categories_segments":[],"categories_sizes":[],"default_left":[0,0,0,0,0,0,0,0,0,0,0,0,0,0,0],"id":43,"left_children":[1,3,5,7,9,11,13,-1,-1,-1,-1,-1,-1,-1,-1],"loss_changes":[3.7848853E3,2.1123901E2,2.0210126E3,1.35217285E1,3.6664307E1,3.097677E2,2.379202E3,0E0,0E0,0E0,0E0,0E0,0E0,0E0,0E0],"parents":[2147483647,0,0,1,1,2,2,3,3,4,4,5,5,6,6],"right_children":[2,4,6,8,10,12,14,-1,-1,-1,-1,-1,-1,-1,-1],"split_conditions":[-2.3385E-4,-3.4574245E-4,-1.97822E-3,-6.5931247E-4,-2.2515506E-3,-4.852646E-3,1.671739E-3,6.107284E-3,4.412764E-3,4.031091E-3,2.3224058E-3,3.227305E-3,1.1313742E-3,-1.5914853E-3,1.1955383E-3],"split_indices":[8,8,7,8,7,7,7,0,0,0,0,0,0,0,0],"split_type":[0,0,0,0,0,0,0,0,0,0,0,0,0,0,0],"sum_hessian":[3.4398527E4,3.407291E3,3.0991236E4,1.83586E3,1.5714312E3,5.1173096E3,2.5873926E4,4.6790356E2,1.3679563E3,3.7148776E2,1.1999434E3,1.7301245E3,3.3871853E3,1.9342941E4,6.5309854E3],"tree_param":{"num_deleted":"0","num_feature":"11","num_nodes":"15","size_leaf_vector":"1"}},{"base_weights":[2.4608316E-4,-1.3538831E-1,6.3978034E-1,5.2571476E-1,-2.9362094E-1,1.0082506E0,4.583656E-1,3.915222E-3,1.5166997E-3,6.293606E-4,-1.4906282E-3,3.4061328E-3,5.2151424E-3,1.1013654E-3,2.3404723E-3],"categories":[],"categories_nodes":[],"categories_segments":[],"categories_sizes":[],"default_left":[0,0,0,0,0,0,0,0,0,0,0,0,0,0,0],"id":44,"left_children":[1,3,5,7,9,11,13,-1,-1,-1,-1,-1,-1,-1,-1],"loss_changes":[2.9849673E3,2.9719077E3,3.8428003E2,3.4906873E2,8.191771E2,5.083313E1,8.7600586E1,0E0,0E0,0E0,0E0,0E0,0E0,0E0,0E0],"parents":[2147483647,0,0,1,1,2,2,3,3,4,4,5,5,6,6],"right_children":[2,4,6,8,10,12,14,-1,-1,-1,-1,-1,-1,-1,-1],"split_conditions":[2.0338325E-3,-2.303167E-3,-5.2676336E-3,-6.1000558E-3,-2.7993713E-3,8.6203255E-3,2.85695E-3,3.915222E-3,1.5166997E-3,6.293606E-4,-1.4906282E-3,3.4061328E-3,5.2151424E-3,1.1013654E-3,2.3404723E-3],"split_indices":[1,1,7,1,2,1,1,0,0,0,0,0,0,0,0],"split_type":[0,0,0,0,0,0,0,0,0,0,0,0,0,0,0],"sum_hessian":[3.433428E4,2.8342314E4,5.991968E3,5.4564385E3,2.2885877E4,1.9262686E3,4.0656992E3,1.2868219E3,4.169616E3,3.4027747E3,1.9483102E4,1.3414893E3,5.8477924E2,1.7122017E3,2.3534976E3],"tree_param":{"num_deleted":"0","num_feature":"11","num_nodes":"15","size_leaf_vector":"1"}},{"base_weights":[1.9920596E-3,7.095336E-1,-1.4671293E-1,1.1518857E0,5.4864645E-1,5.131424E-1,-3.124921E-1,5.6955824E-3,3.9845863E-3,2.8207775E-3,1.4597647E-3,3.819466E-3,1.5101145E-3,5.556734E-4,-1.5866173E-3],"categories":[],"categories_nodes":[],"categories_segments":[],"categories_sizes":[],"default_left":[0,0,0,0,0,0,0,0,0,0,0,0,0,0,0],"id":45,"left_children":[1,3,5,7,9,11,13,-1,-1,-1,-1,-1,-1,-1,-1],"loss_changes":[3.6234824E3,4.0165112E2,3.1154216E3,1.6404785E1,1.1700549E2,3.2774695E2,8.668489E2,0E0,0E0,0E0,0E0,0E0,0E0,0E0,0E0],"parents":[2147483647,0,0,1,1,2,2,3,3,4,4,5,5,6,6],"right_children":[2,4,6,8,10,12,14,-1,-1,-1,-1,-1,-1,-1,-1],"split_conditions":[-1.0839683E-3,-3.1727E-3,-2.2000615E-3,-5.5834083E-3,-1.6566666E-3,-6.1000558E-3,-1.3341777E-3,5.6955824E-3,3.9845863E-3,2.8207775E-3,1.4597647E-3,3.819466E-3,1.5101145E-3,5.556734E-4,-1.5866173E-3],"split_indices":[3,3,1,3,3,1,7,0,0,0,0,0,0,0,0],"split_type":[0,0,0,0,0,0,0,0,0,0,0,0,0,0,0],"sum_hessian":[3.436313E4,5.9517246E3,2.8411402E4,1.5330997E3,4.418625E3,5.6884707E3,2.2722932E4,4.622316E2,1.0708682E3,2.3308525E3,2.0877725E3,1.2884271E3,4.4000435E3,3.5621116E3,1.916082E4],"tree_param":{"num_deleted":"0","num_feature":"11","num_nodes":"15","size_leaf_vector":"1"}},{"base_weights":[-3.6634675E-3,6.887878E-1,-1.4902312E-1,1.0240984E0,4.947566E-1,-3.0788252E-1,4.7816232E-1,4.6200543E-3,2.8401564E-3,2.9015383E-3,9.1898825E-4,1.9800738E-3,-1.5217046E-3,1.1227299E-3,2.9460741E-3],"categories":[],"categories_nodes":[],"categories_segments":[],"categories_sizes":[],"default_left":[0,0,0,0,0,0,0,0,0,0,0,0,0,0,0],"id":46,"left_children":[1,3,5,7,9,11,13,-1,-1,-1,-1,-1,-1,-1,-1],"loss_changes":[3.4677422E3,3.6908667E2,2.8425676E3,5.848877E1,2.2741656E2,1.3306716E3,2.8492456E2,0E0,0E0,0E0,0E0,0E0,0E0,0E0,0E0],"parents":[2147483647,0,0,1,1,2,2,3,3,4,4,5,5,6,6],"right_children":[2,4,6,8,10,12,14,-1,-1,-1,-1,-1,-1,-1,-1],"split_conditions":[-1.0839683E-3,-1.2060128E-4,1.1422314E-3,-1.7105544E-3,-1.8928768E-3,-2.1117067E-4,2.2811443E-3,4.6200543E-3,2.8401564E-3,2.9015383E-3,9.1898825E-4,1.9800738E-3,-1.5217046E-3,1.1227299E-3,2.9460741E-3],"split_indices":[3,4,3,3,3,4,3,0,0,0,0,0,0,0,0],"split_type":[0,0,0,0,0,0,0,0,0,0,0,0,0,0,0],"sum_hessian":[3.4407438E4,5.9466284E3,2.8460809E4,2.1270366E3,3.8195916E3,2.272489E4,5.735917E3,1.437806E3,6.892307E2,2.0083569E3,1.8112345E3,1.8651908E3,2.08597E4,3.2930278E3,2.4428892E3],"tree_param":{"num_deleted":"0","num_feature":"11","num_nodes":"15","size_leaf_vector":"1"}},{"base_weights":[2.2421456E-3,9.5221037E-1,-1.02761574E-1,1.2943352E0,6.5430105E-1,-2.1811436E-1,4.881763E-1,6.0836864E-3,4.3584025E-3,2.143619E-3,3.916581E-3,1.262769E-3,-1.5744551E-3,1.3077926E-3,3.5385499E-3],"categories":[],"categories_nodes":[],"categories_segments":[],"categories_sizes":[],"default_left":[0,0,0,0,0,0,0,0,0,0,0,0,0,0,0],"id":47,"left_children":[1,3,5,7,9,11,13,-1,-1,-1,-1,-1,-1,-1,-1],"loss_changes":[3.4342197E3,3.1803613E2,2.1139194E3,1.4810303E1,5.2681335E1,2.4342886E3,3.1138977E2,0E0,0E0,0E0,0E0,0E0,0E0,0E0,0E0],"parents":[2147483647,0,0,1,1,2,2,3,3,4,4,5,5,6,6],"right_children":[2,4,6,8,10,12,14,-1,-1,-1,-1,-1,-1,-1,-1],"split_conditions":[-2.662319E-4,-4.3143533E-4,1.2559855E-3,-6.610157E-4,2.5313015E-3,-1.0830871E-3,5.0079166E-3,6.0836864E-3,4.3584025E-3,2.143619E-3,3.916581E-3,1.262769E-3,-1.5744551E-3,1.3077926E-3,3.5385499E-3],"split_indices":[4,4,0,4,2,0,2,0,0,0,0,0,0,0,0],"split_type":[0,0,0,0,0,0,0,0,0,0,0,0,0,0,0],"sum_hessian":[3.4343227E4,3.3970103E3,3.0946217E4,1.5297749E3,1.8672354E3,2.5912102E4,5.034114E3,6.276356E2,9.021393E2,1.433495E3,4.3374036E2,6.401119E3,1.9510982E4,3.623044E3,1.4110701E3],"tree_param":{"num_deleted":"0","num_feature":"11","num_nodes":"15","size_leaf_vector":"1"}},{"base_weights":[2.0719338E-3,8.564703E-1,-1.07523255E-1,1.1740727E0,5.7137257E-1,5.145512E-1,-2.1922481E-1,5.428258E-3,3.7647819E-3,3.9242273E-3,1.827372E-3,4.37932E-3,1.6483167E-3,-1.5143035E-3,1.4125959E-3],"categories":[],"categories_nodes":[],"categories_segments":[],"categories_sizes":[],"default_left":[0,0,0,0,0,0,0,0,0,0,0,0,0,0,0],"id":48,"left_children":[1,3,5,7,9,11,13,-1,-1,-1,-1,-1,-1,-1,-1],"loss_changes":[3.2201062E3,3.286809E2,2.1187427E3,3.218164E1,8.1894165E1,2.5791235E2,2.3613066E3,0E0,0E0,0E0,0E0,0E0,0E0,0E0,0E0],"parents":[2147483647,0,0,1,1,2,2,3,3,4,4,5,5,6,6],"right_children":[2,4,6,8,10,12,14,-1,-1,-1,-1,-1,-1,-1,-1],"split_conditions":[-1.8568956E-3,-3.0477906E-3,-3.1250487E-3,-4.3339096E-3,-4.508217E-3,-2.791749E-3,2.8230622E-3,5.428258E-3,3.7647819E-3,3.9242273E-3,1.827372E-3,4.37932E-3,1.6483167E-3,-1.5143035E-3,1.4125959E-3],"split_indices":[9,9,5,9,5,10,5,0,0,0,0,0,0,0,0],"split_type":[0,0,0,0,0,0,0,0,0,0,0,0,0,0,0],"sum_hessian":[3.4305402E4,3.880006E3,3.0425395E4,1.7861478E3,2.0938584E3,4.611051E3,2.5814344E4,9.11892E2,8.7425586E2,4.0215063E2,1.6917076E3,6.440612E2,3.9669895E3,2.0204684E4,5.6096616E3],"tree_param":{"num_deleted":"0","num_feature":"11","num_nodes":"15","size_leaf_vector":"1"}},{"base_weights":[2.2923402E-3,8.658007E-1,-1.213085E-1,1.1961379E0,5.949771E-1,-2.3600905E-1,4.9086922E-1,6.3298345E-3,4.3419003E-3,1.9394879E-3,3.5883165E-3,-1.521924E-3,1.6599699E-3,3.6356996E-3,1.442423E-3],"categories":[],"categories_nodes":[],"categories_segments":[],"categories_sizes":[],"default_left":[0,0,0,0,0,0,0,0,0,0,0,0,0,0,0],"id":49,"left_children":[1,3,5,7,9,11,13,-1,-1,-1,-1,-1,-1,-1,-1],"loss_changes":[3.6791428E3,3.5946558E2,2.1186472E3,2.2120361E1,6.385785E1,2.3938638E3,2.4561694E2,0E0,0E0,0E0,0E0,0E0,0E0,0E0,0E0],"parents":[2147483647,0,0,1,1,2,2,3,3,4,4,5,5,6,6],"right_children":[2,4,6,8,10,12,14,-1,-1,-1,-1,-1,-1,-1,-1],"split_conditions":[-1.987709E-4,-3.4574245E-4,1.2949842E-3,-7.683162E-4,2.6316177E-3,1.8879903E-3,-6.1000558E-3,6.3298345E-3,4.3419003E-3,1.9394879E-3,3.5883165E-3,-1.521924E-3,1.6599699E-3,3.6356996E-3,1.442423E-3],"split_indices":[8,8,3,8,1,1,1,0,0,0,0,0,0,0,0],"split_type":[0,0,0,0,0,0,0,0,0,0,0,0,0,0,0],"sum_hessian":[3.4390938E4,4.286742E3,3.0104193E4,1.8800153E3,2.4067268E3,2.537344E4,4.7307544E3,3.2374118E2,1.556274E3,1.8284164E3,5.7831055E2,2.077915E4,4.5942896E3,1.0758057E3,3.6549485E3],"tree_param":{"num_deleted":"0","num_feature":"11","num_nodes":"15","size_leaf_vector":"1"}},{"base_weights":[-4.4131107E-3,6.690748E-1,-1.4638586E-1,9.4692457E-1,4.5218205E-1,4.886168E-1,-3.012095E-1,5.433865E-3,3.3490993E-3,3.3156127E-3,1.445856E-3,3.408671E-3,1.3421932E-3,-1.4648458E-3,1.0425687E-3],"categories":[],"categories_nodes":[],"categories_segments":[],"categories_sizes":[],"default_left":[0,0,0,0,0,0,0,0,0,0,0,0,0,0,0],"id":50,"left_children":[1,3,5,7,9,11,13,-1,-1,-1,-1,-1,-1,-1,-1],"loss_changes":[3.2806846E3,3.4289624E2,2.791395E3,7.5937256E1,1.0424536E2,2.9757336E2,8.365281E2,0E0,0E0,0E0,0E0,0E0,0E0,0E0,0E0],"parents":[2147483647,0,0,1,1,2,2,3,3,4,4,5,5,6,6],"right_children":[2,4,6,8,10,12,14,-1,-1,-1,-1,-1,-1,-1,-1],"split_conditions":[-1.0839683E-3,-2.283424E-3,-1.4587335E-3,-5.5834083E-3,-2.0679415E-3,-3.587743E-3,1.4400397E-3,5.433865E-3,3.3490993E-3,3.3156127E-3,1.445856E-3,3.408671E-3,1.3421932E-3,-1.4648458E-3,1.0425687E-3],"split_indices":[3,3,0,3,10,0,10,0,0,0,0,0,0,0,0],"split_type":[0,0,0,0,0,0,0,0,0,0,0,0,0,0,0],"sum_hessian":[3.4266375E4,5.9427495E3,2.8323625E4,2.554942E3,3.3878079E3,5.5355884E3,2.2788037E4,4.598777E2,2.0950642E3,6.0369324E2,2.7841145E3,1.593729E3,3.9418594E3,2.0439168E4,2.3488694E3],"tree_param":{"num_deleted":"0","num_feature":"11","num_nodes":"15","size_leaf_vector":"1"}},{"base_weights":[-5.7332712E-5,8.208824E-1,-1.264716E-1,1.170381E0,5.646341E-1,-2.3445989E-1,4.831575E-1,5.2388078E-3,3.732277E-3,1.891906E-3,3.2884998E-3,-1.336258E-3,1.5332069E-3,1.2602988E-3,3.1116498E-3],"categories":[],"categories_nodes":[],"categories_segments":[],"categories_sizes":[],"default_left":[0,0,0,0,0,0,0,0,0,0,0,0,0,0,0],"id":51,"left_children":[1,3,5,7,9,11,13,-1,-1,-1,-1,-1,-1,-1,-1],"loss_changes":[3.5708975E3,3.8613306E2,1.9669651E3,1.9733643E1,4.8450317E1,1.5648942E3,2.1209851E2,0E0,0E0,0E0,0E0,0E0,0E0,0E0,0E0],"parents":[2147483647,0,0,1,1,2,2,3,3,4,4,5,5,6,6],"right_children":[2,4,6,8,10,12,14,-1,-1,-1,-1,-1,-1,-1,-1],"split_conditions":[-1.8866757E-4,-3.4574245E-4,1.852285E-4,-1.7641332E-3,2.6316177E-3,1.8432639E-3,3.6637628E-4,5.2388078E-3,3.732277E-3,1.891906E-3,3.2884998E-3,-1.336258E-3,1.5332069E-3,1.2602988E-3,3.1116498E-3],"split_indices":[8,8,8,9,1,1,8,0,0,0,0,0,0,0,0],"split_type":[0,0,0,0,0,0,0,0,0,0,0,0,0,0,0],"sum_hessian":[3.4368902E4,4.561004E3,2.9807898E4,1.8792102E3,2.6817937E3,2.5342219E4,4.4656797E3,1.090683E3,7.885272E2,2.0491323E3,6.3266144E2,2.1839559E4,3.502661E3,2.8899458E3,1.5757339E3],"tree_param":{"num_deleted":"0","num_feature":"11","num_nodes":"15","size_leaf_vector":"1"}},{"base_weights":[-4.780364E-3,6.787311E-1,-1.4612208E-1,8.570797E-1,3.5066912E-1,4.679849E-1,-3.0110332E-1,4.5551113E-3,2.828237E-3,1.1230672E-3,2.5438946E-3,3.184976E-3,1.2738797E-3,9.3883515E-4,-1.5932361E-3],"categories":[],"categories_nodes":[],"categories_segments":[],"categories_sizes":[],"default_left":[0,0,0,0,0,0,0,0,0,0,0,0,0,0,0],"id":52,"left_children":[1,3,5,7,9,11,13,-1,-1,-1,-1,-1,-1,-1,-1],"loss_changes":[3.320849E3,3.3194482E2,2.7162715E3,1.3041309E2,3.438919E1,2.7130945E2,1.1897429E3,0E0,0E0,0E0,0E0,0E0,0E0,0E0,0E0],"parents":[2147483647,0,0,1,1,2,2,3,3,4,4,5,5,6,6],"right_children":[2,4,6,8,10,12,14,-1,-1,-1,-1,-1,-1,-1,-1],"split_conditions":[-1.113869E-3,-1.7105544E-3,-1.4233021E-3,-3.5761415E-3,5.169991E-3,-3.4139927E-3,-3.4243127E-3,4.5551113E-3,2.828237E-3,1.1230672E-3,2.5438946E-3,3.184976E-3,1.2738797E-3,9.3883515E-4,-1.5932361E-3],"split_indices":[3,3,0,3,2,0,2,0,0,0,0,0,0,0,0],"split_type":[0,0,0,0,0,0,0,0,0,0,0,0,0,0,0],"sum_hessian":[3.4329973E4,5.8593887E3,2.8470582E4,3.758555E3,2.1008337E3,5.721081E3,2.2749502E4,1.2304258E3,2.5281292E3,1.7436586E3,3.5717514E2,1.7434716E3,3.9776096E3,3.4821392E3,1.9267361E4],"tree_param":{"num_deleted":"0","num_feature":"11","num_nodes":"15","size_leaf_vector":"1"}},{"base_weights":[1.0224761E-3,7.969278E-1,-1.2607762E-1,5.2174176E-3,5.672473E-1,-2.4002028E-1,4.7165737E-1,1.695753E-3,3.2781884E-3,-1.3494116E-3,1.3150335E-3,1.206113E-3,2.894656E-3],"categories":[],"categories_nodes":[],"categories_segments":[],"categories_sizes":[],"default_left":[0,0,0,0,0,0,0,0,0,0,0,0,0],"id":53,"left_children":[1,3,5,-1,7,9,11,-1,-1,-1,-1,-1,-1],"loss_changes":[3.4833943E3,5.248772E2,2.0236348E3,0E0,1.05949585E2,1.3843848E3,1.9431226E2,0E0,0E0,0E0,0E0,0E0,0E0],"parents":[2147483647,0,0,1,1,2,2,4,4,5,5,6,6],"right_children":[2,4,6,-1,8,10,12,-1,-1,-1,-1,-1,-1],"split_conditions":[-3.7027194E-4,-8.1604853E-4,3.5551874E-4,5.2174176E-3,1.5491408E-3,1.1708398E-3,6.746266E-4,1.695753E-3,3.2781884E-3,-1.3494116E-3,1.3150335E-3,1.206113E-3,2.894656E-3],"split_indices":[6,6,6,0,0,0,6,0,0,0,0,0,0],"split_type":[0,0,0,0,0,0,0,0,0,0,0,0,0],"sum_hessian":[3.4354934E4,4.7122373E3,2.9642695E4,1.4205115E3,3.2917256E3,2.4916066E4,4.7266284E3,2.1581638E3,1.1335618E3,2.1290242E4,3.6258247E3,2.868148E3,1.8584806E3],"tree_param":{"num_deleted":"0","num_feature":"11","num_nodes":"13","size_leaf_vector":"1"}},{"base_weights":[-2.541271E-4,7.136774E-1,-1.4056806E-1,1.0575993E0,5.0903445E-1,-2.8582114E-1,4.5765543E-1,5.195304E-3,3.4553178E-3,3.2632297E-3,1.2648264E-3,1.5059861E-3,-1.4900374E-3,1.0819841E-3,2.8673047E-3],"categories":[],"categories_nodes":[],"categories_segments":[],"categories_sizes":[],"default_left":[0,0,0,0,0,0,0,0,0,0,0,0,0,0,0],"id":54,"left_children":[1,3,5,7,9,11,13,-1,-1,-1,-1,-1,-1,-1,-1],"loss_changes":[3.444955E3,3.7665894E2,2.5023608E3,5.6781494E1,2.0207404E2,1.3340791E3,2.6412146E2,0E0,0E0,0E0,0E0,0E0,0E0,0E0,0E0],"parents":[2147483647,0,0,1,1,2,2,3,3,4,4,5,5,6,6],"right_children":[2,4,6,8,10,12,14,-1,-1,-1,-1,-1,-1,-1,-1],"split_conditions":[-1.1733021E-3,-3.5336663E-4,1.1704884E-3,-8.676508E-4,-5.055533E-3,-3.059865E-4,2.3747662E-3,5.195304E-3,3.4553178E-3,3.2632297E-3,1.2648264E-3,1.5059861E-3,-1.4900374E-3,1.0819841E-3,2.8673047E-3],"split_indices":[3,6,3,6,7,6,3,0,0,0,0,0,0,0,0],"split_type":[0,0,0,0,0,0,0,0,0,0,0,0,0,0,0],"sum_hessian":[3.4346645E4,5.617954E3,2.872869E4,2.043671E3,3.5742832E3,2.3132604E4,5.596086E3,8.272485E2,1.2164226E3,1.3361307E3,2.2381526E3,2.6617007E3,2.0470904E4,3.2918047E3,2.304281E3],"tree_param":{"num_deleted":"0","num_feature":"11","num_nodes":"15","size_leaf_vector":"1"}},{"base_weights":[-0E0,8.952674E-1,-1.0401341E-1,5.352887E-3,6.795527E-1,-2.1067116E-1,5.6077975E-1,2.1583312E-3,3.4621947E-3,1.3771844E-3,-1.3728787E-3,1.3370841E-3,3.1064735E-3],"categories":[],"categories_nodes":[],"categories_segments":[],"categories_sizes":[],"default_left":[0,0,0,0,0,0,0,0,0,0,0,0,0],"id":55,"left_children":[1,3,5,-1,7,9,11,-1,-1,-1,-1,-1,-1],"loss_changes":[3.1989702E3,3.083374E2,2.1847356E3,0E0,4.608264E1,1.9563738E3,1.971178E2,0E0,0E0,0E0,0E0,0E0,0E0],"parents":[2147483647,0,0,1,1,2,2,4,4,5,5,6,6],"right_children":[2,4,6,-1,8,10,12,-1,-1,-1,-1,-1,-1],"split_conditions":[-2.5914173E-4,-5.1264255E-4,2.4316334E-3,5.352887E-3,9.3293097E-4,-1.957019E-3,4.0665013E-3,2.1583312E-3,3.4621947E-3,1.3771844E-3,-1.3728787E-3,1.3370841E-3,3.1064735E-3],"split_indices":[4,4,1,0,0,1,1,0,0,0,0,0,0],"split_type":[0,0,0,0,0,0,0,0,0,0,0,0,0],"sum_hessian":[3.429261E4,3.5457815E3,3.074683E4,1.1055662E3,2.4402153E3,2.6517443E4,4.229386E3,1.4683673E3,9.718481E2,5.0987847E3,2.1418658E4,2.107774E3,2.1216125E3],"tree_param":{"num_deleted":"0","num_feature":"11","num_nodes":"13","size_leaf_vector":"1"}},{"base_weights":[-5.373331E-3,7.716078E-1,-1.3057087E-1,5.024224E-3,5.5121666E-1,-2.410027E-1,4.4596195E-1,3.7017476E-3,1.6676435E-3,1.7179043E-3,-1.3366346E-3,1.0746665E-3,2.82761E-3],"categories":[],"categories_nodes":[],"categories_segments":[],"categories_sizes":[],"default_left":[0,0,0,0,0,0,0,0,0,0,0,0,0],"id":56,"left_children":[1,3,5,-1,7,9,11,-1,-1,-1,-1,-1,-1],"loss_changes":[3.3412966E3,4.826731E2,1.8872456E3,0E0,1.5194128E2,1.5571611E3,2.11805E2,0E0,0E0,0E0,0E0,0E0,0E0],"parents":[2147483647,0,0,1,1,2,2,4,4,5,5,6,6],"right_children":[2,4,6,-1,8,10,12,-1,-1,-1,-1,-1,-1],"split_conditions":[-3.7027194E-4,-8.1604853E-4,3.5551874E-4,5.024224E-3,-1.5583057E-3,-1.0839683E-3,6.746266E-4,3.7017476E-3,1.6676435E-3,1.7179043E-3,-1.3366346E-3,1.0746665E-3,2.82761E-3],"split_indices":[6,6,6,0,3,3,6,0,0,0,0,0,0],"split_type":[0,0,0,0,0,0,0,0,0,0,0,0,0],"sum_hessian":[3.4307277E4,4.7360845E3,2.9571193E4,1.432555E3,3.3035295E3,2.4836547E4,4.734647E3,8.199174E2,2.483612E3,3.012674E3,2.1823873E4,2.8622705E3,1.8723767E3],"tree_param":{"num_deleted":"0","num_feature":"11","num_nodes":"13","size_leaf_vector":"1"}},{"base_weights":[2.2199384E-3,6.7513144E-1,-1.4248554E-1,1.1169176E0,5.505022E-1,-3.1568357E-1,4.2036575E-1,5.1093656E-3,3.5822722E-3,3.5614101E-3,1.8331225E-3,1.0391667E-3,-1.5260528E-3,1.148143E-3,3.1245383E-3],"categories":[],"categories_nodes":[],"categories_segments":[],"categories_sizes":[],"default_left":[0,0,0,0,0,0,0,0,0,0,0,0,0,0,0],"id":57,"left_children":[1,3,5,7,9,11,13,-1,-1,-1,-1,-1,-1,-1,-1],"loss_changes":[3.3444617E3,3.1128882E2,2.757704E3,5.440674E0,1.3435046E2,8.225464E2,3.102533E2,0E0,0E0,0E0,0E0,0E0,0E0,0E0,0E0],"parents":[2147483647,0,0,1,1,2,2,3,3,4,4,5,5,6,6],"right_children":[2,4,6,8,10,12,14,-1,-1,-1,-1,-1,-1,-1,-1],"split_conditions":[-1.0839683E-3,-3.5761415E-3,2.8230622E-3,-4.9378057E-3,-2.0679415E-3,-1.3922264E-3,8.094466E-3,5.1093656E-3,3.5822722E-3,3.5614101E-3,1.8331225E-3,1.0391667E-3,-1.5260528E-3,1.148143E-3,3.1245383E-3],"split_indices":[3,3,5,3,10,10,5,0,0,0,0,0,0,0,0],"split_type":[0,0,0,0,0,0,0,0,0,0,0,0,0,0,0],"sum_hessian":[3.427051E4,6.049554E3,2.8220959E4,1.2732404E3,4.776314E3,2.1594502E4,6.6264565E3,6.473774E2,6.258629E2,9.570984E2,3.8192153E3,2.2029128E3,1.9391588E4,4.8837456E3,1.742711E3],"tree_param":{"num_deleted":"0","num_feature":"11","num_nodes":"15","size_leaf_vector":"1"}},{"base_weights":[2.5428315E-3,-1.2587187E-1,6.817855E-1,4.9113294E-1,-2.7158454E-1,4.4736648E-1,9.0269226E-1,3.057442E-3,1.2192822E-3,1.0320068E-3,-1.4243395E-3,1.3591055E-3,3.0306478E-3,3.0602347E-3,4.525976E-3],"categories":[],"categories_nodes":[],"categories_segments":[],"categories_sizes":[],"default_left":[0,0,0,0,0,0,0,0,0,0,0,0,0,0,0],"id":58,"left_children":[1,3,5,7,9,11,13,-1,-1,-1,-1,-1,-1,-1,-1],"loss_changes":[2.9937402E3,2.5967327E3,2.6646362E2,2.7067773E2,1.0483339E3,7.958948E1,5.5689453E1,0E0,0E0,0E0,0E0,0E0,0E0,0E0,0E0],"parents":[2147483647,0,0,1,1,2,2,3,3,4,4,5,5,6,6],"right_children":[2,4,6,8,10,12,14,-1,-1,-1,-1,-1,-1,-1,-1],"split_conditions":[1.5126416E-3,-1.4918188E-3,2.6339223E-3,-3.0001593E-3,-2.2837508E-3,4.0074284E-3,4.794923E-3,3.057442E-3,1.2192822E-3,1.0320068E-3,-1.4243395E-3,1.3591055E-3,3.0306478E-3,3.0602347E-3,4.525976E-3],"split_indices":[0,0,0,0,5,2,0,0,0,0,0,0,0,0,0],"split_type":[0,0,0,0,0,0,0,0,0,0,0,0,0,0,0],"sum_hessian":[3.4243508E4,2.8815752E4,5.4277583E3,5.48756E3,2.3328191E4,2.6839612E3,2.7437969E3,2.1805703E3,3.3069895E3,3.196673E3,2.0131518E4,2.0467876E3,6.3717365E2,1.8027769E3,9.410201E2],"tree_param":{"num_deleted":"0","num_feature":"11","num_nodes":"15","size_leaf_vector":"1"}},{"base_weights":[1.7435153E-3,7.2534347E-1,-1.18925095E-1,1.1510158E0,4.9196923E-1,-2.33013E-1,4.3874928E-1,5.885958E-3,3.956393E-3,3.7881127E-3,1.4025882E-3,1.5278063E-3,-1.301006E-3,1.088726E-3,2.9763072E-3],"categories":[],"categories_nodes":[],"categories_segments":[],"categories_sizes":[],"default_left":[0,0,0,0,0,0,0,0,0,0,0,0,0,0,0],"id":59,"left_children":[1,3,5,7,9,11,13,-1,-1,-1,-1,-1,-1,-1,-1],"loss_changes":[3.0023684E3,4.6635645E2,1.8761465E3,3.7871338E1,1.9396765E2,1.391697E3,2.4554425E2,0E0,0E0,0E0,0E0,0E0,0E0,0E0,0E0],"parents":[2147483647,0,0,1,1,2,2,3,3,4,4,5,5,6,6],"right_children":[2,4,6,8,10,12,14,-1,-1,-1,-1,-1,-1,-1,-1],"split_conditions":[-1.5578782E-3,-3.1882455E-3,1.5075236E-3,-5.91075E-3,-3.676944E-3,-3.0371577E-3,3.0699042E-3,5.885958E-3,3.956393E-3,3.7881127E-3,1.4025882E-3,1.5278063E-3,-1.301006E-3,1.088726E-3,2.9763072E-3],"split_indices":[9,9,9,9,5,5,9,0,0,0,0,0,0,0,0],"split_type":[0,0,0,0,0,0,0,0,0,0,0,0,0,0,0],"sum_hessian":[3.4304695E4,4.885128E3,2.9419568E4,1.6835438E3,3.2015842E3,2.4442098E4,4.977471E3,4.7743015E2,1.2061136E3,7.1310736E2,2.4884768E3,3.171381E3,2.1270717E4,3.2636138E3,1.7138573E3],"tree_param":{"num_deleted":"0","num_feature":"11","num_nodes":"15","size_leaf_vector":"1"}},{"base_weights":[-1.1619141E-3,8.092457E-1,-1.1985268E-1,4.7866665E-3,5.699982E-1,-2.4888185E-1,3.5494572E-1,1.848343E-3,3.030137E-3,-1.3378545E-3,1.8132483E-3,7.860141E-4,2.7408416E-3],"categories":[],"categories_nodes":[],"categories_segments":[],"categories_sizes":[],"default_left":[0,0,0,0,0,0,0,0,0,0,0,0,0],"id":60,"left_children":[1,3,5,-1,7,9,11,-1,-1,-1,-1,-1,-1],"loss_changes":[3.3082139E3,3.8144092E2,1.8415219E3,0E0,4.2060486E1,1.4241641E3,3.2939178E2,0E0,0E0,0E0,0E0,0E0,0E0],"parents":[2147483647,0,0,1,1,2,2,4,4,5,5,6,6],"right_children":[2,4,6,-1,8,10,12,-1,-1,-1,-1,-1,-1],"split_conditions":[-1.987709E-4,-3.8216484E-4,1.3311768E-4,4.7866665E-3,4.343319E-4,3.4304105E-3,3.2079982E-4,1.848343E-3,3.030137E-3,-1.3378545E-3,1.8132483E-3,7.860141E-4,2.7408416E-3],"split_indices":[8,8,8,0,2,2,8,0,0,0,0,0,0],"split_type":[0,0,0,0,0,0,0,0,0,0,0,0,0],"sum_hessian":[3.4354496E4,4.3632026E3,2.9991293E4,1.6151489E3,2.7480537E3,2.3598781E4,6.3925107E3,1.820445E3,9.276088E2,2.1052887E4,2.545895E3,4.3584883E3,2.0340221E3],"tree_param":{"num_deleted":"0","num_feature":"11","num_nodes":"13","size_leaf_vector":"1"}},{"base_weights":[2.5889452E-3,-1.242536E-1,6.8509084E-1,4.7995993E-1,-2.6141858E-1,4.5383096E-1,8.9360183E-1,3.5557277E-3,1.3707683E-3,9.344497E-4,-1.5450942E-3,2.7669873E-3,1.4847516E-3,3.0450705E-3,4.453005E-3],"categories":[],"categories_nodes":[],"categories_segments":[],"categories_sizes":[],"default_left":[0,0,0,0,0,0,0,0,0,0,0,0,0,0,0],"id":61,"left_children":[1,3,5,7,9,11,13,-1,-1,-1,-1,-1,-1,-1,-1],"loss_changes":[2.9845417E3,2.4109084E3,2.4435938E2,2.8928662E2,1.4680569E3,4.0816956E1,5.0451416E1,0E0,0E0,0E0,0E0,0E0,0E0,0E0,0E0],"parents":[2147483647,0,0,1,1,2,2,3,3,4,4,5,5,6,6],"right_children":[2,4,6,8,10,12,14,-1,-1,-1,-1,-1,-1,-1,-1],"split_conditions":[1.5491408E-3,-2.303167E-3,2.6339223E-3,-6.1000558E-3,-1.3341777E-3,-3.4808125E-3,4.794923E-3,3.5557277E-3,1.3707683E-3,9.344497E-4,-1.5450942E-3,2.7669873E-3,1.4847516E-3,3.0450705E-3,4.453005E-3],"split_indices":[0,1,0,1,7,7,0,0,0,0,0,0,0,0,0],"split_type":[0,0,0,0,0,0,0,0,0,0,0,0,0,0,0],"sum_hessian":[3.439642E4,2.9022713E4,5.37371E3,5.351674E3,2.367104E4,2.5998716E3,2.7738386E3,1.2980801E3,4.0535938E3,4.757623E3,1.8913416E4,6.0390857E2,1.9959629E3,1.8230944E3,9.5074426E2],"tree_param":{"num_deleted":"0","num_feature":"11","num_nodes":"15","size_leaf_vector":"1"}},{"base_weights":[4.2981675E-4,7.816806E-1,-1.2220522E-1,1.1182506E0,5.313467E-1,-2.5646195E-1,3.7905762E-1,5.046538E-3,3.7180465E-3,1.7766431E-3,3.0687358E-3,-1.3930174E-3,1.447362E-3,8.761836E-4,2.8070332E-3],"categories":[],"categories_nodes":[],"categories_segments":[],"categories_sizes":[],"default_left":[0,0,0,0,0,0,0,0,0,0,0,0,0,0,0],"id":62,"left_children":[1,3,5,7,9,11,13,-1,-1,-1,-1,-1,-1,-1,-1],"loss_changes":[3.298688E3,3.7084888E2,2.0038245E3,1.1298096E1,4.251117E1,1.3362423E3,3.1739508E2,0E0,0E0,0E0,0E0,0E0,0E0,0E0,0E0],"parents":[2147483647,0,0,1,1,2,2,3,3,4,4,5,5,6,6],"right_children":[2,4,6,8,10,12,14,-1,-1,-1,-1,-1,-1,-1,-1],"split_conditions":[-1.8866757E-4,-3.4574245E-4,1.36411E-4,-4.889779E-4,2.5619715E-3,1.9340331E-3,3.2079982E-4,5.046538E-3,3.7180465E-3,1.7766431E-3,3.0687358E-3,-1.3930174E-3,1.447362E-3,8.761836E-4,2.8070332E-3],"split_indices":[8,8,8,8,1,1,8,0,0,0,0,0,0,0,0],"split_type":[0,0,0,0,0,0,0,0,0,0,0,0,0,0,0],"sum_hessian":[3.4349375E4,4.641809E3,2.9707566E4,1.9304092E3,2.7114E3,2.3447969E4,6.2595977E3,9.910693E2,9.393399E2,2.0520168E3,6.5938293E2,2.0432535E4,3.0154329E3,4.224521E3,2.0350765E3],"tree_param":{"num_deleted":"0","num_feature":"11","num_nodes":"15","size_leaf_vector":"1"}},{"base_weights":[3.8398965E-3,8.481395E-1,-1.0670997E-1,1.1380962E0,6.00309E-1,-2.0991245E-1,4.9507555E-1,5.5404436E-3,4.0479996E-3,2.0613635E-3,3.7115975E-3,1.1771239E-3,-1.3825499E-3,1.3773077E-3,3.585877E-3],"categories":[],"categories_nodes":[],"categories_segments":[],"categories_sizes":[],"default_left":[0,0,0,0,0,0,0,0,0,0,0,0,0,0,0],"id":63,"left_children":[1,3,5,7,9,11,13,-1,-1,-1,-1,-1,-1,-1,-1],"loss_changes":[3.2110354E3,2.6053564E2,1.8900413E3,6.717285E0,4.302832E1,1.780502E3,2.5654785E2,0E0,0E0,0E0,0E0,0E0,0E0,0E0,0E0],"parents":[2147483647,0,0,1,1,2,2,3,3,4,4,5,5,6,6],"right_children":[2,4,6,8,10,12,14,-1,-1,-1,-1,-1,-1,-1,-1],"split_conditions":[-2.1531715E-4,-3.6240704E-4,3.9032188E-3,-6.5931247E-4,3.3496781E-3,-3.019602E-3,9.504079E-3,5.5404436E-3,4.0479996E-3,2.0613635E-3,3.7115975E-3,1.1771239E-3,-1.3825499E-3,1.3773077E-3,3.585877E-3],"split_indices":[8,8,2,8,2,2,2,0,0,0,0,0,0,0,0],"split_type":[0,0,0,0,0,0,0,0,0,0,0,0,0,0,0],"sum_hessian":[3.43196E4,3.9533975E3,3.0366203E4,1.7666179E3,2.1867795E3,2.5941855E4,4.4243467E3,4.8777383E2,1.2788441E3,1.8049702E3,3.818093E2,5.490077E3,2.045178E4,3.2623406E3,1.162006E3],"tree_param":{"num_deleted":"0","num_feature":"11","num_nodes":"15","size_leaf_vector":"1"}},{"base_weights":[4.6108192E-4,-1.2646379E-1,6.674126E-1,5.072735E-1,-2.6720655E-1,5.1142687E-1,9.540242E-1,3.0351796E-3,1.2770875E-3,1.1763725E-3,-1.3861404E-3,1.5147254E-3,2.5474753E-3,4.5437412E-3,3.1635487E-3],"categories":[],"categories_nodes":[],"categories_segments":[],"categories_sizes":[],"default_left":[0,0,0,0,0,0,0,0,0,0,0,0,0,0,0],"id":64,"left_children":[1,3,5,7,9,11,13,-1,-1,-1,-1,-1,-1,-1,-1],"loss_changes":[2.9146624E3,2.5816067E3,2.2710278E2,2.381997E2,1.0574716E3,5.0274902E1,2.3619751E1,0E0,0E0,0E0,0E0,0E0,0E0,0E0,0E0],"parents":[2147483647,0,0,1,1,2,2,3,3,4,4,5,5,6,6],"right_children":[2,4,6,8,10,12,14,-1,-1,-1,-1,-1,-1,-1,-1],"split_conditions":[1.5126416E-3,-1.5653982E-3,3.3706399E-3,-3.0001593E-3,-2.4725136E-3,2.1531004E-3,-1.0888626E-2,3.0351796E-3,1.2770875E-3,1.1763725E-3,-1.3861404E-3,1.5147254E-3,2.5474753E-3,4.5437412E-3,3.1635487E-3],"split_indices":[0,0,0,0,5,0,5,0,0,0,0,0,0,0,0],"split_type":[0,0,0,0,0,0,0,0,0,0,0,0,0,0,0],"sum_hessian":[3.4351734E4,2.8876229E4,5.475506E3,5.229476E3,2.3646754E4,3.6066296E3,1.8688761E3,2.191071E3,3.038405E3,2.9134207E3,2.0733332E4,1.8224989E3,1.7841309E3,7.903216E2,1.0785544E3],"tree_param":{"num_deleted":"0","num_feature":"11","num_nodes":"15","size_leaf_vector":"1"}},{"base_weights":[2.8626665E-3,7.587766E-1,-1.24397874E-1,4.8673037E-3,5.5711305E-1,-2.6065686E-1,3.7832654E-1,2.9055607E-3,1.5413096E-3,1.1208324E-3,-1.3871444E-3,9.226676E-4,2.6947074E-3],"categories":[],"categories_nodes":[],"categories_segments":[],"categories_sizes":[],"default_left":[0,0,0,0,0,0,0,0,0,0,0,0,0],"id":65,"left_children":[1,3,5,-1,7,9,11,-1,-1,-1,-1,-1,-1],"loss_changes":[3.3061567E3,4.3184058E2,2.0162675E3,0E0,9.000757E1,1.081547E3,2.6633368E2,0E0,0E0,0E0,0E0,0E0,0E0],"parents":[2147483647,0,0,1,1,2,2,4,4,5,5,6,6],"right_children":[2,4,6,-1,8,10,12,-1,-1,-1,-1,-1,-1],"split_conditions":[-1.7954342E-4,-8.1604853E-4,1.36411E-4,4.8673037E-3,-2.5659506E-4,-1.1924964E-3,3.2079982E-4,2.9055607E-3,1.5413096E-3,1.1208324E-3,-1.3871444E-3,9.226676E-4,2.6947074E-3],"split_indices":[8,6,8,0,8,9,8,0,0,0,0,0,0],"split_type":[0,0,0,0,0,0,0,0,0,0,0,0,0],"sum_hessian":[3.4289023E4,4.922803E3,2.9366219E4,